~o
<STREAMINFO> 1 26
<VECSIZE> 26<NULLD><MFCC_E_D><DIAGC>
~h "C"
<BEGINHMM>
<NUMSTATES> 5
<STATE> 2
<NUMMIXES> 4
<MIXTURE> 1 2.512912e-01
<MEAN> 26
 -9.515666e+00 2.053514e+00 5.316408e-01 2.781242e-01 -5.125713e+00 -2.553381e+00 -4.048102e+00 -5.529393e+00 -3.641610e+00 -5.545368e-01 -3.903093e+00 -1.200318e+00 2.159955e-01 -2.507356e+00 2.532514e-01 -1.813957e+00 6.511815e-01 3.118899e+00 6.357274e-01 1.054068e+00 2.003763e-01 6.350989e-01 -6.024235e-02 1.601513e-01 1.886899e-01 -9.064005e-02
<VARIANCE> 26
 2.999236e+01 1.669582e+01 2.136694e+01 2.057533e+01 2.837420e+01 1.796527e+01 1.858928e+01 2.810868e+01 1.509350e+01 1.425599e+01 2.017137e+01 1.451171e+01 5.000000e-02 2.941295e+00 7.986234e+00 4.558289e+00 4.494291e+00 6.230280e+00 3.351185e+00 4.896453e+00 6.467819e+00 4.442836e+00 2.268694e+00 2.157921e+00 2.031750e+00 5.000000e-02
<GCONST> 9.409756e+01
<MIXTURE> 2 3.025121e-01
<MEAN> 26
 -2.136964e+01 -3.666133e+00 -1.894854e+00 -1.082073e+01 -3.947297e+00 -3.486861e+00 -3.177235e+00 -1.065362e+00 -1.083283e-01 -1.453439e+00 -2.141460e-01 5.783240e-01 5.039319e-01 -2.615968e+00 9.130557e-02 -8.326811e-01 -8.730719e-01 6.200043e-01 4.695180e-01 8.507034e-01 2.815160e-01 3.824032e-01 -8.374993e-03 2.252732e-01 -1.050881e-01 2.691084e-02
<VARIANCE> 26
 2.008998e+01 3.561493e+01 3.055983e+01 2.182053e+01 2.890127e+01 4.256458e+01 1.942180e+01 8.588361e+00 1.016181e+01 1.226113e+01 1.294599e+01 1.568636e+01 5.000000e-02 6.244431e+00 2.790844e+00 3.680861e+00 4.535147e+00 3.089910e+00 3.269684e+00 5.050435e+00 1.602669e+00 2.036805e+00 2.301207e+00 1.587591e+00 1.520603e+00 5.000000e-02
<GCONST> 8.974237e+01
<MIXTURE> 3 2.511173e-01
<MEAN> 26
 -1.195580e+01 -9.583973e+00 -3.148747e+00 -5.475295e+00 -6.431498e+00 -5.855737e+00 -1.118886e+00 2.299740e+00 -5.390713e-02 -2.502937e+00 -5.107543e+00 1.257458e-01 4.422824e-01 -1.782874e+00 1.853971e-01 -8.984370e-01 -1.983138e-01 1.378892e+00 4.361838e-01 3.331284e-01 -1.157813e+00 3.768933e-01 -1.976867e-01 1.895599e-02 2.009559e-01 -4.115677e-02
<VARIANCE> 26
 3.567683e+01 3.747925e+01 4.866563e+01 4.420587e+01 6.322550e+01 5.299849e+01 6.378957e+01 3.851127e+01 4.647350e+01 3.113351e+01 2.879083e+01 1.734358e+01 5.000000e-02 6.466239e+00 4.143747e+00 3.024950e+00 5.372419e+00 5.405289e+00 4.570527e+00 4.307296e+00 2.959174e+00 2.876994e+00 2.656323e+00 3.901922e+00 1.773491e+00 5.000000e-02
<GCONST> 1.018761e+02
<MIXTURE> 4 1.950794e-01
<MEAN> 26
 -1.614392e+01 -5.583596e+00 -1.097129e+01 -7.122107e+00 -4.192001e+00 -3.823263e+00 -2.034370e+00 -1.710864e+00 -2.076632e+00 -8.973656e-01 -1.821900e+00 -1.375823e-01 2.429785e-01 -2.962284e-01 -1.920629e-01 -2.715289e-01 -3.017663e-01 -1.449117e-01 3.383564e-02 1.495350e-01 2.863883e-02 8.795153e-02 2.228524e-01 1.718136e-01 -1.882318e-02 -1.337077e-02
<VARIANCE> 26
 9.774612e+00 5.975873e+00 6.718128e+00 5.206227e+00 5.365705e+00 7.317975e+00 7.932555e+00 1.021017e+01 1.499550e+01 9.574113e+00 5.704226e+00 7.400803e+00 5.000000e-02 2.088789e+00 8.110398e-01 1.497917e+00 1.162592e+00 1.226087e+00 8.306475e-01 6.117940e-01 2.343885e+00 1.858330e+00 1.644409e+00 1.075748e+00 9.684371e-01 5.000000e-02
<GCONST> 6.880846e+01
<STATE> 3
<NUMMIXES> 4
<MIXTURE> 1 1.591925e-01
<MEAN> 26
 -1.848641e+01 -1.668150e+00 -3.762320e+00 -1.692184e-01 -4.494106e-01 -2.905085e-01 -1.546094e+00 -5.352908e-01 2.046991e-02 3.818831e-01 -5.992614e-01 3.107542e-01 -1.005494e-01 -2.896354e-01 -1.596659e+00 -9.645837e-01 -1.208060e+00 -2.743084e-01 -3.116206e-01 6.518592e-02 2.983373e-01 1.622729e-01 -1.748346e-01 1.973010e-01 -1.245127e-01 4.617623e-02
<VARIANCE> 26
 6.351656e+00 8.066613e+00 8.235974e+00 6.906965e+00 6.264952e+00 1.137360e+01 1.006509e+01 6.553941e+00 6.510294e+00 9.528346e+00 6.677601e+00 9.208029e+00 5.000000e-02 3.332565e+00 4.615123e+00 2.113699e+00 4.572560e+00 2.579991e+00 6.307011e+00 2.763891e+00 1.874031e+00 2.134861e+00 1.726173e+00 1.943008e+00 1.483635e+00 5.000000e-02
<GCONST> 7.827152e+01
<MIXTURE> 2 4.328997e-01
<MEAN> 26
 -2.631127e+01 -1.391319e+00 -7.964798e+00 -1.047725e+01 -2.466908e-02 -9.154933e+00 1.383955e+00 -1.613601e+00 -3.450109e-01 -1.792175e+00 -2.386552e+00 1.869941e-01 6.238192e-01 -3.557109e-02 -3.276222e-01 -8.982939e-02 -2.846073e-01 -5.176578e-02 -7.199755e-02 -1.828050e-02 -1.130451e-03 -5.312534e-02 -8.012968e-02 -1.530180e-01 -8.424100e-02 -8.909630e-04
<VARIANCE> 26
 3.741912e+00 6.297024e+00 1.273807e+01 2.039044e+01 1.755120e+01 1.411400e+01 1.091714e+01 1.486734e+01 1.150371e+01 1.419232e+01 9.790976e+00 8.959025e+00 5.000000e-02 2.030246e+00 6.236600e-01 1.049493e+00 8.559184e-01 9.660455e-01 1.030347e+00 1.061149e+00 1.385416e+00 1.163040e+00 1.766324e+00 1.239423e+00 9.396917e-01 5.000000e-02
<GCONST> 7.206579e+01
<MIXTURE> 3 2.777382e-01
<MEAN> 26
 -1.280932e+01 -1.024825e+01 -8.268195e+00 -6.838953e+00 -3.419885e+00 -3.483507e+00 -2.487019e+00 5.612553e-01 4.325809e-01 -2.641797e+00 -4.446904e+00 -2.435678e-01 4.301252e-01 1.624791e+00 -5.677978e-02 4.984166e-02 9.174792e-02 -1.865890e-01 1.145610e-01 -8.262975e-01 4.546953e-01 -6.422066e-01 -1.303016e-01 -3.234462e-02 -3.489181e-01 2.896317e-02
<VARIANCE> 26
 3.060280e+01 3.394077e+01 3.728248e+01 5.316013e+01 3.905223e+01 5.309505e+01 4.590174e+01 4.683515e+01 4.091091e+01 3.151583e+01 2.475237e+01 1.574766e+01 5.000000e-02 3.420662e+00 3.311911e+00 5.079625e+00 5.101062e+00 3.955279e+00 4.165900e+00 2.448960e+00 3.482616e+00 3.322397e+00 2.763431e+00 2.414956e+00 1.556910e+00 5.000000e-02
<GCONST> 9.893752e+01
<MIXTURE> 4 1.301697e-01
<MEAN> 26
 -2.406583e+01 -9.697411e+00 3.350120e+00 -7.913698e+00 -1.190297e+01 -9.398814e-01 1.506894e+00 -1.643702e+00 2.112419e+00 -2.755435e+00 -2.160017e+00 1.006451e+00 6.286806e-01 1.464495e+00 -3.115537e-01 -1.850370e-01 9.180179e-01 -3.855223e-01 -1.062167e+00 1.399839e-01 3.682532e-01 -1.213052e-01 1.652463e-01 -4.070504e-01 -2.900594e-01 -1.964352e-03
<VARIANCE> 26
 2.157936e+01 1.303025e+01 7.272505e+00 1.602219e+01 2.348079e+01 1.971740e+01 3.428708e+01 1.416003e+01 1.389709e+01 1.594927e+01 1.221464e+01 1.818644e+01 5.000000e-02 6.592627e+00 6.467115e-01 8.823930e-01 2.528929e+00 2.240899e+00 3.287553e+00 3.677986e+00 1.648766e+00 2.178166e+00 2.075792e+00 2.237314e+00 2.747709e+00 5.000000e-02
<GCONST> 8.469474e+01
<STATE> 4
<NUMMIXES> 4
<MIXTURE> 1 1.946497e-01
<MEAN> 26
 -1.093221e+01 -3.145649e+00 -4.010933e+00 -7.065796e+00 -3.736768e+00 -1.547305e+00 -4.347665e+00 -5.034045e+00 -1.555525e+00 1.811162e+00 -3.798486e+00 -1.424624e+00 4.085782e-01 3.918331e+00 7.098767e-01 1.524170e+00 -2.409450e-01 -2.047365e+00 9.367044e-01 -2.105792e+00 -3.537835e-01 -1.182710e+00 4.394121e-03 -2.310515e-01 -4.555848e-01 4.968626e-02
<VARIANCE> 26
 2.834474e+01 3.351871e+01 7.966271e+01 2.147699e+01 3.751514e+01 4.810912e+01 3.502266e+01 1.530542e+01 2.649257e+01 1.398109e+01 1.493072e+01 1.515161e+01 5.000000e-02 4.573895e+00 5.896682e+00 2.969485e+00 6.670883e+00 4.518576e+00 5.384619e+00 7.622714e+00 2.278312e+00 3.237247e+00 3.026118e+00 2.479914e+00 2.629743e+00 5.000000e-02
<GCONST> 9.769749e+01
<MIXTURE> 2 3.798120e-01
<MEAN> 26
 -1.817012e+01 -7.702910e+00 -5.059743e+00 -9.123487e+00 -3.897826e+00 -6.079509e+00 -1.663960e+00 8.714739e-01 1.391884e-02 -1.982318e+00 -2.566255e+00 -2.397576e-01 4.503989e-01 1.642602e+00 -6.027461e-01 4.296714e-02 -5.644751e-01 -9.294875e-01 5.137232e-02 -5.238354e-01 2.735603e-01 2.801439e-01 8.462816e-03 -3.309226e-01 2.170264e-01 1.477455e-02
<VARIANCE> 26
 2.570384e+01 3.450631e+01 2.473527e+01 4.597655e+01 2.366054e+01 4.480880e+01 2.195612e+01 2.010806e+01 2.112340e+01 1.727236e+01 1.706544e+01 1.089677e+01 5.000000e-02 7.328885e+00 3.191839e+00 3.415678e+00 6.871214e+00 2.824784e+00 4.118255e+00 3.255250e+00 2.312694e+00 2.068390e+00 1.583610e+00 1.455060e+00 1.360036e+00 5.000000e-02
<GCONST> 9.244857e+01
<MIXTURE> 3 2.312882e-01
<MEAN> 26
 -5.560683e+00 -8.460849e+00 5.036964e+00 -6.440921e+00 -1.547462e+01 -6.654470e+00 -5.656146e+00 2.866336e+00 -5.955032e+00 -2.745978e+00 -2.167240e+00 -2.301999e-01 6.101456e-01 2.790042e+00 -1.354942e+00 2.143960e+00 -4.669993e-01 -3.142266e+00 -5.149686e-01 -2.332844e+00 2.997453e-01 -1.003847e+00 -8.559531e-02 7.176809e-01 -1.669343e-01 8.753254e-02
<VARIANCE> 26
 2.612941e+01 1.803923e+01 3.541953e+01 1.983362e+01 3.740626e+01 3.029458e+01 6.504360e+01 1.948665e+01 2.175102e+01 2.183146e+01 1.410172e+01 1.150536e+01 5.000000e-02 3.199550e+00 1.901380e+00 5.891134e+00 1.865191e+00 3.071691e+00 3.385670e+00 4.595989e+00 3.509748e+00 3.399603e+00 2.026518e+00 1.698065e+00 2.066124e+00 5.000000e-02
<GCONST> 9.244334e+01
<MIXTURE> 4 1.942501e-01
<MEAN> 26
 2.394230e+00 -1.019929e+01 -9.841737e+00 -9.107470e+00 -1.127971e+01 -1.175565e-01 -9.922044e+00 1.529543e+00 1.804729e-01 1.088103e+00 -3.394845e+00 -4.456377e+00 7.745808e-01 2.680767e+00 -2.136216e+00 -6.623899e-01 -1.407602e+00 -2.313687e+00 1.420005e+00 -2.369012e+00 5.333485e-01 5.074964e-01 8.090941e-01 1.553726e-01 -1.189829e+00 8.932853e-02
<VARIANCE> 26
 6.885030e+00 5.933035e+01 2.669031e+01 3.799522e+01 3.998073e+01 4.866179e+01 3.514542e+01 4.320071e+01 2.474751e+01 2.155284e+01 3.719923e+01 1.214956e+01 5.000000e-02 2.101111e+00 2.437122e+00 1.787731e+00 1.946526e+00 2.643931e+00 2.235546e+00 3.031086e+00 2.182541e+00 1.826584e+00 2.149458e+00 3.215575e+00 1.070738e+00 5.000000e-02
<GCONST> 9.116946e+01
<TRANSP> 5
 0.000000e+00 1.000000e+00 0.000000e+00 0.000000e+00 0.000000e+00
 0.000000e+00 6.177327e-01 3.822673e-01 0.000000e+00 0.000000e+00
 0.000000e+00 0.000000e+00 7.095683e-01 2.904317e-01 0.000000e+00
 0.000000e+00 0.000000e+00 0.000000e+00 6.336682e-01 3.663318e-01
 0.000000e+00 0.000000e+00 0.000000e+00 0.000000e+00 0.000000e+00
<ENDHMM>
