~o
<STREAMINFO> 1 26
<VECSIZE> 26<NULLD><MFCC_E_D><DIAGC>
~h "L"
<BEGINHMM>
<NUMSTATES> 5
<STATE> 2
<NUMMIXES> 4
<MIXTURE> 1 1.973078e-01
<MEAN> 26
 -3.970641e+00 2.321282e+00 1.348431e+00 -7.954563e+00 -1.184061e+01 -3.753610e+00 -5.042256e+00 -9.580497e+00 -9.038848e+00 -8.750091e-01 -3.440583e+00 7.350782e-01 5.699630e-01 3.487481e-01 6.244146e-01 4.608723e-01 -9.400702e-01 -1.377506e+00 3.224622e-01 5.073785e-01 -3.499099e-01 -1.007327e+00 -7.745962e-01 4.309874e-01 8.992838e-02 1.910391e-02
<VARIANCE> 26
 3.686999e+01 1.250038e+01 5.940140e+01 2.145894e+01 2.523485e+01 5.020273e+01 1.341043e+01 2.283792e+01 3.621184e+00 9.573750e+00 5.959228e+00 1.170872e+01 5.000000e-02 1.678264e+00 2.118381e+00 2.039904e+00 1.384718e+00 5.445235e+00 2.484301e+00 1.391256e+00 2.466310e+00 1.711416e+00 1.878495e+00 1.656024e+00 2.569757e-01 5.000000e-02
<GCONST> 8.219473e+01
<MIXTURE> 2 3.641686e-01
<MEAN> 26
 3.166844e+00 -1.504126e+01 -5.933974e+00 -3.460716e+00 -1.554869e+01 -9.421369e+00 -1.425377e+01 1.019110e+01 9.498755e-02 -8.921862e-01 -5.181091e-01 -2.471850e+00 8.215520e-01 7.125996e-01 -3.099170e-01 -6.118662e-01 -1.700931e-02 -9.597568e-01 4.637725e-02 -2.899996e-02 4.603836e-01 3.159702e-01 1.953391e-01 -4.264975e-01 -4.089339e-01 1.959940e-02
<VARIANCE> 26
 9.460399e-01 1.312188e+01 2.862502e+01 1.440143e+01 2.065307e+01 3.124814e+01 3.059026e+01 3.125216e+01 8.526166e+00 1.573504e+01 1.255787e+01 1.279568e+01 5.000000e-02 2.091997e+00 9.056664e-01 2.164371e+00 9.641986e-01 4.930230e+00 9.025937e-01 5.103488e+00 1.198566e+00 1.289362e+00 5.043837e-01 2.088330e+00 1.321886e+00 5.000000e-02
<GCONST> 7.890865e+01
<MIXTURE> 3 2.584545e-01
<MEAN> 26
 3.408564e+00 -2.997687e+00 -1.305130e+01 -1.921400e+01 -1.289028e+01 8.591770e+00 -7.895233e+00 -3.043218e+00 -8.698856e-01 1.737860e+00 -4.239243e+00 -9.701130e-01 7.984163e-01 -9.359714e-02 6.513228e-02 3.793076e-01 7.673454e-01 1.080099e+00 -1.279789e+00 -1.161787e+00 2.499997e-01 -1.203959e-01 -1.438103e-01 1.878311e-01 8.110005e-02 -8.561587e-03
<VARIANCE> 26
 4.083800e+00 9.867104e+00 2.528973e+01 3.241654e+01 1.705277e+01 3.265194e+01 4.182925e+01 1.634444e+01 1.279544e+01 6.301172e+01 4.333695e+01 1.455936e+01 5.000000e-02 9.069845e-01 3.332792e+00 7.026192e+00 2.005267e+00 1.460180e+00 6.960403e+00 7.022859e-01 6.365645e+00 1.211331e+00 3.592438e+00 2.821569e+00 8.644027e-01 5.000000e-02
<GCONST> 8.811800e+01
<MIXTURE> 4 1.800690e-01
<MEAN> 26
 -5.686288e-01 9.519597e-01 -4.392867e+00 -1.590008e+01 -4.901575e+00 5.737556e-01 -1.444315e+01 -6.355919e+00 -8.427317e+00 1.633129e+00 2.656173e-01 -3.256256e+00 6.393105e-01 1.385066e+00 9.755725e-01 2.350743e-01 -2.572539e+00 -1.265289e-01 1.220584e+00 -7.942840e-01 4.388915e-01 -1.638541e+00 2.309850e-01 2.078203e-03 -9.927744e-02 2.449358e-02
<VARIANCE> 26
 1.091397e+01 1.916290e+01 1.655171e+01 2.386205e+01 1.545809e+01 2.435174e+01 2.716670e+01 3.060188e+01 7.763885e+01 4.889302e+01 3.414117e+01 4.006918e+00 5.000000e-02 1.718225e+00 2.766878e+00 1.215213e+00 1.489509e+00 1.305883e+00 4.316099e+00 5.262200e+00 4.023589e+00 1.680829e+00 4.212927e+00 2.956070e+00 5.930549e-01 5.000000e-02
<GCONST> 8.838232e+01
<STATE> 3
<NUMMIXES> 4
<MIXTURE> 1 3.846521e-01
<MEAN> 26
 4.357989e+00 -1.020735e+01 -1.303885e+01 -2.909547e+00 -1.277685e+01 -7.234230e+00 -9.742911e+00 5.831982e+00 3.603524e+00 -2.794521e+00 -2.786808e+00 -4.799841e-01 7.515052e-01 -2.517126e-01 3.470890e-01 1.742157e-01 -1.756973e-01 -8.038630e-02 3.170631e-01 8.897225e-01 -4.929057e-01 -3.797386e-01 -5.503631e-01 4.948029e-01 2.144938e-01 -7.996989e-03
<VARIANCE> 26
 5.959442e+00 1.471161e+01 6.126397e+01 1.374112e+01 3.115509e+01 9.500523e+00 1.980860e+01 3.291138e+01 1.304283e+01 1.510103e+01 1.901035e+01 2.072138e+01 5.000000e-02 3.660970e-01 5.264598e-01 3.812041e+00 1.596382e+00 1.620132e+00 2.690162e+00 2.345997e+00 1.294739e+00 1.590680e+00 1.675129e+00 1.829275e+00 1.961111e+00 5.000000e-02
<GCONST> 8.143201e+01
<MIXTURE> 2 3.798767e-01
<MEAN> 26
 3.114260e+00 -1.223162e-02 -1.035135e+01 -1.577850e+01 -1.237175e+01 4.005506e+00 -6.742702e+00 -5.346300e+00 -7.341934e+00 -1.663512e+00 2.509802e-01 -2.261470e+00 7.455432e-01 -2.125770e-01 -1.542798e+00 9.184674e-02 9.720897e-01 -5.520616e-03 -5.298085e-01 -1.001616e+00 2.514999e-01 1.286420e+00 6.509837e-01 -6.797313e-01 -4.083414e-01 1.782519e-02
<VARIANCE> 26
 5.197563e+00 3.287918e+01 4.053004e+01 2.653021e+01 3.958998e+01 3.027256e+01 1.593451e+01 1.741520e+01 3.939764e+01 3.484587e+01 2.763317e+01 1.544601e+01 5.000000e-02 4.731514e-01 4.267175e+00 1.509405e+00 3.100360e+00 3.935587e+00 4.959358e+00 2.422276e+00 4.184813e+00 2.706567e+00 2.314681e+00 4.084276e+00 2.295102e+00 5.000000e-02
<GCONST> 9.151657e+01
<MIXTURE> 3 1.178950e-01
<MEAN> 26
 -3.042194e+00 -7.885101e+00 1.351926e+01 -8.927660e+00 -1.852384e+01 -8.536285e+00 -1.276371e+01 3.680267e-01 -1.529920e+01 -2.742222e+00 9.213007e-01 -2.728419e+00 7.500331e-01 -1.632881e-01 -4.054978e-01 1.474987e+00 -1.621615e+00 -2.124991e+00 1.341279e+00 -4.582176e-01 8.394448e-01 -2.791253e+00 1.516691e+00 6.159358e-01 -3.447028e-01 2.780935e-02
<VARIANCE> 26
 6.417277e+00 5.330665e+01 2.018905e+00 1.432045e+01 7.060231e+00 2.558654e+01 1.034212e+01 1.778030e+01 1.156624e+01 1.704414e+01 2.164209e+01 6.870698e+00 5.000000e-02 1.399668e+00 8.758035e-01 7.328292e-01 1.033280e+00 1.787524e+00 1.537488e+00 9.628399e-01 2.829212e+00 9.388674e-01 1.081458e+00 1.264280e+00 5.000000e-02 5.000000e-02
<GCONST> 7.088194e+01
<MIXTURE> 4 1.175762e-01
<MEAN> 26
 2.142213e-01 -2.931531e+00 -3.243202e+00 -2.113697e+01 -4.644643e+00 2.097990e+00 -1.894594e+01 -5.808458e+00 -1.990274e+00 1.172460e+01 -4.701740e+00 -2.547430e+00 7.471306e-01 -1.504655e+00 2.180672e+00 4.767419e-01 4.297523e-01 1.669980e+00 -2.654884e+00 2.064003e+00 -1.597356e+00 -3.314885e-02 -8.753445e-01 9.052510e-01 2.495439e-01 -3.209382e-02
<VARIANCE> 26
 2.700696e+00 1.303291e+01 1.183004e+01 2.402192e+00 5.577197e+00 1.812645e+01 1.395075e+01 1.916218e+01 1.449721e+01 2.599684e+00 3.329700e+00 8.460109e-01 5.000000e-02 3.438976e+00 2.065294e+00 3.348549e-01 3.658388e+00 2.280380e+00 5.765090e+00 3.191180e+00 6.835885e-01 4.966694e-01 1.799068e+00 1.714901e+00 1.599692e+00 5.000000e-02
<GCONST> 6.998705e+01
<STATE> 4
<NUMMIXES> 4
<MIXTURE> 1 2.107991e-01
<MEAN> 26
 -5.442310e+00 3.367898e+00 -5.545694e+00 -1.495750e+01 -1.176739e+00 -2.613223e+00 -8.625441e+00 -4.003868e+00 -1.615910e+00 1.674730e+00 -4.091423e+00 8.852751e-01 5.890251e-01 -3.376188e+00 1.153841e-01 6.653231e-01 2.359590e+00 1.327148e+00 -2.016204e+00 2.016152e+00 8.777339e-01 9.191273e-01 -3.031030e-01 2.686066e-01 4.480589e-01 -4.709351e-02
<VARIANCE> 26
 3.073457e+01 1.254690e+01 1.368418e+01 5.327484e+01 8.035095e+00 5.173435e+01 4.365298e+01 9.535946e+01 8.742483e+00 3.731757e+01 1.795394e+01 1.651895e+01 5.000000e-02 7.757713e+00 5.668732e+00 1.978040e+00 4.217490e+00 2.809193e+00 3.960494e+00 9.564689e+00 2.680830e+00 3.394871e+00 5.142877e+00 2.159308e+00 8.688852e-01 5.000000e-02
<GCONST> 9.523135e+01
<MIXTURE> 2 1.727720e-01
<MEAN> 26
 -4.162940e+00 -5.307355e+00 9.897702e+00 -6.286922e+00 -1.483428e+01 -1.255676e+01 -9.901541e+00 2.120576e-02 -1.263059e+01 6.458095e-01 -3.066341e+00 -7.070355e-05 6.973135e-01 -1.227032e+00 3.254743e-01 1.822720e+00 2.069144e-01 -1.230824e+00 -6.715682e-01 8.271131e-01 -6.291713e-01 -1.607282e+00 -9.597043e-02 -4.880306e-02 8.057989e-01 1.356941e-02
<VARIANCE> 26
 1.468902e+01 1.531641e+01 1.751123e+01 2.879387e+01 4.583799e+01 3.494869e+01 1.033972e+01 2.505416e+01 3.144849e+01 3.627418e+00 1.672349e+01 1.433723e+01 5.000000e-02 9.760512e-01 1.118978e+00 5.051961e+00 1.565267e+00 4.031294e+00 4.016373e+00 1.516095e+00 8.728327e+00 1.370280e+00 1.066134e+00 2.341513e+00 4.802539e-01 5.000000e-02
<GCONST> 8.460455e+01
<MIXTURE> 3 4.246479e-01
<MEAN> 26
 5.597439e-01 -1.212649e+01 -8.074802e+00 -2.470652e+00 -1.233689e+01 -5.457937e+00 -7.120547e+00 4.233112e+00 1.933962e+00 -1.103655e+00 -3.220633e+00 -1.303388e+00 6.848720e-01 -2.153257e+00 1.684082e-01 9.456162e-01 5.800812e-01 6.311102e-01 -9.650798e-02 1.419326e+00 -4.061967e-01 4.562608e-01 9.000473e-02 -6.222049e-01 7.840391e-01 -5.450233e-02
<VARIANCE> 26
 1.937448e+01 1.563505e+01 4.591574e+01 3.040593e+01 6.749586e+01 6.443148e+01 7.237048e+01 3.434793e+01 3.033105e+01 1.349805e+01 4.148952e+01 3.589772e+01 5.000000e-02 3.164116e+00 4.202925e+00 2.142494e+00 4.815885e+00 1.220267e+01 5.366204e+00 2.978289e+00 2.553186e+00 3.545853e+00 6.215777e-01 2.953967e+00 2.005951e+00 5.000000e-02
<GCONST> 9.796666e+01
<MIXTURE> 4 1.917811e-01
<MEAN> 26
 4.527191e+00 -3.478932e+00 -1.238129e+01 -2.144731e+01 -1.974273e+01 1.200708e+01 -5.492802e+00 -2.716772e+00 -5.984192e+00 1.617841e-01 1.437563e+00 -1.772072e+00 8.312222e-01 3.462614e-02 -2.108341e+00 -5.443030e-01 1.349964e-03 5.720966e-01 2.136146e+00 -5.685976e-01 1.202332e-01 4.900749e-01 6.620554e-01 6.657428e-01 -1.118412e+00 2.727921e-02
<VARIANCE> 26
 2.498455e+00 3.102988e+01 4.863717e+00 1.024707e+01 1.527087e+01 2.125599e+01 1.716921e+00 8.727721e+00 2.359690e+00 1.571603e+01 2.811284e+01 6.732809e+00 5.000000e-02 7.010161e-02 1.008576e+00 3.611009e-01 1.853383e+00 7.864944e-01 1.868227e+00 2.181452e-01 2.027191e+00 5.330248e-01 1.142027e+00 1.953168e+00 1.418014e+00 5.000000e-02
<GCONST> 6.443916e+01
<TRANSP> 5
 0.000000e+00 1.000000e+00 0.000000e+00 0.000000e+00 0.000000e+00
 0.000000e+00 5.866381e-01 4.133619e-01 0.000000e+00 0.000000e+00
 0.000000e+00 0.000000e+00 5.789301e-01 4.210699e-01 0.000000e+00
 0.000000e+00 0.000000e+00 0.000000e+00 5.205922e-01 4.794078e-01
 0.000000e+00 0.000000e+00 0.000000e+00 0.000000e+00 0.000000e+00
<ENDHMM>
