~o
<STREAMINFO> 1 26
<VECSIZE> 26<NULLD><MFCC_E_D><DIAGC>
~h "N"
<BEGINHMM>
<NUMSTATES> 5
<STATE> 2
<NUMMIXES> 4
<MIXTURE> 1 1.995116e-01
<MEAN> 26
 -3.101155e+00 -8.291252e+00 4.466997e+00 -5.029861e+00 -1.261981e+01 -7.963315e-01 -1.481804e+01 5.562443e+00 4.334381e-01 -5.704429e+00 -7.754849e+00 1.707452e+00 5.670654e-01 -7.559675e-01 5.516248e-01 1.024496e+00 1.498662e+00 9.097078e-02 3.028562e-01 2.975907e-01 -9.726864e-01 -1.406414e+00 6.629887e-01 -8.764133e-01 7.539616e-01 -4.621763e-02
<VARIANCE> 26
 4.044441e+00 3.548851e+01 6.147177e+00 5.971986e+00 2.383455e+01 1.081879e+01 1.136245e+01 1.611579e+01 2.176201e+01 7.612700e+00 1.801676e+01 9.953975e+00 5.000000e-02 3.498990e-01 5.971295e-01 2.532472e+00 2.527365e+00 9.658548e-01 1.370134e+00 4.566986e+00 3.237757e+00 2.327790e+00 7.490769e-01 1.894998e+00 1.318126e+00 5.000000e-02
<GCONST> 7.616074e+01
<MIXTURE> 2 1.774594e-01
<MEAN> 26
 -3.513457e+00 -5.890677e+00 4.203502e-01 -9.974086e-01 -8.369864e+00 2.270272e+00 -7.050849e+00 -5.909130e+00 -6.996739e+00 5.739897e+00 -4.835063e+00 -2.681731e+00 4.367713e-01 2.249343e-01 9.187610e-01 -6.967766e-01 1.982446e+00 1.106866e+00 -1.827050e-01 -2.136857e+00 -2.762813e+00 1.205440e-01 -1.302154e+00 -7.669892e-02 2.710725e+00 -1.790215e-02
<VARIANCE> 26
 6.200734e+00 6.822184e+00 2.572636e+01 1.106566e+01 4.471462e+01 4.810877e+00 3.373349e+01 1.724041e+01 1.864799e+01 1.335102e+01 1.339629e+01 6.429654e+00 5.000000e-02 1.758965e+00 3.670963e+00 3.351834e+00 3.532791e+00 3.813935e+00 2.974424e+00 1.723097e+00 1.123739e+00 1.515252e+01 2.884534e+00 4.800232e+00 1.343794e+00 5.000000e-02
<GCONST> 8.596767e+01
<MIXTURE> 3 4.900215e-01
<MEAN> 26
 -3.875794e+00 -4.830095e+00 5.413143e+00 -2.389559e+00 -1.403051e+01 4.426840e+00 -8.798038e+00 -1.017418e+01 -4.665216e+00 -1.790677e+00 -5.208893e+00 3.241830e+00 4.452764e-01 1.827167e-01 3.990466e-01 4.662705e-01 9.358355e-01 -8.013924e-01 9.205802e-01 -2.407799e-01 -2.485200e+00 -1.031374e+00 5.118944e-02 5.302423e-01 7.610864e-01 -1.260836e-02
<VARIANCE> 26
 3.275279e-01 1.110324e+01 5.037023e+00 2.749536e+00 2.267305e+01 6.793714e+00 1.949157e+01 1.392641e+01 1.526213e+01 8.427251e+00 7.484987e+00 1.576353e+00 5.000000e-02 2.454974e+00 2.021429e+00 9.487498e-01 1.230660e+00 3.443992e+00 3.209780e+00 2.589226e+00 4.716783e+00 1.515627e+00 1.644239e+00 1.480983e+00 7.615520e-01 5.000000e-02
<GCONST> 7.137405e+01
<MIXTURE> 4 1.330076e-01
<MEAN> 26
 -1.104314e+00 -6.401232e+00 -5.525647e-01 8.546461e+00 -1.249788e+01 -4.857941e+00 -6.306745e+00 -1.189784e+01 -8.078613e+00 2.724287e+00 -5.046377e+00 -5.577829e+00 4.520043e-01 -7.533372e-01 1.120921e+00 1.985328e-01 1.779180e+00 1.062573e+00 8.227268e-01 1.071556e+00 -3.630413e+00 -2.843972e+00 2.198799e+00 -8.539730e-01 2.352746e-01 -3.791251e-02
<VARIANCE> 26
 1.697629e-01 1.798328e-01 6.973372e-01 2.682918e+00 3.103192e+00 2.949747e+00 3.063570e+00 1.271255e+01 2.273564e+00 5.966384e+00 2.862401e+00 2.379688e+00 5.000000e-02 1.229048e-01 6.494017e-01 2.696028e-01 2.748138e+00 4.964000e-01 9.684685e-01 3.265022e+00 3.148561e+00 4.408198e-01 2.616389e-01 2.820172e-01 7.644002e-01 5.000000e-02
<GCONST> 4.440863e+01
<STATE> 3
<NUMMIXES> 4
<MIXTURE> 1 2.294153e-01
<MEAN> 26
 -3.678811e+00 -3.031266e-03 3.678231e-01 -6.549392e+00 -1.007384e+01 -1.030767e+00 -8.744271e+00 -4.347147e+00 1.448520e-02 1.505058e+00 -9.425027e+00 -6.472234e-01 4.384139e-01 2.113754e-01 9.561440e-01 -1.271768e+00 3.587794e-01 6.424487e-02 9.015007e-01 -1.852856e-01 1.032410e-01 -2.350660e-01 3.545175e-01 1.515327e+00 -1.801267e-01 -1.225306e-02
<VARIANCE> 26
 5.026361e+00 1.567470e+01 1.160332e+01 5.125558e+00 1.903727e+01 8.977108e+00 3.964688e+01 1.568220e+01 5.656895e+00 2.146818e+01 1.563932e+01 1.461699e+01 5.000000e-02 1.317198e+00 1.738909e+00 4.000026e-01 3.323685e+00 7.368104e-01 3.139134e-01 7.654617e-01 3.092715e+00 2.717034e+00 5.437771e+00 2.171208e+00 2.573243e+00 5.000000e-02
<GCONST> 7.697527e+01
<MIXTURE> 2 3.437693e-01
<MEAN> 26
 -4.644328e+00 -2.491079e-01 4.188056e+00 -6.015716e-01 -1.159654e+01 2.636244e+00 -6.692621e+00 -1.105177e+01 -6.545054e+00 -4.253009e+00 -7.058793e+00 4.853673e+00 3.820225e-01 -8.303879e-01 2.388121e-01 -1.046525e+00 -1.375348e+00 6.688965e-01 -1.766748e+00 1.094586e+00 1.868289e+00 1.504674e+00 -9.161893e-01 3.495422e-01 -2.990333e-01 1.553053e-02
<VARIANCE> 26
 1.162043e+00 1.450021e+01 1.674635e+01 4.559396e+00 3.514078e+01 9.219532e+00 1.558115e+01 3.717600e+00 1.044762e+01 2.277674e+00 1.290563e+01 1.109250e+01 5.000000e-02 2.785891e+00 2.578223e+00 2.838458e+00 2.549614e+00 4.900683e+00 1.798586e+00 2.968056e+00 6.639324e+00 8.838570e-01 1.598475e+00 1.801679e+00 1.053718e+00 5.000000e-02
<GCONST> 7.702114e+01
<MIXTURE> 3 1.719485e-01
<MEAN> 26
 -3.367215e+00 -1.231971e+01 2.183804e+00 5.854433e-01 -1.346049e+01 -3.452479e+00 -8.823758e+00 2.846580e+00 -5.634723e-01 -5.456054e+00 -1.067801e+01 4.057061e+00 5.331569e-01 -7.272588e-01 4.609600e-01 -1.060563e+00 -2.726163e-01 1.584915e+00 -4.575092e-02 2.298851e+00 -1.388429e-02 1.070315e+00 -1.149889e+00 -7.253865e-01 -5.407511e-01 -3.022171e-02
<VARIANCE> 26
 5.785512e+00 2.764751e+00 9.489894e+00 3.410590e+01 8.732562e+00 1.534618e+01 3.984844e+01 1.075056e+01 1.255089e+01 5.510555e+00 7.578038e+00 1.698014e+01 5.000000e-02 2.169652e+00 1.280833e+00 1.084582e+00 4.921553e+00 1.626750e+00 1.084211e+00 1.422524e+00 9.437792e-01 2.574080e+00 1.588647e+00 2.744991e+00 2.953799e+00 5.000000e-02
<GCONST> 7.745722e+01
<MIXTURE> 4 2.548669e-01
<MEAN> 26
 -2.987243e+00 -5.517827e+00 9.404497e-01 2.268837e+00 -8.525816e+00 2.494219e+00 -1.175555e+01 -1.337383e+01 -1.099358e+01 3.326114e+00 -5.388993e+00 3.395855e+00 4.742336e-01 9.872149e-01 4.736387e-01 -1.953596e+00 -2.509951e+00 -6.359837e-01 6.559946e-01 8.696402e-01 7.854879e-01 1.206049e+00 -1.143348e+00 2.880252e-01 5.465416e-01 3.707559e-02
<VARIANCE> 26
 9.937306e-01 6.148445e+00 2.793606e+00 1.772775e+01 3.052954e+00 1.971503e+01 2.157994e+01 4.405422e+00 4.344080e+00 2.283943e+01 7.580014e+00 1.860619e+01 5.000000e-02 8.480638e-01 4.938551e-01 2.887356e+00 1.547157e+00 2.572384e+00 4.932488e-01 1.761846e+00 3.293601e+00 3.421542e+00 9.921486e-01 8.405755e-01 1.957067e+00 5.000000e-02
<GCONST> 7.004697e+01
<STATE> 4
<NUMMIXES> 4
<MIXTURE> 1 2.187220e-01
<MEAN> 26
 -1.431120e+01 -5.622904e-01 -4.268984e+00 -2.193204e+00 -6.140237e+00 -4.917200e+00 -1.190549e+00 -3.029788e+00 -4.501207e-01 -3.336433e+00 -2.307178e+00 1.454798e+00 3.146301e-01 -3.878767e+00 -1.036884e+00 -4.117085e+00 -1.113954e+00 2.367379e+00 -1.903807e+00 7.084136e-01 4.964055e-02 1.452502e+00 1.210312e-01 1.609976e+00 -1.519241e+00 3.900477e-02
<VARIANCE> 26
 2.487819e+01 1.896924e+01 2.120326e+01 6.151954e+01 2.091059e+01 1.111890e+01 1.283448e+01 2.051013e+01 9.852461e+00 5.851054e+00 9.214036e+00 5.977854e+00 5.000000e-02 2.980793e+00 4.051323e+00 1.469999e+00 3.153805e+00 3.595077e+00 2.482513e+00 2.420835e-01 2.830255e+00 5.529726e-01 4.071148e-01 6.586860e-01 4.456931e-01 5.000000e-02
<GCONST> 7.732784e+01
<MIXTURE> 2 2.498763e-01
<MEAN> 26
 1.895007e+00 -5.218290e+00 -1.126471e+01 -1.206443e+01 -9.767997e+00 3.502662e+00 -7.647245e+00 -3.130300e+00 -1.440760e+00 -1.100080e+00 -2.840565e+00 -9.120671e-01 6.707944e-01 2.002776e+00 -1.016796e+00 -3.934402e+00 -3.638038e+00 -3.420375e-01 2.082003e+00 -5.394178e-01 3.252357e+00 4.104674e+00 -1.068733e+00 -3.018648e-01 -2.121101e+00 8.648093e-02
<VARIANCE> 26
 1.053013e+01 6.183887e+00 1.472612e+01 1.609625e+01 5.754421e+00 1.348049e+01 9.211359e+00 7.943330e+00 1.273603e+01 1.053443e+01 4.570071e+00 8.769727e+00 5.000000e-02 3.974713e-01 9.834031e-01 3.280406e-01 7.345507e-01 2.168119e+00 2.427177e+00 2.741234e+00 1.022470e+00 2.123499e+00 5.607579e-01 8.669735e-01 5.645515e-01 5.000000e-02
<GCONST> 6.846050e+01
<MIXTURE> 3 3.127606e-01
<MEAN> 26
 -4.246220e+00 -9.093220e+00 3.940088e+00 -6.707828e+00 -1.427334e+01 -2.226547e+00 -7.147293e+00 2.709084e+00 2.667818e+00 -8.998277e+00 -7.889644e+00 1.650278e+00 5.478368e-01 -2.144737e-01 -1.642162e+00 -9.198964e-01 -2.973367e+00 2.180583e-01 -1.258837e+00 9.979311e-01 2.356772e+00 1.641311e+00 -6.166225e-01 1.060592e+00 -7.998238e-01 4.780767e-02
<VARIANCE> 26
 5.454087e+00 2.688487e+01 1.371660e+01 1.768614e+01 1.825773e+01 1.533284e+01 3.647550e+01 2.924784e+01 4.495090e+00 7.044746e+00 1.340503e+01 1.175056e+01 5.000000e-02 2.873812e+00 1.472569e+00 2.643404e+00 9.750385e-01 7.872813e+00 1.418823e+00 1.121194e+00 6.279011e+00 2.042609e+00 2.019636e+00 4.670115e+00 1.750511e+00 5.000000e-02
<GCONST> 8.366701e+01
<MIXTURE> 4 2.186411e-01
<MEAN> 26
 -2.210132e+00 8.341056e-01 -9.158779e-01 1.427637e+00 -6.688982e+00 9.350395e-01 -6.164894e+00 -1.199636e+01 -1.078470e+01 3.829262e+00 -8.065896e-01 -2.405617e+00 3.899826e-01 -8.590882e-01 1.869934e+00 -2.253997e-01 -8.026332e-01 6.677874e-01 5.761708e-01 8.341347e-01 -4.192640e-01 -2.437260e-02 -6.746419e-01 8.550565e-01 1.442236e+00 -2.695272e-02
<VARIANCE> 26
 4.518345e+00 6.619147e+00 4.277627e+00 3.058236e+01 1.790431e+01 1.010108e+01 3.891086e+00 1.501794e+01 1.208311e+01 7.422618e+00 8.164217e+00 8.251685e+00 5.000000e-02 1.624486e+00 6.336668e-01 3.852423e-01 7.878881e-01 4.478608e+00 6.172155e-01 2.510165e+00 3.343625e+00 4.845638e+00 8.148701e-01 2.292729e+00 1.410632e-01 5.000000e-02
<GCONST> 7.026282e+01
<TRANSP> 5
 0.000000e+00 1.000000e+00 0.000000e+00 0.000000e+00 0.000000e+00
 0.000000e+00 6.453153e-01 3.546848e-01 0.000000e+00 0.000000e+00
 0.000000e+00 0.000000e+00 5.412012e-01 4.587988e-01 0.000000e+00
 0.000000e+00 0.000000e+00 0.000000e+00 5.002468e-01 4.997532e-01
 0.000000e+00 0.000000e+00 0.000000e+00 0.000000e+00 0.000000e+00
<ENDHMM>
