~o
<STREAMINFO> 1 26
<VECSIZE> 26<NULLD><MFCC_E_D><DIAGC>
~h "S"
<BEGINHMM>
<NUMSTATES> 5
<STATE> 2
<NUMMIXES> 4
<MIXTURE> 1 1.246323e-01
<MEAN> 26
 -7.289556e+00 -3.623972e+00 -4.164300e+00 -7.142945e+00 -7.993151e+00 -3.848698e-01 -1.592961e-01 3.795057e+00 7.545779e-01 -6.442078e-01 -7.244281e+00 1.219493e+00 3.092371e-01 -1.846050e+00 -4.490141e-01 -3.936930e-01 1.193438e-01 8.660300e-01 -5.902429e-01 6.515572e-02 -1.004865e+00 -7.333166e-01 -6.208518e-01 4.947928e-01 3.941204e-02 -8.612697e-02
<VARIANCE> 26
 9.960987e+00 5.359045e+01 4.383665e+01 2.477310e+01 1.094841e+02 9.932630e+00 8.011261e+00 1.723409e+01 2.356145e+01 1.136701e+01 1.613319e+01 2.156710e+01 5.000000e-02 2.461967e+00 1.324620e+00 1.135715e+00 3.621075e+00 2.849299e+00 1.633146e+00 2.705067e+00 3.313013e+00 1.002556e+00 2.654412e+00 1.492460e+00 1.262466e+00 5.000000e-02
<GCONST> 8.636430e+01
<MIXTURE> 2 3.579691e-01
<MEAN> 26
 -1.711347e+01 -4.348151e+00 -8.139462e+00 -1.163733e+01 2.327418e-02 -2.824314e+00 -2.757972e+00 1.521922e+00 -1.696341e+00 -1.187545e+00 -3.158203e+00 -8.789104e-01 1.252778e-01 7.860409e-01 1.528302e-01 -5.988064e-01 5.992332e-01 -6.986318e-02 1.218034e+00 -1.934196e-01 1.156380e-01 -4.509978e-01 2.777245e-01 4.307330e-01 3.105106e-01 -3.751883e-02
<VARIANCE> 26
 3.537195e+00 3.518558e+00 6.845571e+00 8.316758e+00 1.124448e+01 2.595421e+01 1.003269e+01 1.835067e+01 1.111764e+01 8.450422e+00 1.034101e+01 6.904012e+00 5.000000e-02 6.584086e-01 4.646946e-01 8.509949e-01 1.259363e+00 1.354639e+00 1.921533e+00 1.627962e+00 3.423136e+00 1.001282e+00 8.313403e-01 1.422190e+00 8.959870e-01 5.000000e-02
<GCONST> 6.967772e+01
<MIXTURE> 3 5.209504e-02
<MEAN> 26
 -6.988512e+00 -5.186976e+00 -1.017322e+01 -1.474137e+01 -4.972579e+00 -5.787534e-01 -1.260838e+01 -1.397635e+00 6.196221e+00 -1.845767e+00 -1.376028e+01 -1.928948e+01 3.411597e-01 -4.058279e-01 -1.514468e+00 -1.143623e-01 -5.105206e-01 1.309201e+00 3.499418e+00 -4.528484e-01 5.423697e-01 -4.158467e-01 -7.666439e-01 -9.919012e-01 -1.459443e+00 -4.260408e-02
<VARIANCE> 26
 1.883915e+01 6.611133e+00 4.357510e+00 4.623002e+00 9.826461e+00 4.489311e+01 2.410514e+01 7.109488e+00 1.202663e+01 2.207303e+01 2.413729e+01 2.614430e+01 5.000000e-02 7.931870e+00 1.557126e+00 4.399598e-01 1.126139e+00 9.449288e-01 1.140823e+00 6.090887e+00 3.548941e-01 1.220760e+00 2.123402e+00 8.490832e+00 1.448179e+01 5.000000e-02
<GCONST> 8.130486e+01
<MIXTURE> 4 4.653036e-01
<MEAN> 26
 -1.902039e+01 -2.397178e+00 -5.590344e+00 -3.505451e+00 -3.549549e+00 3.632039e-01 -7.688241e-01 1.557860e+00 7.880054e-02 1.209594e+00 9.031619e-01 -2.985500e-01 -1.478931e-01 5.753891e-02 1.986091e-02 1.213983e-01 -8.488202e-03 -1.956294e-01 2.350646e-01 -2.575967e-02 -1.542203e-01 -2.002936e-01 -2.340390e-01 5.370415e-02 3.227497e-02 5.989698e-04
<VARIANCE> 26
 1.995710e+00 2.544674e+00 4.226448e+00 5.369069e+00 6.571640e+00 8.415627e+00 1.206690e+01 9.048455e+00 8.106779e+00 9.177921e+00 8.427018e+00 6.807279e+00 5.000000e-02 1.621318e-01 3.012036e-01 5.182799e-01 9.550277e-01 8.227412e-01 9.327064e-01 9.345756e-01 8.943955e-01 8.711054e-01 9.964504e-01 1.013390e+00 1.097111e+00 5.000000e-02
<GCONST> 5.940303e+01
<STATE> 3
<NUMMIXES> 4
<MIXTURE> 1 3.639635e-01
<MEAN> 26
 -1.749735e+01 -2.530614e-01 -5.188466e+00 -1.009138e+00 -1.953109e+00 -2.417183e-01 -9.366497e-01 -3.130087e-01 -1.284196e+00 -1.713247e+00 -3.297743e+00 -4.100365e-01 -1.146665e-01 1.664772e-01 5.392068e-01 3.382539e-01 -1.114367e-01 -1.020106e+00 -3.140817e-01 -1.968446e-01 -2.724431e-01 3.033326e-01 3.235274e-01 1.276526e-01 -6.825517e-01 1.449118e-02
<VARIANCE> 26
 1.283280e+00 3.904381e+00 5.727180e+00 7.909377e+00 1.407002e+01 6.504259e+00 6.155679e+00 1.115061e+01 6.684583e+00 1.551281e+01 1.930970e+01 1.241397e+01 5.000000e-02 5.847541e-01 7.265003e-01 1.032941e+00 2.565274e+00 8.361842e-01 6.306895e-01 7.667767e-01 2.409592e+00 1.180596e+00 1.886416e+00 1.835554e+00 1.464703e+00 5.000000e-02
<GCONST> 6.796654e+01
<MIXTURE> 2 3.407402e-01
<MEAN> 26
 -1.330629e+01 -3.044457e+00 -1.181706e+01 -7.082800e+00 -3.413439e+00 -4.764018e-01 -1.604851e-01 1.561856e+00 -6.480966e-01 -7.354492e-01 -3.684662e+00 1.752193e+00 -1.497862e-02 -1.971401e-01 4.680031e-01 3.428652e-01 2.667264e-01 -3.031993e-01 5.172690e-02 1.474546e-01 -3.959398e-01 -3.563780e-01 -1.319145e-01 1.095734e-01 1.981220e-01 -1.850750e-02
<VARIANCE> 26
 4.149266e+00 1.154801e+01 6.190430e+00 2.963804e+00 1.044663e+01 1.013179e+01 1.843348e+01 3.023050e+01 1.135606e+01 9.749589e+00 1.724402e+01 1.129504e+01 5.000000e-02 1.214848e-01 6.476443e-01 1.067607e+00 6.529252e-01 1.284732e+00 1.608087e+00 1.393272e+00 2.349963e+00 8.974795e-01 1.137606e+00 2.645691e+00 1.424266e+00 5.000000e-02
<GCONST> 6.989179e+01
<MIXTURE> 3 4.706790e-02
<MEAN> 26
 -1.344182e+01 -1.722809e+01 -1.491329e+01 -1.733252e+01 1.022357e+00 9.386928e+00 -9.842867e+00 5.075061e+00 7.866664e+00 3.293498e+00 -9.261316e+00 -1.179736e+01 2.108530e-01 4.787554e-01 -1.782138e+00 -7.333429e-01 -5.538211e-01 2.222214e-01 4.667784e-01 1.447824e+00 1.860322e+00 7.628462e-01 9.066199e-01 1.419743e-01 2.016385e+00 4.520959e-02
<VARIANCE> 26
 8.988633e-01 5.387871e+00 3.265838e+00 4.667085e+00 1.328944e+00 1.183903e+00 2.539816e+01 2.827065e+01 7.072834e+00 4.539841e+00 1.290702e+00 2.721850e+00 5.000000e-02 1.183796e+00 1.433068e+00 7.829745e-01 9.253463e-01 3.921078e-01 1.490452e-01 1.788814e+00 6.166107e-01 5.203885e-01 2.296190e+00 1.569975e+00 4.049785e-01 5.000000e-02
<GCONST> 5.504010e+01
<MIXTURE> 4 2.482283e-01
<MEAN> 26
 -1.621908e+01 -3.710713e+00 -6.389965e+00 -1.116549e+01 -4.707621e+00 2.669208e+00 1.754837e+00 6.229125e+00 -4.937761e+00 -3.719744e+00 -1.980285e+00 -3.051190e+00 -7.038001e-02 7.937522e-02 -2.720098e-01 -3.844208e-01 3.024723e-02 8.112335e-02 2.146030e-01 2.957311e-01 6.673287e-01 -7.511269e-02 -5.005269e-01 -8.956134e-01 -8.184173e-01 -1.891039e-03
<VARIANCE> 26
 2.080062e+00 7.537779e+00 2.858446e+01 1.759153e+01 3.610876e+01 1.869696e+01 1.266531e+01 3.110179e+01 1.967325e+01 2.073570e+01 2.192292e+01 2.235953e+01 5.000000e-02 2.021933e+00 1.146975e+00 1.552687e+00 2.591996e+00 2.101410e+00 1.534997e+00 2.294599e+00 2.797517e+00 1.675332e+00 1.693409e+00 2.677930e+00 7.159302e-01 5.000000e-02
<GCONST> 8.242053e+01
<STATE> 4
<NUMMIXES> 4
<MIXTURE> 1 1.550251e-01
<MEAN> 26
 -1.157333e+01 -3.189811e+00 -1.342763e+01 -9.584863e+00 -7.982513e-01 7.215590e+00 -1.348338e+00 -1.364603e+00 -4.874704e+00 -2.436552e+00 -3.020179e+00 -3.994477e+00 6.952222e-02 1.051219e+00 6.824454e-01 6.798848e-01 -4.967284e-01 5.097751e-02 2.298239e-01 -5.149325e-01 -7.024291e-02 -9.148219e-01 -1.322466e+00 -6.998399e-01 -3.055862e-01 3.155091e-02
<VARIANCE> 26
 9.219309e+00 3.021222e+00 9.856391e+00 8.897755e+00 1.161495e+01 2.976085e+01 4.860510e+00 7.390675e+00 1.843272e+01 1.923410e+01 8.221377e+00 4.475053e+00 5.000000e-02 4.371429e+00 3.541021e-01 3.846399e-01 5.573419e-01 1.209271e+00 4.998956e-01 2.898022e+00 5.936414e-01 5.748101e-01 1.148056e+00 4.770814e-01 2.316236e-01 5.000000e-02
<GCONST> 6.481488e+01
<MIXTURE> 2 5.184652e-01
<MEAN> 26
 -1.564894e+01 -2.020466e+00 -4.143637e+00 -5.809474e+00 -7.997513e+00 -2.408285e+00 -8.215215e-01 6.215896e-01 1.155454e+00 1.538989e-01 -1.130351e+00 -4.552425e-01 1.273066e-02 -7.009404e-01 -7.996188e-01 9.509779e-01 -2.784946e-01 -5.264686e-02 4.410458e-01 -2.694642e-01 -2.653365e-02 2.313339e-01 3.117993e-01 4.740220e-01 1.576577e-01 4.667895e-02
<VARIANCE> 26
 1.009276e+01 2.422278e+01 1.704735e+01 1.318535e+01 2.404569e+01 1.087417e+01 7.614941e+00 2.884969e+01 1.079506e+01 1.722634e+01 9.053820e+00 1.341063e+01 5.000000e-02 2.584561e+00 2.020926e+00 2.112907e+00 2.149864e+00 2.885919e+00 8.756525e-01 1.011747e+00 3.604995e+00 2.189740e+00 7.470664e-01 7.991642e-01 2.464461e+00 5.000000e-02
<GCONST> 8.024845e+01
<MIXTURE> 3 1.550690e-01
<MEAN> 26
 -1.534575e+00 -7.357385e+00 -1.036913e+01 -1.498878e+01 -4.851695e+00 9.075857e+00 -6.704528e+00 3.154084e+00 -4.756354e-01 -3.502633e+00 -7.502068e+00 -5.021151e+00 6.108448e-01 2.675372e+00 -6.580668e-02 -6.231954e-01 -1.135703e+00 -7.518283e-01 1.254210e+00 -1.352865e+00 -3.871279e-01 -1.084708e-01 -1.093572e+00 1.227582e-01 -3.973732e-01 1.231442e-01
<VARIANCE> 26
 1.620814e+01 4.130416e+01 2.005363e+01 2.212615e+01 6.747144e+01 2.443777e+01 1.052647e+01 8.851912e+00 2.928702e+01 2.666809e+01 1.355140e+01 6.560454e+00 5.000000e-02 5.042375e-01 3.833247e+00 1.144280e+01 5.455836e+00 1.775991e+00 4.410311e+00 5.631584e-01 1.185159e+00 2.534537e+00 2.515861e+00 1.042355e+00 2.093811e+00 5.000000e-02
<GCONST> 8.656564e+01
<MIXTURE> 4 1.714406e-01
<MEAN> 26
 -1.155557e+01 1.379169e+00 5.399830e+00 -9.475008e+00 -1.092782e+01 -2.083529e-01 -6.040948e+00 -1.185493e-01 -1.057868e+01 -4.414054e-01 -2.129017e+00 -1.321052e+00 2.710398e-01 2.442515e+00 1.328007e+00 1.499936e+00 -9.907504e-01 -2.585755e-01 -1.224259e-01 -1.226206e+00 -3.933030e-01 -2.065195e+00 -1.209090e+00 -1.443822e+00 1.449145e-01 1.350178e-01
<VARIANCE> 26
 2.564708e+01 1.906137e+01 3.408586e+01 1.185240e+01 9.036201e+00 4.994974e+00 6.300619e+01 4.420532e+01 3.955978e+01 9.397843e+00 1.175515e+01 2.945504e+01 5.000000e-02 1.103771e+00 1.826031e+00 1.310823e+00 1.636597e+00 1.339895e+00 1.391614e+00 4.390042e+00 2.000426e+00 1.573218e+00 6.753219e-01 7.849379e-01 2.250865e+00 5.000000e-02
<GCONST> 8.238367e+01
<TRANSP> 5
 0.000000e+00 1.000000e+00 0.000000e+00 0.000000e+00 0.000000e+00
 0.000000e+00 8.332948e-01 1.667052e-01 0.000000e+00 0.000000e+00
 0.000000e+00 0.000000e+00 8.117271e-01 1.882730e-01 0.000000e+00
 0.000000e+00 0.000000e+00 0.000000e+00 7.243236e-01 2.756764e-01
 0.000000e+00 0.000000e+00 0.000000e+00 0.000000e+00 0.000000e+00
<ENDHMM>
