~o
<STREAMINFO> 1 26
<VECSIZE> 26<NULLD><MFCC_E_D><DIAGC>
~h "V"
<BEGINHMM>
<NUMSTATES> 5
<STATE> 2
<NUMMIXES> 4
<MIXTURE> 1 1.485794e-01
<MEAN> 26
 -7.717546e+00 -4.158401e+00 6.321779e+00 -8.498765e+00 -1.144568e+01 -7.565358e+00 -2.735932e+00 6.029938e+00 -7.000577e+00 -3.695296e+00 -2.849949e+00 -4.352053e-01 4.988632e-01 5.711375e-01 2.925676e-01 1.827714e+00 2.490548e-01 -1.110151e+00 -5.155508e-01 5.101886e-01 -7.107904e-01 -1.179731e+00 4.657857e-01 4.633217e-01 1.487855e-01 6.288199e-03
<VARIANCE> 26
 1.878381e+01 9.461011e+00 2.197730e+01 2.533616e+01 1.585568e+01 3.928041e+01 2.908474e+01 2.754520e+01 6.722681e+01 2.030112e+01 1.765034e+01 1.513855e+01 5.000000e-02 2.394153e+00 1.602005e+00 4.769970e+00 2.005426e+00 3.108364e+00 2.109797e+00 4.787015e+00 3.421295e+00 7.269254e+00 4.440628e+00 1.691339e+00 2.308650e+00 5.000000e-02
<GCONST> 9.233852e+01
<MIXTURE> 2 4.941437e-01
<MEAN> 26
 3.035794e+00 -1.219311e+01 -1.186466e+01 -1.299337e+01 -1.190622e+01 8.178984e+00 -1.174193e+01 -4.738733e-01 2.463633e+00 -5.772962e-01 -2.882723e+00 -5.591695e+00 8.624575e-01 6.580126e-01 -1.294083e+00 -3.592615e-01 -4.080292e-01 -5.666817e-01 8.866506e-01 -8.648212e-01 6.343518e-01 8.424780e-01 2.497056e-01 -4.093502e-01 -1.306646e+00 3.547886e-02
<VARIANCE> 26
 3.998203e+00 3.005375e+01 2.207743e+01 4.974766e+01 5.171806e+01 8.129633e+01 3.250312e+01 2.180589e+01 3.364087e+01 3.487783e+01 3.143041e+01 1.805994e+01 5.000000e-02 1.861319e+00 2.078869e+00 2.163211e+00 2.679495e+00 3.792004e+00 4.716351e+00 2.472620e+00 2.215530e+00 3.174690e+00 2.281699e+00 2.143489e+00 2.026133e+00 5.000000e-02
<GCONST> 9.304391e+01
<MIXTURE> 3 2.999434e-01
<MEAN> 26
 -4.131102e+00 -8.072150e+00 1.338956e+01 -1.068680e+01 -2.427821e+01 -5.388645e+00 -1.032767e+01 -3.800711e-01 -1.193229e+01 5.712785e-02 9.256268e-01 -7.709617e-01 7.903888e-01 5.911722e-01 -7.241082e-01 -2.003116e-02 4.324962e-04 -9.245645e-01 -5.151106e-01 -3.546512e-01 4.634771e-01 3.610010e-02 5.475363e-01 3.074766e-01 3.879222e-01 2.224284e-02
<VARIANCE> 26
 5.964575e+00 3.829718e+01 2.191158e+01 8.734395e+00 1.366232e+01 1.988795e+01 2.943020e+01 1.583751e+01 4.001889e+01 1.650881e+01 1.700165e+01 1.162201e+01 5.000000e-02 1.200676e+00 2.459543e+00 2.324887e+00 1.732633e+00 3.551682e+00 1.974648e+00 3.344577e+00 2.161070e+00 1.895064e+00 1.389668e+00 1.358824e+00 7.308676e-01 5.000000e-02
<GCONST> 8.337080e+01
<MIXTURE> 4 5.733348e-02
<MEAN> 26
 -7.008584e+00 1.315192e+00 5.966097e+00 -1.354889e+01 -9.622712e+00 -4.182726e+00 -1.346870e+01 -8.405240e+00 -9.160586e+00 1.656940e+00 -6.111362e+00 -8.239880e-01 6.569917e-01 1.831786e+00 -1.448837e+00 9.447418e-01 5.495074e-01 -2.061386e+00 3.580412e-01 -1.466549e+00 8.979243e-01 2.787620e-01 9.755921e-02 -4.360138e-01 -5.316176e-01 4.802201e-02
<VARIANCE> 26
 5.814462e+00 2.136377e+01 4.177324e+01 3.464304e+01 2.356170e+01 4.384516e+01 5.316827e+01 1.416465e+01 4.641098e+01 1.511216e+01 7.924842e+00 7.049890e+00 5.000000e-02 6.126351e+00 2.045449e+00 1.101236e+00 1.528408e+00 2.522651e+00 2.002612e+00 8.772387e+00 1.581929e+00 5.142353e+00 1.050850e+00 1.127497e+00 9.958426e-01 5.000000e-02
<GCONST> 8.713511e+01
<STATE> 3
<NUMMIXES> 4
<MIXTURE> 1 1.638160e-01
<MEAN> 26
 -2.715354e-02 -4.000708e+00 3.032129e-01 -8.691197e+00 -8.118606e+00 -4.464024e+00 -2.180750e+01 -6.416436e+00 -3.511225e+00 6.385817e+00 -3.908293e+00 -4.512755e+00 7.405266e-01 8.537745e-02 -1.564398e-02 -1.507451e-01 4.297551e-01 3.047813e-01 -1.624865e-02 1.562271e-01 -7.745922e-02 8.343183e-02 -9.642659e-02 -1.154396e-01 -1.482798e-01 -9.445294e-03
<VARIANCE> 26
 4.785201e+00 1.331413e+01 1.009702e+01 3.809262e+01 1.459360e+01 1.988793e+01 6.889557e+00 1.745693e+01 5.753469e+00 1.174144e+01 1.814472e+01 1.658179e+01 5.000000e-02 3.180040e-01 5.473619e-01 1.034060e+00 9.438521e-01 1.189653e+00 1.044918e+00 8.228899e-01 1.308296e+00 1.014570e+00 5.269486e-01 1.312150e+00 7.350525e-01 5.000000e-02
<GCONST> 7.013642e+01
<MIXTURE> 2 5.412945e-01
<MEAN> 26
 3.373617e+00 -1.577785e+01 -1.291904e+01 -9.568258e+00 -1.236874e+01 6.408001e+00 -8.079347e+00 2.825921e+00 1.025598e+00 3.344617e-01 -6.501974e+00 -1.029824e+01 8.936621e-01 -1.215505e-01 -2.097193e-01 4.298104e-01 8.631881e-02 -8.800863e-02 -3.965561e-01 2.724437e-01 5.767537e-01 -8.193713e-02 -2.077527e-01 -5.570365e-01 1.206132e-01 -3.623794e-03
<VARIANCE> 26
 3.054844e+00 2.421341e+01 1.796240e+01 1.994929e+01 3.174132e+01 3.047858e+01 2.198438e+01 3.474653e+01 2.276218e+01 1.608556e+01 3.403487e+01 1.244372e+01 5.000000e-02 2.083754e-01 1.317411e+00 2.007938e+00 1.471740e+00 1.734039e+00 2.611978e+00 1.026031e+00 1.659654e+00 1.207776e+00 8.973214e-01 1.366294e+00 1.299061e+00 5.000000e-02
<GCONST> 7.993098e+01
<MIXTURE> 3 1.424373e-01
<MEAN> 26
 -6.304603e+00 -4.345311e+00 9.678397e+00 -7.236513e+00 -1.730688e+01 -7.665432e+00 -6.182873e+00 -6.575053e-02 -8.258996e+00 -2.066778e+00 -1.887118e+00 1.329789e+00 6.521252e-01 -2.145736e+00 2.279578e+00 -2.242201e+00 1.506217e+00 3.217777e+00 5.540108e-01 2.423756e+00 -8.947487e-01 2.261500e+00 -1.024232e-01 -5.497149e-01 5.602206e-01 -7.765786e-02
<VARIANCE> 26
 1.297735e+01 1.972068e+01 2.758855e+01 1.625941e+01 4.285791e+01 3.695744e+01 4.469892e+01 2.787996e+01 7.098608e+01 1.894607e+01 1.035500e+01 1.656744e+01 5.000000e-02 3.916550e+00 3.688820e+00 4.329673e+00 2.767725e+00 4.599246e+00 2.764425e+00 4.172542e+00 2.786360e+00 2.819401e+00 1.325267e+00 1.115124e+00 9.506052e-01 5.000000e-02
<GCONST> 9.181525e+01
<MIXTURE> 4 1.524522e-01
<MEAN> 26
 -4.153887e-01 -1.216625e+01 4.526547e+00 -7.756601e+00 -1.976449e+01 -9.792089e+00 -1.107536e+01 5.830089e+00 -3.018353e+00 -2.753414e-01 -6.043640e-01 -6.077454e-01 7.904764e-01 2.716111e-01 1.930014e-01 -8.221421e-01 2.768676e-01 1.256256e+00 1.553534e-01 -1.081987e+00 -7.745480e-02 9.843112e-01 5.527290e-02 -6.457100e-01 -3.892297e-01 -9.251375e-03
<VARIANCE> 26
 3.500625e+00 1.894687e+01 1.421590e+01 1.131963e+01 9.009887e+00 1.430570e+01 3.858940e+01 2.055458e+01 3.146898e+01 1.485371e+01 1.178379e+01 1.297127e+01 5.000000e-02 1.500370e+00 1.165130e+00 3.043885e+00 1.448720e+00 1.656802e+00 2.314986e+00 1.887683e+00 3.314585e+00 2.683371e+00 2.596633e+00 1.091510e+00 2.125062e+00 5.000000e-02
<GCONST> 8.178356e+01
<STATE> 4
<NUMMIXES> 4
<MIXTURE> 1 2.369902e-01
<MEAN> 26
 -1.017809e+01 -1.927328e+00 -1.145191e+00 -5.823165e+00 -4.716997e+00 -4.948571e+00 -2.035338e+00 7.985831e-01 -4.891020e-01 -2.080976e+00 -5.191855e+00 1.658890e-01 5.131424e-01 -4.114882e+00 1.453361e+00 -1.351564e+00 6.495620e-01 3.206030e+00 2.378566e-02 1.980754e+00 -7.815719e-01 5.389259e-01 -4.001400e-01 9.605418e-01 3.175480e-02 -8.562694e-02
<VARIANCE> 26
 3.914070e+01 3.100416e+01 3.795550e+01 2.645103e+01 2.611440e+01 4.024788e+01 3.370758e+01 4.360649e+01 2.240158e+01 2.232946e+01 3.585879e+01 1.084535e+01 5.000000e-02 3.470248e+00 3.787035e+00 5.723026e+00 3.192036e+00 4.060864e+00 5.979836e+00 4.874947e+00 2.801028e+00 4.362586e+00 2.794353e+00 2.893104e+00 1.460785e+00 5.000000e-02
<GCONST> 9.746199e+01
<MIXTURE> 2 2.160961e-01
<MEAN> 26
 3.402154e+00 -5.986370e+00 -1.409261e+01 -2.068456e+01 -1.082845e+01 1.202834e+01 -9.730301e+00 -5.512404e-01 -2.928115e+00 3.141997e-01 -4.657743e-01 -1.552637e+00 8.528203e-01 3.703670e-02 3.998559e-01 2.499477e-01 1.679523e-01 -3.771172e-01 -1.061354e-01 -1.339846e-01 -4.010261e-01 2.066693e-01 2.727148e-01 -3.929949e-01 4.016712e-01 -9.567361e-03
<VARIANCE> 26
 1.832908e+00 1.110060e+01 5.845437e+00 1.220077e+01 2.592664e+01 1.375178e+01 4.609742e+01 3.082764e+01 1.149350e+01 4.877072e+01 1.577521e+01 1.209788e+01 5.000000e-02 2.725142e-01 5.246838e-01 1.074996e+00 1.164989e+00 7.261996e-01 1.345650e+00 1.062547e+00 1.189615e+00 9.568376e-01 2.548616e+00 1.318979e+00 4.630453e-01 5.000000e-02
<GCONST> 7.267899e+01
<MIXTURE> 3 2.842183e-01
<MEAN> 26
 5.938002e-01 -1.632935e+01 -2.727007e+00 -8.929542e+00 -1.622580e+01 -1.125586e+00 -6.955124e+00 8.479548e+00 2.035136e+00 -3.554118e+00 -8.323483e+00 -4.886875e+00 8.075321e-01 -8.212203e-01 1.187755e+00 1.979395e+00 1.289699e-01 -8.010331e-01 -1.508148e+00 7.580678e-01 -1.978243e-02 -9.369380e-01 2.506101e-01 7.942520e-01 1.199653e+00 -3.184121e-02
<VARIANCE> 26
 3.879044e+00 2.949052e+01 2.369944e+01 1.251328e+01 2.994252e+01 2.493681e+01 2.475705e+01 1.382720e+01 2.630166e+01 1.367826e+01 2.235266e+01 8.524513e+00 5.000000e-02 4.236073e-01 1.273104e+00 1.834074e+00 1.718513e+00 2.657727e+00 1.588844e+00 2.602475e+00 4.053638e+00 2.733335e+00 1.738133e+00 1.927608e+00 8.651294e-01 5.000000e-02
<GCONST> 8.220874e+01
<MIXTURE> 4 2.626955e-01
<MEAN> 26
 -1.134977e+00 -7.831909e+00 1.177383e+00 -8.251718e+00 -1.551351e+01 -3.724530e+00 -8.558710e+00 -4.056171e-01 -3.017624e+00 3.648387e+00 -3.471061e+00 -2.750328e+00 6.747207e-01 -1.064507e+00 2.189509e+00 -3.238449e-02 1.264496e+00 1.840652e+00 -4.389472e-02 5.806326e-01 -1.601309e+00 -5.123315e-01 2.856197e-01 -1.471060e-01 6.137668e-01 -7.035030e-02
<VARIANCE> 26
 1.162885e+01 2.407046e+01 5.635391e+01 3.945148e+01 4.748343e+01 5.871264e+01 4.884731e+01 3.257744e+01 3.049470e+01 4.092703e+01 1.784446e+01 1.683906e+01 5.000000e-02 1.896201e+00 2.493344e+00 3.951867e+00 5.245124e+00 4.482217e+00 4.426216e+00 4.292665e+00 5.306437e+00 5.184480e+00 3.935602e+00 2.133503e+00 3.022427e+00 5.000000e-02
<GCONST> 9.885265e+01
<TRANSP> 5
 0.000000e+00 1.000000e+00 0.000000e+00 0.000000e+00 0.000000e+00
 0.000000e+00 5.729997e-01 4.270003e-01 0.000000e+00 0.000000e+00
 0.000000e+00 0.000000e+00 7.276303e-01 2.723697e-01 0.000000e+00
 0.000000e+00 0.000000e+00 0.000000e+00 7.434850e-01 2.565151e-01
 0.000000e+00 0.000000e+00 0.000000e+00 0.000000e+00 0.000000e+00
<ENDHMM>
