~o
<STREAMINFO> 1 26
<VECSIZE> 26<NULLD><MFCC_E_D><DIAGC>
~h "C"
<BEGINHMM>
<NUMSTATES> 5
<STATE> 2
<NUMMIXES> 4
<MIXTURE> 1 1.902377e-01
<MEAN> 26
 -1.239398e+01 2.593920e+00 7.589782e-01 1.242952e+00 -3.017010e+00 -1.498054e+00 -3.852702e+00 -5.344527e+00 -2.635222e+00 -1.444462e+00 -4.671781e+00 -1.330130e+00 8.451840e-02 -2.597375e+00 -5.084286e-01 -1.545689e+00 3.897089e-01 2.723332e+00 7.119572e-01 6.788698e-01 4.162142e-01 5.229599e-01 2.446700e-01 3.748226e-01 1.774554e-01 -7.926106e-02
<VARIANCE> 26
 1.766931e+01 1.534513e+01 9.420513e+00 1.693501e+01 2.091479e+01 1.454975e+01 1.267820e+01 2.331415e+01 1.723220e+01 1.066147e+01 2.282867e+01 1.489923e+01 5.000000e-02 3.346825e+00 9.478592e+00 3.806576e+00 6.166647e+00 6.416252e+00 3.383500e+00 5.678758e+00 7.540783e+00 4.165060e+00 2.166092e+00 2.675634e+00 2.460721e+00 5.000000e-02
<GCONST> 9.244998e+01
<MIXTURE> 2 3.211173e-01
<MEAN> 26
 -2.240675e+01 -4.038896e+00 -1.895513e+00 -1.086094e+01 -3.926972e+00 -2.976150e+00 -2.535218e+00 -1.163170e+00 -3.976251e-02 -1.174657e+00 -1.465382e-01 8.322664e-01 5.056853e-01 -2.457204e+00 1.503519e-01 -5.064151e-01 -4.438136e-01 5.529224e-01 5.231689e-01 8.145826e-01 2.643183e-01 3.389247e-01 3.485341e-02 1.090605e-01 -1.244507e-01 2.028122e-02
<VARIANCE> 26
 1.566338e+01 2.610104e+01 3.411040e+01 2.163670e+01 3.114877e+01 4.009885e+01 1.757200e+01 1.004301e+01 1.194640e+01 1.260010e+01 1.416153e+01 1.739220e+01 5.000000e-02 4.865155e+00 2.522417e+00 3.216709e+00 3.421142e+00 2.349600e+00 2.885618e+00 3.727746e+00 1.577037e+00 1.402184e+00 2.162786e+00 1.456618e+00 1.631931e+00 5.000000e-02
<GCONST> 8.780091e+01
<MIXTURE> 3 2.710737e-01
<MEAN> 26
 -1.325269e+01 -8.438825e+00 -4.481042e+00 -5.879073e+00 -5.426219e+00 -5.813890e+00 -7.725382e-01 1.130332e+00 -7.809678e-02 -2.236762e+00 -4.271129e+00 6.276814e-01 4.395379e-01 -8.651880e-01 -2.029676e-01 -2.827741e-01 -2.680680e-01 2.152792e-01 -7.083765e-02 1.444682e-01 -5.212912e-01 7.022293e-02 -2.763575e-01 1.738941e-01 1.873420e-01 -1.058588e-02
<VARIANCE> 26
 2.974817e+01 3.869104e+01 4.980704e+01 5.325821e+01 4.838350e+01 5.741489e+01 6.321768e+01 4.029033e+01 4.266938e+01 3.116012e+01 3.280067e+01 1.393558e+01 5.000000e-02 8.153575e+00 3.222395e+00 2.844720e+00 4.059528e+00 5.295173e+00 5.264345e+00 2.761012e+00 4.456995e+00 2.773985e+00 3.030202e+00 4.297863e+00 1.510615e+00 5.000000e-02
<GCONST> 1.013672e+02
<MIXTURE> 4 2.175712e-01
<MEAN> 26
 -1.617044e+01 -5.556801e+00 -1.099187e+01 -7.124469e+00 -4.283978e+00 -3.897633e+00 -1.991030e+00 -1.762479e+00 -2.184118e+00 -8.419686e-01 -1.716612e+00 -1.052131e-01 2.380233e-01 -2.894758e-01 -2.120738e-01 -2.170409e-01 -2.215625e-01 -1.494106e-01 1.920695e-02 1.631942e-01 6.409458e-02 8.764975e-02 1.939672e-01 1.133994e-01 -2.769530e-02 -1.390395e-02
<VARIANCE> 26
 9.245320e+00 5.910157e+00 6.618026e+00 5.116427e+00 5.018072e+00 7.095541e+00 7.815916e+00 1.029916e+01 1.442222e+01 9.448042e+00 5.650540e+00 7.581787e+00 5.000000e-02 2.052657e+00 5.763453e-01 1.373240e+00 9.482157e-01 1.263463e+00 8.523880e-01 5.524597e-01 2.295378e+00 1.901553e+00 1.649903e+00 9.584291e-01 9.782603e-01 5.000000e-02
<GCONST> 6.777187e+01
<STATE> 3
<NUMMIXES> 4
<MIXTURE> 1 1.538581e-01
<MEAN> 26
 -1.892753e+01 -1.941545e+00 -3.930078e+00 -3.069013e-01 -3.727657e-01 -1.187458e-02 -1.358961e+00 -4.057112e-01 8.174887e-02 6.518297e-01 -5.078886e-01 2.882012e-01 -1.092532e-01 -2.603517e-01 -1.428337e+00 -9.482397e-01 -1.047882e+00 -1.721164e-01 -2.252576e-01 9.208164e-02 1.792879e-01 2.050702e-01 -9.345086e-02 1.450765e-01 -1.568671e-01 4.323575e-02
<VARIANCE> 26
 3.727280e+00 5.901116e+00 7.702424e+00 5.123729e+00 5.798775e+00 1.045783e+01 9.931476e+00 5.886956e+00 7.005737e+00 8.921759e+00 6.721369e+00 8.803818e+00 5.000000e-02 3.111511e+00 4.527809e+00 2.178158e+00 4.502305e+00 2.451121e+00 6.445475e+00 2.907600e+00 1.862521e+00 2.195563e+00 1.445641e+00 1.905160e+00 1.405178e+00 5.000000e-02
<GCONST> 7.646605e+01
<MIXTURE> 2 4.396524e-01
<MEAN> 26
 -2.644935e+01 -1.315334e+00 -7.931101e+00 -1.050561e+01 4.488270e-02 -9.096131e+00 1.496324e+00 -1.618448e+00 -3.655984e-01 -1.783623e+00 -2.416063e+00 1.812810e-01 6.293066e-01 1.738001e-02 -3.458096e-01 -6.198790e-02 -2.362185e-01 -1.724057e-02 -1.050256e-01 -3.366146e-02 -2.546434e-02 -4.437061e-02 -7.292233e-02 -1.613779e-01 -7.954191e-02 -2.847421e-03
<VARIANCE> 26
 3.452082e+00 6.086319e+00 1.256199e+01 1.999028e+01 1.773396e+01 1.427308e+01 1.080569e+01 1.519708e+01 1.121218e+01 1.370958e+01 9.765988e+00 8.491783e+00 5.000000e-02 1.855849e+00 6.364962e-01 1.044992e+00 8.322245e-01 8.710059e-01 9.438859e-01 1.048834e+00 1.425109e+00 1.179835e+00 1.782525e+00 1.293632e+00 9.044170e-01 5.000000e-02
<GCONST> 7.158579e+01
<MIXTURE> 3 2.786071e-01
<MEAN> 26
 -1.286537e+01 -1.009904e+01 -7.426471e+00 -6.761807e+00 -4.183983e+00 -2.683703e+00 -1.581087e+00 8.119430e-01 7.948161e-01 -3.368177e+00 -4.496179e+00 -2.406872e-01 4.357945e-01 1.594785e+00 -2.957903e-01 1.908687e-01 -1.367386e-01 -5.252102e-01 2.350453e-01 -7.401502e-01 4.139134e-01 -5.815661e-01 9.993047e-02 1.448359e-01 -4.227147e-01 3.260817e-02
<VARIANCE> 26
 3.529406e+01 3.534131e+01 4.424714e+01 4.456241e+01 4.533796e+01 4.229212e+01 3.900390e+01 3.752716e+01 3.965294e+01 3.263883e+01 2.493748e+01 1.654163e+01 5.000000e-02 3.621716e+00 3.819799e+00 5.685195e+00 6.149044e+00 4.024109e+00 3.045401e+00 2.797963e+00 3.518687e+00 3.014511e+00 2.279108e+00 2.238428e+00 1.397185e+00 5.000000e-02
<GCONST> 9.858585e+01
<MIXTURE> 4 1.278815e-01
<MEAN> 26
 -2.469929e+01 -1.011634e+01 3.534022e+00 -7.871992e+00 -1.219741e+01 -8.455114e-01 1.293064e+00 -1.451854e+00 2.173256e+00 -2.714657e+00 -2.157242e+00 9.242731e-01 6.378186e-01 1.466572e+00 -2.785677e-01 -2.035237e-01 9.078678e-01 -3.288486e-01 -1.097724e+00 8.604372e-02 3.577316e-01 -1.125587e-01 2.123220e-01 -3.517320e-01 -2.291704e-01 -2.314178e-03
<VARIANCE> 26
 1.521793e+01 1.072761e+01 6.544677e+00 1.613878e+01 2.183087e+01 1.964125e+01 2.954217e+01 1.310268e+01 1.408047e+01 1.667825e+01 1.163351e+01 1.839839e+01 5.000000e-02 6.955767e+00 6.321048e-01 9.660136e-01 2.597196e+00 2.034480e+00 3.397368e+00 3.584522e+00 1.670369e+00 2.281820e+00 2.094221e+00 2.086424e+00 2.536916e+00 5.000000e-02
<GCONST> 8.374733e+01
<STATE> 4
<NUMMIXES> 4
<MIXTURE> 1 2.351908e-01
<MEAN> 26
 -1.220702e+01 -4.283827e+00 -4.420427e+00 -7.277544e+00 -2.965648e+00 -3.423833e+00 -4.068774e+00 -4.308359e+00 -1.517167e+00 1.436736e+00 -3.880848e+00 -8.121480e-01 4.159257e-01 4.144121e+00 7.131035e-01 1.459353e+00 -1.552819e-01 -1.784440e+00 4.538384e-01 -2.130502e+00 -1.930309e-01 -1.272161e+00 -9.615780e-02 -3.890480e-01 -6.472178e-01 4.616604e-02
<VARIANCE> 26
 2.819972e+01 3.996122e+01 7.938153e+01 1.915658e+01 3.850423e+01 5.926624e+01 3.658182e+01 1.468329e+01 2.118326e+01 1.342668e+01 1.631188e+01 1.310922e+01 5.000000e-02 4.792247e+00 5.480635e+00 3.309643e+00 6.985861e+00 4.911264e+00 7.555289e+00 8.050490e+00 1.924031e+00 3.185182e+00 3.401211e+00 2.670168e+00 2.600464e+00 5.000000e-02
<GCONST> 9.826553e+01
<MIXTURE> 2 3.825500e-01
<MEAN> 26
 -1.826270e+01 -7.500872e+00 -5.286860e+00 -9.344754e+00 -4.096251e+00 -5.856005e+00 -2.007822e+00 3.820978e-01 -2.842200e-01 -2.312408e+00 -2.669150e+00 -6.301998e-01 4.431466e-01 1.634706e+00 -9.343786e-01 -2.043514e-01 -7.228284e-01 -9.605794e-01 -1.279471e-01 -7.694685e-01 4.621944e-01 4.585961e-01 -1.671016e-01 -1.425627e-01 3.432199e-01 2.088103e-02
<VARIANCE> 26
 2.600718e+01 3.346717e+01 2.100123e+01 4.199954e+01 2.807719e+01 3.570173e+01 1.931950e+01 3.151718e+01 1.734079e+01 2.040775e+01 1.313006e+01 9.827934e+00 5.000000e-02 7.290152e+00 2.865503e+00 3.165002e+00 6.877909e+00 3.064306e+00 4.041926e+00 2.723361e+00 2.190680e+00 2.248367e+00 1.551189e+00 1.576688e+00 1.265342e+00 5.000000e-02
<GCONST> 9.175768e+01
<MIXTURE> 3 2.355556e-01
<MEAN> 26
 -6.385848e+00 -7.288857e+00 4.391894e+00 -6.068798e+00 -1.461044e+01 -6.982660e+00 -4.271371e+00 2.316147e+00 -5.734499e+00 -2.066507e+00 -2.269945e+00 -1.484710e-01 5.722964e-01 3.414604e+00 -1.447547e+00 2.593624e+00 -3.562505e-01 -3.334491e+00 -2.569405e-01 -2.637048e+00 8.830434e-01 -1.383040e+00 2.810647e-01 6.663199e-01 -2.396567e-01 8.619498e-02
<VARIANCE> 26
 2.794730e+01 1.436366e+01 4.217714e+01 2.351138e+01 3.132562e+01 2.960514e+01 4.566842e+01 2.249311e+01 2.200571e+01 1.596247e+01 1.656277e+01 1.273614e+01 5.000000e-02 2.376005e+00 1.840093e+00 6.556701e+00 2.021646e+00 2.645726e+00 4.360937e+00 4.384429e+00 3.970697e+00 2.284794e+00 2.332676e+00 2.454777e+00 2.132128e+00 5.000000e-02
<GCONST> 9.235857e+01
<MIXTURE> 4 1.467038e-01
<MEAN> 26
 1.500745e+00 -1.186559e+01 -7.647171e+00 -7.360189e+00 -1.256562e+01 -1.656754e+00 -9.296465e+00 3.252055e+00 9.079344e-01 -2.964551e-01 -3.762610e+00 -4.449032e+00 7.744524e-01 3.036191e+00 -2.337410e+00 -1.025821e+00 -1.048475e+00 -2.228216e+00 1.589763e+00 -2.821820e+00 5.763599e-01 1.011882e+00 7.723488e-01 1.196707e-02 -1.545839e+00 8.869904e-02
<VARIANCE> 26
 7.480237e+00 4.918946e+01 3.378694e+01 2.543398e+01 5.954078e+01 2.090798e+01 3.177221e+01 3.828150e+01 1.994102e+01 2.028174e+01 4.073484e+01 9.672850e+00 5.000000e-02 2.083773e+00 2.424482e+00 2.028535e+00 1.732304e+00 1.746876e+00 1.730714e+00 2.676766e+00 1.536195e+00 1.555944e+00 1.895451e+00 2.771979e+00 7.745153e-01 5.000000e-02
<GCONST> 8.790913e+01
<TRANSP> 5
 0.000000e+00 1.000000e+00 0.000000e+00 0.000000e+00 0.000000e+00
 0.000000e+00 5.339348e-01 4.660651e-01 0.000000e+00 0.000000e+00
 0.000000e+00 0.000000e+00 6.783281e-01 3.216719e-01 0.000000e+00
 0.000000e+00 0.000000e+00 0.000000e+00 4.841224e-01 5.158776e-01
 0.000000e+00 0.000000e+00 0.000000e+00 0.000000e+00 0.000000e+00
<ENDHMM>
