~o
<STREAMINFO> 1 26
<VECSIZE> 26<NULLD><MFCC_E_D><DIAGC>
~h "L"
<BEGINHMM>
<NUMSTATES> 5
<STATE> 2
<NUMMIXES> 4
<MIXTURE> 1 1.818475e-01
<MEAN> 26
 -2.890218e+00 3.589646e+00 9.038071e-01 -8.771967e+00 -1.369160e+01 -2.598718e+00 -4.185926e+00 -7.986818e+00 -9.087955e+00 -5.844513e-01 -3.336465e+00 -2.252617e-02 5.696068e-01 1.277543e+00 5.938625e-01 7.057908e-01 -1.581681e+00 -2.108009e+00 6.979427e-01 4.548742e-01 -1.692015e-01 -1.107293e+00 -3.117560e-01 6.421379e-01 -2.242224e-02 4.114085e-02
<VARIANCE> 26
 3.293032e+01 9.652365e+00 6.720834e+01 1.464966e+01 6.317692e+00 3.698068e+01 1.691512e+01 3.151671e+01 3.209323e+00 6.193717e+00 5.489587e+00 9.967263e+00 5.000000e-02 2.637292e+00 3.181664e+00 2.270000e+00 1.696257e+00 6.544600e+00 2.138238e+00 1.214298e+00 1.155147e+00 1.778394e+00 6.036085e-01 1.118596e+00 1.223644e-01 5.000000e-02
<GCONST> 7.770595e+01
<MIXTURE> 2 3.556448e-01
<MEAN> 26
 3.467005e+00 -1.620800e+01 -6.640322e+00 -3.622444e+00 -1.541671e+01 -8.813261e+00 -1.475977e+01 1.164434e+01 -4.511775e-01 -1.467926e-01 -1.215749e+00 -3.009863e+00 8.463216e-01 3.887972e-01 -1.647807e-01 -5.402588e-01 -4.835583e-02 -1.287739e+00 1.050751e-01 6.043069e-01 2.877708e-01 1.139525e-01 2.995208e-01 -3.736230e-01 -5.227183e-01 2.121731e-02
<VARIANCE> 26
 6.718225e-01 1.270264e+01 1.903634e+01 8.341954e+00 1.286016e+01 2.972989e+01 2.724960e+01 2.518357e+01 7.079498e+00 1.215435e+01 1.325270e+01 9.646581e+00 5.000000e-02 1.254732e+00 1.092911e+00 1.636778e+00 1.238527e+00 4.655557e+00 8.587831e-01 4.237466e+00 1.068952e+00 1.136755e+00 4.865502e-01 2.176471e+00 1.146334e+00 5.000000e-02
<GCONST> 7.502915e+01
<MIXTURE> 3 2.554999e-01
<MEAN> 26
 3.478195e+00 -3.753830e+00 -1.246431e+01 -1.818709e+01 -1.188701e+01 8.674742e+00 -7.658777e+00 -4.089688e+00 -4.612791e-01 2.446804e+00 -5.014883e+00 -9.742990e-01 7.733905e-01 -4.292482e-01 5.587855e-02 1.308424e+00 1.273234e+00 8.876773e-01 -1.567250e+00 -1.398676e+00 2.307762e-01 1.919497e-01 4.137697e-01 -5.466506e-01 1.587413e-01 -2.424190e-02
<VARIANCE> 26
 4.197029e+00 8.270572e+00 2.621723e+01 2.860008e+01 1.338989e+01 2.831825e+01 4.563976e+01 1.922950e+01 2.101311e+01 5.984931e+01 5.025968e+01 1.235750e+01 5.000000e-02 3.818398e-01 1.926642e+00 3.705143e+00 6.801986e-01 1.555372e+00 5.397479e+00 6.699607e-01 7.221344e+00 1.740753e+00 3.237969e+00 3.655160e+00 9.226898e-01 5.000000e-02
<GCONST> 8.551040e+01
<MIXTURE> 4 2.070078e-01
<MEAN> 26
 -6.279954e-01 1.282041e+00 -4.891790e+00 -1.579904e+01 -5.308717e+00 5.652831e-01 -1.335709e+01 -6.666646e+00 -8.034107e+00 1.401083e+00 3.496832e-01 -3.232647e+00 6.390015e-01 1.459352e+00 8.947891e-01 1.796451e-01 -2.652608e+00 -3.059368e-01 1.182929e+00 -7.424084e-01 3.198327e-01 -1.469433e+00 2.654656e-01 1.615570e-01 -1.418457e-01 3.290081e-02
<VARIANCE> 26
 1.126940e+01 1.991359e+01 1.802891e+01 2.204834e+01 1.810188e+01 2.313712e+01 3.904099e+01 2.940460e+01 7.212020e+01 4.827277e+01 3.235419e+01 3.905681e+00 5.000000e-02 1.844572e+00 2.767906e+00 1.124477e+00 1.688965e+00 1.939347e+00 4.177668e+00 4.839312e+00 3.916756e+00 2.078483e+00 4.253557e+00 2.959808e+00 5.828630e-01 5.000000e-02
<GCONST> 8.930027e+01
<STATE> 3
<NUMMIXES> 4
<MIXTURE> 1 3.900094e-01
<MEAN> 26
 4.455684e+00 -1.000635e+01 -1.383516e+01 -2.977599e+00 -1.229591e+01 -7.100967e+00 -9.187888e+00 5.348287e+00 3.863966e+00 -2.996390e+00 -3.593704e+00 -5.077310e-01 7.520438e-01 -2.772307e-01 2.730058e-01 -9.652972e-03 -2.008456e-01 1.190965e-01 5.320314e-01 9.258003e-01 -2.977446e-01 -1.835012e-01 -7.924858e-01 5.424085e-01 8.258972e-02 -5.926156e-03
<VARIANCE> 26
 5.195981e+00 1.372258e+01 5.672240e+01 1.285322e+01 2.431258e+01 1.015207e+01 2.332926e+01 2.850567e+01 1.268008e+01 1.419306e+01 1.528930e+01 2.071481e+01 5.000000e-02 4.428798e-01 4.228989e-01 3.058639e+00 1.867762e+00 1.977705e+00 2.440077e+00 2.509995e+00 1.024611e+00 1.448973e+00 1.367540e+00 1.928728e+00 1.066132e+00 5.000000e-02
<GCONST> 7.960226e+01
<MIXTURE> 2 3.500170e-01
<MEAN> 26
 3.069851e+00 8.610995e-01 -9.597421e+00 -1.583360e+01 -1.204521e+01 3.421168e+00 -6.814322e+00 -5.137579e+00 -7.587208e+00 -2.181165e+00 8.530423e-02 -2.266020e+00 7.286193e-01 -1.080215e-01 -1.412605e+00 8.012363e-02 7.717031e-01 -2.219102e-01 -6.604679e-01 -9.843816e-01 1.015141e-01 1.410244e+00 6.942693e-01 -3.749537e-01 -2.772908e-01 2.116739e-02
<VARIANCE> 26
 5.189641e+00 3.094174e+01 4.054533e+01 2.978448e+01 4.181785e+01 3.001588e+01 1.840442e+01 1.952891e+01 3.906313e+01 2.499330e+01 2.123427e+01 1.563634e+01 5.000000e-02 7.377402e-01 3.994999e+00 1.585221e+00 4.069593e+00 4.145711e+00 4.844232e+00 2.741429e+00 4.294829e+00 2.693531e+00 2.813002e+00 2.747820e+00 2.372814e+00 5.000000e-02
<GCONST> 9.198793e+01
<MIXTURE> 3 1.391646e-01
<MEAN> 26
 -2.987743e+00 -8.723438e+00 1.384846e+01 -8.836827e+00 -1.877788e+01 -8.863060e+00 -1.271800e+01 1.015014e+00 -1.556531e+01 -2.836241e+00 1.707985e+00 -2.811988e+00 7.566967e-01 -2.386705e-01 -3.071015e-01 1.404568e+00 -1.483068e+00 -2.036948e+00 1.292617e+00 -2.902882e-01 7.078422e-01 -2.603462e+00 1.493887e+00 5.555568e-01 -3.279502e-01 2.560027e-02
<VARIANCE> 26
 5.635141e+00 5.075901e+01 2.506251e+00 1.264614e+01 6.673312e+00 2.308338e+01 9.108688e+00 1.823262e+01 1.061348e+01 1.496200e+01 2.288425e+01 5.974042e+00 5.000000e-02 1.246607e+00 8.248907e-01 6.781967e-01 1.047387e+00 1.628240e+00 1.365000e+00 1.038309e+00 2.565338e+00 1.082591e+00 9.522637e-01 1.135444e+00 5.000000e-02 5.000000e-02
<GCONST> 6.966675e+01
<MIXTURE> 4 1.208089e-01
<MEAN> 26
 2.506315e-01 -3.013911e+00 -3.327433e+00 -2.113792e+01 -4.620358e+00 2.055063e+00 -1.891025e+01 -5.727971e+00 -1.933132e+00 1.176218e+01 -4.706408e+00 -2.541510e+00 7.478157e-01 -1.513706e+00 2.207989e+00 4.796789e-01 4.394458e-01 1.694986e+00 -2.670058e+00 2.085442e+00 -1.610326e+00 -4.944129e-02 -9.042736e-01 9.349103e-01 2.433097e-01 -3.273835e-02
<VARIANCE> 26
 2.597698e+00 1.249683e+01 1.125124e+01 2.426713e+00 5.576106e+00 1.813072e+01 1.396845e+01 1.871877e+01 1.432435e+01 2.487048e+00 3.361639e+00 8.512024e-01 5.000000e-02 3.466159e+00 2.012720e+00 3.374203e-01 3.686665e+00 2.241891e+00 5.801203e+00 3.178536e+00 6.740243e-01 4.755647e-01 1.735015e+00 1.645776e+00 1.612209e+00 5.000000e-02
<GCONST> 6.965899e+01
<STATE> 4
<NUMMIXES> 4
<MIXTURE> 1 1.625491e-01
<MEAN> 26
 -4.005457e+00 3.387498e+00 -5.712942e+00 -1.658495e+01 -1.877775e+00 -2.093157e+00 -1.021698e+01 -4.923157e+00 -2.323792e+00 1.646201e+00 -4.028208e+00 9.747846e-02 6.303956e-01 -2.877734e+00 2.938080e-01 9.167963e-01 2.113279e+00 1.159212e+00 -2.031420e+00 1.795177e+00 1.065977e+00 1.005329e+00 -2.215124e-01 1.112629e-01 3.528258e-01 -3.771904e-02
<VARIANCE> 26
 1.334595e+01 1.526950e+01 1.561805e+01 5.031822e+01 7.038043e+00 5.371877e+01 3.789439e+01 1.035882e+02 7.891858e+00 4.060131e+01 1.237715e+01 1.658435e+01 5.000000e-02 7.447118e+00 6.620636e+00 1.826404e+00 4.738429e+00 2.750455e+00 4.739961e+00 1.032399e+01 2.056877e+00 4.043308e+00 4.652787e+00 1.975724e+00 7.218301e-01 5.000000e-02
<GCONST> 9.405050e+01
<MIXTURE> 2 1.647514e-01
<MEAN> 26
 -4.257423e+00 -5.280967e+00 1.002392e+01 -6.352536e+00 -1.514714e+01 -1.208174e+01 -9.949228e+00 3.839196e-02 -1.288677e+01 8.401610e-01 -3.053549e+00 -1.011828e-01 6.986785e-01 -1.165675e+00 3.856870e-01 1.747356e+00 2.143558e-01 -1.112251e+00 -6.821228e-01 8.066848e-01 -6.827002e-01 -1.478828e+00 -1.650167e-01 -1.628129e-01 8.274599e-01 1.248735e-02
<VARIANCE> 26
 1.455966e+01 1.644329e+01 1.903554e+01 2.881086e+01 4.978802e+01 3.749714e+01 1.041457e+01 2.581782e+01 3.512334e+01 2.294384e+00 1.719642e+01 1.477471e+01 5.000000e-02 1.071892e+00 1.193352e+00 5.156738e+00 1.539265e+00 4.080862e+00 3.902079e+00 1.515086e+00 8.684704e+00 1.555164e+00 8.985510e-01 2.355688e+00 4.393199e-01 5.000000e-02
<GCONST> 8.466342e+01
<MIXTURE> 3 4.124439e-01
<MEAN> 26
 2.017318e+00 -1.348323e+01 -7.683533e+00 -2.118450e+00 -1.539987e+01 -5.166650e+00 -9.261826e+00 4.062793e+00 2.306044e+00 -1.594165e+00 -1.481571e+00 -1.808603e+00 7.522005e-01 -1.740700e+00 1.217729e-01 1.234371e+00 1.711349e-01 -1.152508e-01 1.538531e-01 9.596199e-01 -5.823494e-02 3.995974e-01 2.321587e-01 -5.404510e-01 6.317524e-01 -4.097513e-02
<VARIANCE> 26
 1.022636e+01 2.164356e+01 4.449526e+01 3.186445e+01 7.604333e+01 5.674404e+01 6.836788e+01 3.505838e+01 2.973779e+01 1.330318e+01 2.959383e+01 3.588063e+01 5.000000e-02 3.056980e+00 4.358144e+00 2.645940e+00 3.751670e+00 1.023952e+01 6.751094e+00 1.704455e+00 3.453818e+00 3.477980e+00 9.311482e-01 2.475170e+00 4.279277e+00 5.000000e-02
<GCONST> 9.797845e+01
<MIXTURE> 4 2.602557e-01
<MEAN> 26
 4.781361e+00 -4.540565e+00 -1.248201e+01 -2.083721e+01 -1.925783e+01 1.322818e+01 -6.041785e+00 -3.545733e+00 -5.290115e+00 1.381432e+00 3.209760e+00 -3.009915e+00 8.405931e-01 -1.020111e-01 -1.672720e+00 -6.286333e-01 3.756019e-01 9.861894e-01 1.179686e+00 -7.705909e-01 -1.282566e-02 7.063324e-01 1.219588e+00 1.018717e-01 -1.324803e+00 2.002155e-02
<VARIANCE> 26
 1.124701e+00 2.482882e+01 4.470177e+00 1.045503e+01 1.384235e+01 2.782182e+01 2.429493e+00 9.001840e+00 3.237437e+00 1.511936e+01 4.623048e+00 8.762070e+00 5.000000e-02 8.872189e-02 1.799771e+00 3.285315e-01 1.915156e+00 9.747732e-01 3.267440e+00 2.954302e-01 8.999729e-01 4.334343e-01 7.577602e-01 2.541398e+00 1.108555e+00 5.000000e-02
<GCONST> 6.305648e+01
<TRANSP> 5
 0.000000e+00 1.000000e+00 0.000000e+00 0.000000e+00 0.000000e+00
 0.000000e+00 5.627853e-01 4.372148e-01 0.000000e+00 0.000000e+00
 0.000000e+00 0.000000e+00 5.629236e-01 4.370764e-01 0.000000e+00
 0.000000e+00 0.000000e+00 0.000000e+00 5.488605e-01 4.511394e-01
 0.000000e+00 0.000000e+00 0.000000e+00 0.000000e+00 0.000000e+00
<ENDHMM>
