~o
<STREAMINFO> 1 26
<VECSIZE> 26<NULLD><MFCC_E_D><DIAGC>
~h "N"
<BEGINHMM>
<NUMSTATES> 5
<STATE> 2
<NUMMIXES> 4
<MIXTURE> 1 2.669107e-01
<MEAN> 26
 -1.584969e+00 -7.095953e+00 7.754619e-01 -6.694235e+00 -1.010681e+01 -2.297945e+00 -1.478798e+01 5.261146e+00 2.732620e+00 -6.340914e+00 -9.165068e+00 -1.825790e-01 5.908680e-01 -8.933770e-01 7.458529e-01 2.377375e+00 1.378452e+00 -6.886702e-01 3.861326e-02 1.647280e-01 -5.683326e-01 -1.794997e+00 8.360444e-01 -6.655952e-01 9.961299e-01 -4.789970e-02
<VARIANCE> 26
 5.210292e+00 2.052675e+01 1.985950e+01 7.277486e+00 2.308466e+01 7.836226e+00 1.146634e+01 1.967490e+01 2.365668e+01 8.577099e+00 1.883972e+01 1.175327e+01 5.000000e-02 2.597510e-01 9.062052e-01 3.494845e+00 1.395652e+00 9.205414e-01 1.059952e+00 3.649512e+00 4.801869e+00 2.592837e+00 6.498920e-01 2.615782e+00 1.024566e+00 5.000000e-02
<GCONST> 7.725349e+01
<MIXTURE> 2 1.724091e-01
<MEAN> 26
 -3.602180e+00 -5.451460e+00 5.065870e-01 -4.468947e-01 -8.600240e+00 2.722711e+00 -7.515625e+00 -6.405224e+00 -6.611600e+00 4.556469e+00 -4.742537e+00 -2.235079e+00 4.302848e-01 1.726587e-01 9.708611e-01 -6.437463e-01 1.874130e+00 1.025731e+00 -1.740702e-01 -1.968946e+00 -2.777992e+00 1.393719e-01 -1.403570e+00 -1.397394e-01 2.581364e+00 -1.716367e-02
<VARIANCE> 26
 5.444043e+00 9.003367e+00 2.261278e+01 1.239145e+01 4.375962e+01 5.628850e+00 3.444443e+01 1.748592e+01 2.046429e+01 2.181032e+01 1.276042e+01 8.071301e+00 5.000000e-02 1.627414e+00 3.223524e+00 3.046443e+00 3.239084e+00 3.420701e+00 2.636359e+00 1.724929e+00 1.005436e+00 1.335858e+01 2.590733e+00 4.279529e+00 1.299645e+00 5.000000e-02
<GCONST> 8.592069e+01
<MIXTURE> 3 4.479232e-01
<MEAN> 26
 -3.951294e+00 -4.256405e+00 5.311672e+00 -2.009919e+00 -1.416936e+01 4.254441e+00 -8.259338e+00 -1.009479e+01 -4.584018e+00 -1.827637e+00 -5.385159e+00 3.002747e+00 4.392493e-01 1.729185e-01 4.507891e-01 4.177117e-01 9.035623e-01 -7.682915e-01 7.511089e-01 -1.117348e-01 -2.449290e+00 -9.864241e-01 5.450942e-02 4.660925e-01 7.646928e-01 -1.214672e-02
<VARIANCE> 26
 3.660501e-01 1.277384e+01 4.743279e+00 4.331537e+00 1.834633e+01 6.476251e+00 1.744283e+01 1.305718e+01 1.357027e+01 7.913630e+00 6.590069e+00 1.885433e+00 5.000000e-02 2.246310e+00 1.895278e+00 9.241418e-01 1.178388e+00 3.164874e+00 3.273477e+00 2.707376e+00 4.400681e+00 1.512367e+00 1.436983e+00 1.410172e+00 6.701762e-01 5.000000e-02
<GCONST> 7.082977e+01
<MIXTURE> 4 1.127568e-01
<MEAN> 26
 -1.104315e+00 -6.401234e+00 -5.525507e-01 8.546479e+00 -1.249788e+01 -4.857934e+00 -6.306715e+00 -1.189789e+01 -8.078609e+00 2.724252e+00 -5.046342e+00 -5.577856e+00 4.520035e-01 -7.533347e-01 1.120927e+00 1.985390e-01 1.779191e+00 1.062562e+00 8.227077e-01 1.071589e+00 -3.630415e+00 -2.843974e+00 2.198793e+00 -8.539763e-01 2.352652e-01 -3.791253e-02
<VARIANCE> 26
 1.697606e-01 1.798341e-01 6.973415e-01 2.682900e+00 3.103140e+00 2.949692e+00 3.063564e+00 1.271261e+01 2.273521e+00 5.966360e+00 2.862403e+00 2.379674e+00 5.000000e-02 1.229058e-01 6.494005e-01 2.696036e-01 2.748141e+00 4.964032e-01 9.684683e-01 3.265040e+00 3.148591e+00 4.408171e-01 2.616392e-01 2.820189e-01 7.643947e-01 5.000000e-02
<GCONST> 4.440859e+01
<STATE> 3
<NUMMIXES> 4
<MIXTURE> 1 2.319977e-01
<MEAN> 26
 -3.680445e+00 -4.901831e-03 3.735908e-01 -6.546136e+00 -1.007260e+01 -1.032256e+00 -8.750521e+00 -4.341508e+00 1.368790e-02 1.497546e+00 -9.426014e+00 -6.460020e-01 4.384187e-01 2.111051e-01 9.552688e-01 -1.270912e+00 3.587368e-01 6.438060e-02 9.005706e-01 -1.834676e-01 1.024156e-01 -2.343715e-01 3.542811e-01 1.512690e+00 -1.807614e-01 -1.225451e-02
<VARIANCE> 26
 5.025316e+00 1.566570e+01 1.163081e+01 5.132953e+00 1.902196e+01 8.971159e+00 3.965530e+01 1.570477e+01 5.652890e+00 2.151249e+01 1.562705e+01 1.460588e+01 5.000000e-02 1.316098e+00 1.738212e+00 4.004660e-01 3.320754e+00 7.361783e-01 3.145924e-01 7.685689e-01 3.090722e+00 2.715149e+00 5.432982e+00 2.176987e+00 2.571347e+00 5.000000e-02
<GCONST> 7.698239e+01
<MIXTURE> 2 3.177605e-01
<MEAN> 26
 -4.559493e+00 -1.875383e-01 3.947872e+00 -4.623410e-01 -1.177510e+01 2.740610e+00 -6.020339e+00 -1.199331e+01 -7.287766e+00 -3.773612e+00 -6.865120e+00 5.472427e+00 3.808235e-01 -1.065089e+00 4.144083e-01 -1.206255e+00 -1.348419e+00 1.049876e+00 -1.846640e+00 1.384725e+00 1.997443e+00 1.271399e+00 -7.054596e-01 2.617876e-01 -4.918117e-01 6.550443e-03
<VARIANCE> 26
 1.025096e+00 1.615330e+01 1.608248e+01 6.473700e+00 3.941270e+01 7.984671e+00 1.910448e+01 3.387011e+00 7.017365e+00 1.790503e+00 1.331128e+01 8.402004e+00 5.000000e-02 2.725813e+00 1.920854e+00 2.785191e+00 1.764146e+00 4.662959e+00 1.716199e+00 2.817409e+00 4.788580e+00 1.281110e+00 1.685909e+00 1.501077e+00 8.140653e-01 5.000000e-02
<GCONST> 7.531502e+01
<MIXTURE> 3 1.889582e-01
<MEAN> 26
 -2.796144e+00 -1.251326e+01 2.161237e+00 3.450649e-01 -1.407193e+01 -3.997489e+00 -8.750038e+00 2.951388e+00 -5.065924e-01 -4.936104e+00 -1.044404e+01 3.179320e+00 5.415199e-01 -8.641299e-01 5.266770e-01 -8.282432e-01 4.622068e-01 1.473550e+00 -3.233589e-01 2.509316e+00 -2.324597e-01 5.960765e-01 -9.080359e-01 -8.455614e-01 7.952128e-02 -3.575861e-02
<VARIANCE> 26
 5.128250e+00 2.735664e+00 8.508120e+00 3.201419e+01 1.107527e+01 1.248772e+01 3.599455e+01 9.402327e+00 1.154714e+01 6.421436e+00 7.511842e+00 1.605250e+01 5.000000e-02 1.691942e+00 9.913624e-01 9.370241e-01 6.981071e+00 1.604350e+00 1.432976e+00 1.501838e+00 6.156319e-01 1.739544e+00 1.314482e+00 2.648647e+00 2.538019e+00 5.000000e-02
<GCONST> 7.577579e+01
<MIXTURE> 4 2.612834e-01
<MEAN> 26
 -2.996470e+00 -5.521352e+00 9.644492e-01 2.234317e+00 -8.492199e+00 2.539568e+00 -1.181950e+01 -1.336545e+01 -1.097036e+01 3.291712e+00 -5.397555e+00 3.427394e+00 4.742794e-01 9.796833e-01 4.756222e-01 -1.923238e+00 -2.486401e+00 -6.601933e-01 6.574151e-01 8.556297e-01 7.449131e-01 1.181639e+00 -1.164887e+00 2.684088e-01 5.771506e-01 3.689738e-02
<VARIANCE> 26
 9.857269e-01 6.072416e+00 2.800493e+00 1.756747e+01 3.112648e+00 1.957220e+01 2.155413e+01 4.348621e+00 4.345692e+00 2.259634e+01 7.581029e+00 1.841658e+01 5.000000e-02 8.427042e-01 5.040772e-01 2.909116e+00 1.563296e+00 2.586988e+00 4.867908e-01 1.751818e+00 3.359541e+00 3.413792e+00 1.016967e+00 8.659000e-01 1.995410e+00 5.000000e-02
<GCONST> 7.010747e+01
<STATE> 4
<NUMMIXES> 4
<MIXTURE> 1 1.848288e-01
<MEAN> 26
 -1.018967e+01 7.039691e-01 -1.345948e+00 -1.383445e+00 -7.338279e+00 -3.997900e+00 -7.997375e-01 -4.921214e+00 -2.960459e+00 -4.082793e+00 -3.132719e+00 2.963710e+00 3.072650e-01 -3.654034e+00 -1.641297e+00 -3.925793e+00 -1.126793e+00 2.820660e+00 -2.822354e+00 9.217007e-01 1.805024e+00 1.282305e+00 -1.981890e-01 1.597046e+00 -1.406810e+00 2.396583e-02
<VARIANCE> 26
 1.409250e+01 2.165444e+01 2.275762e+01 4.539289e+01 1.588348e+01 1.053427e+01 1.122792e+01 3.648201e+01 1.502643e+01 2.532809e+00 4.115918e+00 1.593520e+00 5.000000e-02 2.983816e+00 4.310167e+00 1.926994e+00 3.908544e+00 1.470835e+00 1.673495e+00 1.341574e-01 5.736042e+00 1.261176e+00 6.945404e-01 6.815291e-01 1.172881e-01 5.000000e-02
<GCONST> 7.366262e+01
<MIXTURE> 2 2.917260e-01
<MEAN> 26
 1.895037e+00 -5.218248e+00 -1.126471e+01 -1.206449e+01 -9.768064e+00 3.502705e+00 -7.647248e+00 -3.130271e+00 -1.440728e+00 -1.100057e+00 -2.840596e+00 -9.120656e-01 6.707956e-01 2.002766e+00 -1.016794e+00 -3.934409e+00 -3.638043e+00 -3.419984e-01 2.081982e+00 -5.394452e-01 3.252374e+00 4.104696e+00 -1.068757e+00 -3.018499e-01 -2.121117e+00 8.648075e-02
<VARIANCE> 26
 1.052980e+01 6.184041e+00 1.472574e+01 1.609595e+01 5.753993e+00 1.348050e+01 9.211408e+00 7.943012e+00 1.273582e+01 1.053441e+01 4.570185e+00 8.769670e+00 5.000000e-02 3.974649e-01 9.833806e-01 3.280453e-01 7.345501e-01 2.168139e+00 2.427108e+00 2.741174e+00 1.022435e+00 2.123535e+00 5.607523e-01 8.669673e-01 5.645383e-01 5.000000e-02
<GCONST> 6.846023e+01
<MIXTURE> 3 3.046450e-01
<MEAN> 26
 -4.314963e+00 -1.033531e+01 2.690665e+00 -4.732640e+00 -1.264270e+01 -3.768934e-02 -9.198555e+00 2.539307e+00 3.054451e+00 -9.088599e+00 -1.043310e+01 9.347531e-01 5.213742e-01 -6.533136e-01 -1.085821e+00 -1.392757e+00 -2.402225e+00 1.291853e+00 -8.977100e-01 9.225669e-01 1.593020e+00 1.874026e+00 -6.913186e-01 1.957416e-01 -1.060713e+00 2.184162e-02
<VARIANCE> 26
 6.429230e+00 4.830057e+01 1.631300e+01 1.909021e+01 3.695370e+00 5.178575e+00 2.089221e+01 5.496502e+01 2.157321e+01 8.298460e+00 4.102325e+00 1.484529e+01 5.000000e-02 2.811506e+00 1.918546e+00 2.869688e+00 2.100310e+00 4.656945e+00 1.362927e+00 4.132038e-01 6.772497e+00 2.716353e+00 3.025305e+00 4.992422e+00 2.173803e+00 5.000000e-02
<GCONST> 8.341655e+01
<MIXTURE> 4 2.188001e-01
<MEAN> 26
 -1.825730e+00 7.242771e-01 -1.459067e+00 1.276944e+00 -5.655954e+00 6.895426e-01 -6.410964e+00 -1.264026e+01 -1.146105e+01 4.569532e+00 7.035137e-02 -2.821978e+00 3.904081e-01 -9.971108e-01 1.957432e+00 -1.742266e-01 -1.065582e+00 9.088427e-01 8.332278e-01 9.218956e-01 -1.304573e-01 -6.151679e-02 -7.150110e-01 1.013471e+00 1.518579e+00 -3.093301e-02
<VARIANCE> 26
 4.237011e+00 7.637955e+00 2.925111e+00 3.552043e+01 1.341850e+01 1.136280e+01 4.115742e+00 1.461881e+01 1.089505e+01 4.823680e+00 4.141694e+00 8.413509e+00 5.000000e-02 1.761885e+00 6.856976e-01 4.311211e-01 4.352169e-01 4.818345e+00 2.575465e-01 2.874604e+00 3.317040e+00 5.643575e+00 9.392698e-01 2.499213e+00 1.237746e-01 5.000000e-02
<GCONST> 6.803186e+01
<TRANSP> 5
 0.000000e+00 1.000000e+00 0.000000e+00 0.000000e+00 0.000000e+00
 0.000000e+00 6.993176e-01 3.006824e-01 0.000000e+00 0.000000e+00
 0.000000e+00 0.000000e+00 5.364602e-01 4.635398e-01 0.000000e+00
 0.000000e+00 0.000000e+00 0.000000e+00 4.165367e-01 5.834634e-01
 0.000000e+00 0.000000e+00 0.000000e+00 0.000000e+00 0.000000e+00
<ENDHMM>
