~o
<STREAMINFO> 1 26
<VECSIZE> 26<NULLD><MFCC_E_D><DIAGC>
~h "S"
<BEGINHMM>
<NUMSTATES> 5
<STATE> 2
<NUMMIXES> 4
<MIXTURE> 1 1.084586e-01
<MEAN> 26
 -6.664308e+00 -4.069804e+00 -4.748363e+00 -6.504601e+00 -8.102439e+00 -3.382018e-01 -3.188686e-01 3.683121e+00 4.257770e-01 -1.357400e+00 -7.782096e+00 9.664796e-01 3.125029e-01 -1.929255e+00 -5.171719e-01 -1.161871e-01 -6.855319e-02 1.013528e+00 -8.073094e-01 -2.842641e-01 -1.200394e+00 -8.183432e-01 -5.465061e-01 6.491954e-01 -1.772925e-02 -8.741703e-02
<VARIANCE> 26
 5.068928e+00 6.095172e+01 4.377230e+01 2.599313e+01 8.321198e+01 1.042124e+01 8.613148e+00 2.015301e+01 2.698309e+01 4.256550e+00 1.504908e+01 2.004929e+01 5.000000e-02 2.443515e+00 1.237490e+00 6.743419e-01 3.997029e+00 3.175509e+00 1.379582e+00 2.246785e+00 3.307088e+00 9.529780e-01 2.968170e+00 1.490574e+00 1.383079e+00 5.000000e-02
<GCONST> 8.428257e+01
<MIXTURE> 2 3.597187e-01
<MEAN> 26
 -1.696958e+01 -4.264199e+00 -8.159582e+00 -1.170253e+01 2.136294e-01 -2.530049e+00 -2.730250e+00 1.681266e+00 -1.701295e+00 -1.174962e+00 -3.082830e+00 -8.340397e-01 1.200719e-01 7.406269e-01 1.882949e-01 -5.838590e-01 6.374851e-01 -3.248830e-02 1.266750e+00 -1.119164e-01 1.764588e-01 -4.929579e-01 2.629454e-01 3.725285e-01 3.026292e-01 -3.550942e-02
<VARIANCE> 26
 3.000938e+00 3.359818e+00 6.997331e+00 8.416368e+00 1.045617e+01 2.507225e+01 1.053900e+01 1.849381e+01 1.140683e+01 8.915771e+00 1.064490e+01 7.025023e+00 5.000000e-02 6.071041e-01 4.356212e-01 8.718260e-01 1.240372e+00 1.380157e+00 1.878248e+00 1.515011e+00 3.429832e+00 9.565830e-01 8.505698e-01 1.376133e+00 9.185071e-01 5.000000e-02
<GCONST> 6.933463e+01
<MIXTURE> 3 5.368426e-02
<MEAN> 26
 -6.988506e+00 -5.187006e+00 -1.017325e+01 -1.474140e+01 -4.972579e+00 -5.786522e-01 -1.260837e+01 -1.397659e+00 6.196214e+00 -1.845776e+00 -1.376035e+01 -1.928956e+01 3.411590e-01 -4.058748e-01 -1.514484e+00 -1.143734e-01 -5.105043e-01 1.309217e+00 3.499429e+00 -4.528039e-01 5.423734e-01 -4.158644e-01 -7.666512e-01 -9.918677e-01 -1.459403e+00 -4.260476e-02
<VARIANCE> 26
 1.883933e+01 6.611099e+00 4.357465e+00 4.622986e+00 9.826556e+00 4.489251e+01 2.410536e+01 7.109498e+00 1.202674e+01 2.207324e+01 2.413697e+01 2.614404e+01 5.000000e-02 7.931722e+00 1.557113e+00 4.399514e-01 1.126123e+00 9.449111e-01 1.140821e+00 6.090743e+00 3.548962e-01 1.220740e+00 2.123417e+00 8.490802e+00 1.448177e+01 5.000000e-02
<GCONST> 8.130473e+01
<MIXTURE> 4 4.781384e-01
<MEAN> 26
 -1.902147e+01 -2.392288e+00 -5.592762e+00 -3.504188e+00 -3.555290e+00 3.564397e-01 -7.704924e-01 1.560104e+00 7.992882e-02 1.221261e+00 9.133695e-01 -3.075305e-01 -1.479191e-01 5.603191e-02 1.890520e-02 1.216973e-01 -1.100173e-02 -1.983382e-01 2.363634e-01 -2.589626e-02 -1.534146e-01 -2.021898e-01 -2.347279e-01 5.658312e-02 3.225521e-02 5.355682e-04
<VARIANCE> 26
 2.001804e+00 2.545346e+00 4.236123e+00 5.363992e+00 6.550636e+00 8.361009e+00 1.206886e+01 9.058162e+00 8.128400e+00 9.141765e+00 8.421976e+00 6.801805e+00 5.000000e-02 1.612938e-01 3.013910e-01 5.153892e-01 9.581101e-01 8.221992e-01 9.362411e-01 9.365535e-01 8.846959e-01 8.726980e-01 9.987829e-01 1.013095e+00 1.098322e+00 5.000000e-02
<GCONST> 5.938889e+01
<STATE> 3
<NUMMIXES> 4
<MIXTURE> 1 3.598785e-01
<MEAN> 26
 -1.750681e+01 -2.704737e-01 -5.176023e+00 -9.812641e-01 -1.899901e+00 -2.193126e-01 -9.247658e-01 -2.873325e-01 -1.266803e+00 -1.704106e+00 -3.314835e+00 -4.099369e-01 -1.148203e-01 1.577376e-01 5.316492e-01 3.434299e-01 -1.020845e-01 -1.012104e+00 -3.119308e-01 -1.913582e-01 -2.709724e-01 3.073348e-01 3.091417e-01 1.217414e-01 -6.883801e-01 1.440589e-02
<VARIANCE> 26
 1.273883e+00 3.928835e+00 5.730380e+00 7.806206e+00 1.363625e+01 6.380722e+00 6.168344e+00 1.105929e+01 6.669465e+00 1.556661e+01 1.935490e+01 1.244116e+01 5.000000e-02 5.742843e-01 7.242106e-01 1.038664e+00 2.569244e+00 8.345630e-01 6.321245e-01 7.653385e-01 2.430715e+00 1.186186e+00 1.878387e+00 1.854779e+00 1.468212e+00 5.000000e-02
<GCONST> 6.790823e+01
<MIXTURE> 2 3.358973e-01
<MEAN> 26
 -1.327081e+01 -3.072447e+00 -1.184528e+01 -7.137282e+00 -3.569396e+00 -6.076829e-01 -2.135498e-01 1.558335e+00 -6.143829e-01 -6.923460e-01 -3.592735e+00 1.663295e+00 -1.256676e-02 -2.048970e-01 4.698828e-01 3.537402e-01 2.298149e-01 -3.317485e-01 6.608008e-02 1.960576e-01 -3.618844e-01 -3.504699e-01 -1.634910e-01 1.055151e-01 1.796078e-01 -1.901862e-02
<VARIANCE> 26
 4.056534e+00 1.154459e+01 6.129684e+00 2.846066e+00 9.742919e+00 9.179388e+00 1.843711e+01 3.003458e+01 1.112753e+01 9.366159e+00 1.727615e+01 1.105817e+01 5.000000e-02 1.183058e-01 6.497152e-01 1.067517e+00 6.103235e-01 1.220527e+00 1.650669e+00 1.622199e+00 2.455517e+00 8.954937e-01 1.125740e+00 2.650358e+00 1.520770e+00 5.000000e-02
<GCONST> 6.969862e+01
<MIXTURE> 3 4.680512e-02
<MEAN> 26
 -1.344182e+01 -1.722809e+01 -1.491329e+01 -1.733252e+01 1.022357e+00 9.386928e+00 -9.842867e+00 5.075061e+00 7.866664e+00 3.293498e+00 -9.261315e+00 -1.179736e+01 2.108530e-01 4.787554e-01 -1.782138e+00 -7.333429e-01 -5.538211e-01 2.222215e-01 4.667783e-01 1.447824e+00 1.860322e+00 7.628463e-01 9.066199e-01 1.419743e-01 2.016385e+00 4.520959e-02
<VARIANCE> 26
 8.988632e-01 5.387872e+00 3.265838e+00 4.667085e+00 1.328944e+00 1.183903e+00 2.539816e+01 2.827065e+01 7.072834e+00 4.539841e+00 1.290702e+00 2.721850e+00 5.000000e-02 1.183796e+00 1.433069e+00 7.829745e-01 9.253462e-01 3.921077e-01 1.490452e-01 1.788814e+00 6.166107e-01 5.203885e-01 2.296191e+00 1.569975e+00 4.049785e-01 5.000000e-02
<GCONST> 5.504010e+01
<MIXTURE> 4 2.574190e-01
<MEAN> 26
 -1.622681e+01 -3.648070e+00 -6.421731e+00 -1.104922e+01 -3.965611e+00 2.571805e+00 1.669372e+00 6.058374e+00 -4.677413e+00 -3.783885e+00 -2.095197e+00 -2.447957e+00 -6.941093e-02 -3.082144e-02 -3.147676e-01 -4.048038e-01 1.208985e-01 1.065222e-01 1.554317e-01 2.465848e-01 5.411304e-01 -1.337291e-01 -4.391068e-01 -8.299295e-01 -7.727031e-01 -3.985527e-03
<VARIANCE> 26
 1.983468e+00 7.381841e+00 2.749965e+01 1.777455e+01 4.376123e+01 1.964643e+01 1.241669e+01 3.088741e+01 2.130203e+01 1.961418e+01 2.155374e+01 2.791296e+01 5.000000e-02 2.280521e+00 1.154706e+00 1.488297e+00 2.606014e+00 2.089855e+00 1.454822e+00 1.928307e+00 2.820215e+00 1.679677e+00 1.681093e+00 2.668859e+00 6.375287e-01 5.000000e-02
<GCONST> 8.250855e+01
<STATE> 4
<NUMMIXES> 4
<MIXTURE> 1 1.783518e-01
<MEAN> 26
 -1.157306e+01 -3.189934e+00 -1.342800e+01 -9.585029e+00 -7.980725e-01 7.215751e+00 -1.348496e+00 -1.364593e+00 -4.874914e+00 -2.436620e+00 -3.020084e+00 -3.994531e+00 6.953601e-02 1.051356e+00 6.824732e-01 6.799094e-01 -4.967779e-01 5.104477e-02 2.297892e-01 -5.150319e-01 -7.027762e-02 -9.148870e-01 -1.322553e+00 -6.998648e-01 -3.055906e-01 3.155538e-02
<VARIANCE> 26
 9.219011e+00 3.021106e+00 9.854437e+00 8.897331e+00 1.161543e+01 2.976188e+01 4.860351e+00 7.390971e+00 1.843345e+01 1.923527e+01 8.221209e+00 4.475269e+00 5.000000e-02 4.371595e+00 3.540950e-01 3.846270e-01 5.573314e-01 1.209248e+00 4.998697e-01 2.898221e+00 5.936590e-01 5.747343e-01 1.147939e+00 4.770459e-01 2.316252e-01 5.000000e-02
<GCONST> 6.481448e+01
<MIXTURE> 2 5.027687e-01
<MEAN> 26
 -1.502345e+01 -8.954046e-01 -4.645273e+00 -5.167993e+00 -7.460331e+00 -2.467225e+00 -7.015211e-01 4.662121e-01 1.032351e+00 1.625928e-01 -1.247569e+00 -7.777537e-01 -5.580629e-02 -3.511302e-01 -7.052992e-01 7.133349e-01 -2.745577e-01 -2.592126e-01 3.816884e-01 -1.426829e-01 -2.506193e-01 2.976334e-01 3.281574e-01 5.811914e-01 1.237996e-01 3.667386e-02
<VARIANCE> 26
 8.628839e+00 1.339824e+01 7.885030e+00 7.386504e+00 2.360427e+01 1.192560e+01 8.601687e+00 3.251463e+01 1.139191e+01 1.739879e+01 5.836415e+00 1.367683e+01 5.000000e-02 1.661705e+00 2.279418e+00 1.885865e+00 2.153836e+00 2.966206e+00 6.678227e-01 8.017994e-01 3.106346e+00 2.352399e+00 6.770045e-01 8.403791e-01 2.277959e+00 5.000000e-02
<GCONST> 7.699530e+01
<MIXTURE> 3 1.409324e-01
<MEAN> 26
 -2.179506e+00 -7.047306e+00 -1.063965e+01 -1.485228e+01 -5.990822e+00 8.689926e+00 -5.815266e+00 3.417253e+00 -3.812076e-01 -3.215395e+00 -7.991396e+00 -4.160460e+00 5.923114e-01 2.938411e+00 1.447221e-01 -9.751768e-01 -1.076720e+00 -3.035579e-01 1.397164e+00 -1.367097e+00 -4.652473e-01 -5.573134e-01 -1.644697e+00 3.165821e-01 -4.256267e-01 1.286684e-01
<VARIANCE> 26
 1.853483e+01 5.158469e+01 1.819333e+01 2.627391e+01 7.730504e+01 2.280293e+01 8.997939e+00 1.075604e+01 3.036651e+01 2.305329e+01 1.352760e+01 3.059850e+00 5.000000e-02 2.964097e-01 4.626149e+00 1.384222e+01 6.651924e+00 1.254188e+00 5.380867e+00 6.834595e-01 1.372270e+00 1.924108e+00 1.732824e+00 1.122205e+00 2.058321e+00 5.000000e-02
<GCONST> 8.587215e+01
<MIXTURE> 4 1.779471e-01
<MEAN> 26
 -1.195966e+01 1.708889e+00 5.047805e+00 -9.273511e+00 -1.136317e+01 -4.372404e-01 -6.671196e+00 -1.137771e+00 -1.034251e+01 1.409334e-01 -1.783994e+00 -9.878662e-01 2.504708e-01 2.596389e+00 1.434837e+00 1.668903e+00 -1.008300e+00 -3.150005e-01 6.851354e-03 -1.345840e+00 -6.038455e-01 -2.298564e+00 -1.187587e+00 -1.621755e+00 -2.106773e-01 1.425484e-01
<VARIANCE> 26
 2.690970e+01 2.009221e+01 3.726363e+01 1.277619e+01 8.187007e+00 4.994420e+00 6.581590e+01 3.867393e+01 4.395884e+01 7.259944e+00 1.193865e+01 3.165972e+01 5.000000e-02 9.964329e-01 1.907535e+00 1.165298e+00 1.809855e+00 1.457789e+00 1.403544e+00 4.725344e+00 1.770076e+00 1.183571e+00 7.459467e-01 5.565898e-01 1.245605e+00 5.000000e-02
<GCONST> 8.124258e+01
<TRANSP> 5
 0.000000e+00 1.000000e+00 0.000000e+00 0.000000e+00 0.000000e+00
 0.000000e+00 8.282157e-01 1.717843e-01 0.000000e+00 0.000000e+00
 0.000000e+00 0.000000e+00 8.127883e-01 1.872117e-01 0.000000e+00
 0.000000e+00 0.000000e+00 0.000000e+00 6.828218e-01 3.171783e-01
 0.000000e+00 0.000000e+00 0.000000e+00 0.000000e+00 0.000000e+00
<ENDHMM>
