~o
<STREAMINFO> 1 26
<VECSIZE> 26<NULLD><MFCC_E_D><DIAGC>
~h "V"
<BEGINHMM>
<NUMSTATES> 5
<STATE> 2
<NUMMIXES> 4
<MIXTURE> 1 1.898832e-01
<MEAN> 26
 -8.153934e+00 -5.917295e+00 3.802727e+00 -9.352390e+00 -1.144807e+01 -6.618331e+00 -2.846672e+00 6.961548e+00 -4.714200e+00 -4.018469e+00 -4.315658e+00 -2.229871e-01 5.103520e-01 2.783571e-01 1.121952e+00 1.143328e+00 4.344970e-01 -5.257982e-01 -7.048712e-01 1.001946e+00 -1.122492e+00 -6.967475e-01 3.687993e-02 3.128018e-01 -1.713769e-01 2.140426e-02
<VARIANCE> 26
 2.203404e+01 2.248866e+01 3.710726e+01 2.514508e+01 2.999262e+01 3.393200e+01 3.686528e+01 2.211290e+01 6.135131e+01 1.448293e+01 2.890320e+01 1.300344e+01 5.000000e-02 2.503743e+00 2.267833e+00 4.357063e+00 2.602956e+00 2.672833e+00 1.965547e+00 2.848490e+00 3.963238e+00 6.652281e+00 3.605099e+00 1.211148e+00 3.147148e+00 5.000000e-02
<GCONST> 9.394810e+01
<MIXTURE> 2 4.567093e-01
<MEAN> 26
 2.441896e+00 -1.257869e+01 -1.226449e+01 -1.353632e+01 -9.959896e+00 9.503710e+00 -1.205950e+01 -4.559005e-01 3.408141e+00 -8.768964e-01 -4.590351e+00 -6.529348e+00 8.639519e-01 6.194912e-01 -1.256454e+00 -1.117045e-01 -2.792798e-01 -4.686382e-01 8.384881e-01 -7.821871e-01 6.335880e-01 6.070800e-01 1.126520e-01 -5.569547e-01 -1.058362e+00 3.623638e-02
<VARIANCE> 26
 3.306600e+00 3.111156e+01 1.929941e+01 4.080919e+01 4.464714e+01 6.000046e+01 2.769767e+01 2.427760e+01 3.095955e+01 4.077952e+01 3.216948e+01 1.238655e+01 5.000000e-02 1.685600e+00 2.345038e+00 1.669877e+00 2.000545e+00 2.826101e+00 4.646836e+00 2.569962e+00 1.838150e+00 2.715327e+00 2.332462e+00 2.425812e+00 2.003861e+00 5.000000e-02
<GCONST> 9.076376e+01
<MIXTURE> 3 2.946047e-01
<MEAN> 26
 -3.963043e+00 -8.591492e+00 1.305334e+01 -1.074757e+01 -2.442500e+01 -5.361987e+00 -1.070267e+01 -4.008707e-01 -1.132563e+01 5.063918e-01 8.029742e-01 -4.492410e-01 7.950948e-01 6.240348e-01 -7.062995e-01 -2.012162e-01 2.039980e-01 -7.844363e-01 -6.445509e-01 -4.919430e-01 3.317404e-01 2.452028e-01 3.672649e-01 2.248360e-01 4.669712e-01 2.173115e-02
<VARIANCE> 26
 6.180289e+00 3.705269e+01 2.283900e+01 7.803364e+00 1.397484e+01 1.803914e+01 3.303762e+01 1.702378e+01 3.455441e+01 1.535611e+01 1.523240e+01 1.142446e+01 5.000000e-02 1.119762e+00 2.653057e+00 1.949938e+00 1.720381e+00 3.179180e+00 1.897203e+00 3.933181e+00 2.257009e+00 1.736599e+00 1.421612e+00 1.146933e+00 7.964873e-01 5.000000e-02
<GCONST> 8.279829e+01
<MIXTURE> 4 5.880255e-02
<MEAN> 26
 -7.332886e+00 1.257947e+00 8.826144e+00 -1.175136e+01 -1.300686e+01 -3.768285e+00 -1.159352e+01 -7.637937e+00 -8.481373e+00 7.463030e-01 -5.276716e+00 -1.841116e+00 6.574398e-01 1.748843e+00 -9.363635e-01 8.787190e-01 1.155063e+00 -2.083427e+00 2.062695e-01 -1.299065e+00 1.167254e+00 -2.132239e-01 1.183661e-01 3.805622e-01 -3.180231e-01 5.108769e-02
<VARIANCE> 26
 4.190215e+00 2.250284e+01 1.220499e+01 2.405470e+01 1.752745e+01 2.418644e+01 7.771511e+01 1.857952e+01 6.015034e+01 2.301647e+01 4.477141e+00 1.610369e+00 5.000000e-02 4.799628e+00 9.639526e-01 7.300532e-01 4.070087e-01 1.298874e+00 8.008384e-01 4.992088e+00 1.799305e+00 1.399595e+00 8.879603e-01 5.232247e-01 4.295213e-01 5.000000e-02
<GCONST> 7.583253e+01
<STATE> 3
<NUMMIXES> 4
<MIXTURE> 1 1.662305e-01
<MEAN> 26
 1.136527e-01 -4.084098e+00 1.929165e-01 -8.444190e+00 -8.132081e+00 -4.525124e+00 -2.185082e+01 -6.286091e+00 -3.505382e+00 6.297230e+00 -3.858534e+00 -4.601825e+00 7.405329e-01 6.197726e-02 3.394329e-02 -1.230624e-01 4.150932e-01 3.232962e-01 2.116555e-02 1.630952e-01 -1.065927e-01 5.031847e-02 -1.186885e-01 -1.247509e-01 -1.571560e-01 -1.060600e-02
<VARIANCE> 26
 4.253387e+00 1.336473e+01 9.893328e+00 3.644604e+01 1.493550e+01 1.983145e+01 6.942167e+00 1.658267e+01 5.929717e+00 1.163565e+01 1.858648e+01 1.681182e+01 5.000000e-02 3.085278e-01 4.653047e-01 1.037790e+00 9.523116e-01 1.201248e+00 1.011900e+00 8.386827e-01 1.318716e+00 9.665971e-01 5.228816e-01 1.346188e+00 7.546011e-01 5.000000e-02
<GCONST> 6.981339e+01
<MIXTURE> 2 5.303457e-01
<MEAN> 26
 3.416267e+00 -1.549821e+01 -1.322306e+01 -9.601962e+00 -1.209472e+01 6.646637e+00 -8.075220e+00 2.408034e+00 8.807195e-01 5.656189e-01 -6.340894e+00 -1.052726e+01 8.907244e-01 -9.901895e-02 -1.994779e-01 4.525054e-01 7.091916e-02 -3.797156e-02 -4.956034e-01 2.897947e-01 5.952975e-01 -1.505737e-01 -1.720156e-01 -6.055368e-01 1.408854e-01 -3.964451e-03
<VARIANCE> 26
 3.186511e+00 2.437445e+01 1.716596e+01 1.830060e+01 3.088482e+01 2.947534e+01 2.284614e+01 3.230956e+01 2.344625e+01 1.624712e+01 3.523539e+01 1.225908e+01 5.000000e-02 2.123874e-01 1.256447e+00 1.916595e+00 1.456247e+00 1.694060e+00 2.499681e+00 1.051781e+00 1.737319e+00 1.146134e+00 9.093532e-01 1.358995e+00 1.191397e+00 5.000000e-02
<GCONST> 7.959928e+01
<MIXTURE> 3 1.436700e-01
<MEAN> 26
 -6.262994e+00 -4.311755e+00 9.432469e+00 -7.235728e+00 -1.705060e+01 -7.555043e+00 -6.062118e+00 1.805186e-01 -8.231889e+00 -2.171122e+00 -1.624418e+00 1.078719e+00 6.485630e-01 -2.112522e+00 2.229997e+00 -2.639925e+00 1.469225e+00 3.484537e+00 5.094181e-01 2.433943e+00 -8.117824e-01 2.370388e+00 9.383913e-04 -5.743614e-01 4.635125e-01 -8.071589e-02
<VARIANCE> 26
 1.193618e+01 1.932336e+01 3.154875e+01 1.715470e+01 4.523110e+01 3.692883e+01 4.372372e+01 3.049234e+01 6.946925e+01 1.672424e+01 9.126581e+00 1.588672e+01 5.000000e-02 3.521636e+00 3.709954e+00 5.419971e+00 2.275697e+00 4.156034e+00 2.364433e+00 4.286702e+00 2.631601e+00 3.183316e+00 1.867227e+00 1.143129e+00 9.311513e-01 5.000000e-02
<GCONST> 9.181393e+01
<MIXTURE> 4 1.597543e-01
<MEAN> 26
 -4.706436e-01 -1.218749e+01 4.753116e+00 -7.730573e+00 -2.002348e+01 -9.751250e+00 -1.037179e+01 5.361885e+00 -3.180962e+00 -2.113615e-01 -4.030277e-01 -5.945214e-01 7.850474e-01 3.047266e-01 1.989413e-01 -1.060210e+00 4.411200e-01 1.349855e+00 1.209573e-01 -1.119345e+00 -3.426474e-01 1.102637e+00 1.359792e-02 -5.949031e-01 -5.353954e-01 -9.866041e-03
<VARIANCE> 26
 3.380277e+00 1.836075e+01 1.135192e+01 1.046679e+01 9.792575e+00 1.618261e+01 4.154239e+01 1.941396e+01 3.035850e+01 1.204431e+01 1.175860e+01 1.263234e+01 5.000000e-02 1.633285e+00 1.397755e+00 2.097397e+00 1.715181e+00 1.474659e+00 2.297692e+00 1.841301e+00 3.844387e+00 2.614637e+00 2.096163e+00 1.185715e+00 1.644651e+00 5.000000e-02
<GCONST> 8.101209e+01
<STATE> 4
<NUMMIXES> 4
<MIXTURE> 1 2.234263e-01
<MEAN> 26
 -8.149899e+00 -2.345698e+00 -9.883636e-01 -5.979024e+00 -5.312606e+00 -5.852119e+00 -2.703338e+00 1.036347e+00 -6.067079e-01 -1.555540e+00 -5.494441e+00 7.577731e-02 5.346768e-01 -3.970528e+00 1.496625e+00 -1.505293e+00 6.681396e-01 3.508060e+00 2.811427e-01 2.463300e+00 -6.768079e-01 7.038150e-01 -7.083438e-01 7.491679e-01 1.606248e-01 -8.924989e-02
<VARIANCE> 26
 2.970713e+01 3.390238e+01 3.932332e+01 2.406705e+01 2.643627e+01 4.224609e+01 4.808959e+01 4.659044e+01 2.403404e+01 2.507513e+01 3.471283e+01 1.300257e+01 5.000000e-02 3.191443e+00 3.813913e+00 4.937135e+00 2.989826e+00 2.802893e+00 5.744652e+00 4.329832e+00 2.145909e+00 3.625218e+00 2.961803e+00 2.308484e+00 1.300446e+00 5.000000e-02
<GCONST> 9.647935e+01
<MIXTURE> 2 2.530609e-01
<MEAN> 26
 3.522112e+00 -6.377299e+00 -1.382299e+01 -2.129693e+01 -1.133697e+01 1.227572e+01 -9.464970e+00 -2.590371e-01 -3.721199e+00 4.224494e-01 5.716690e-01 -2.302246e+00 8.592545e-01 7.138652e-02 4.541312e-01 2.721031e-02 6.999519e-02 -3.035846e-01 -7.353885e-02 2.660316e-02 -1.870497e-01 1.847852e-02 -8.977205e-05 -1.320637e-01 3.087726e-01 -6.341497e-03
<VARIANCE> 26
 1.372237e+00 1.236928e+01 6.800750e+00 1.140125e+01 2.562296e+01 1.324104e+01 4.097236e+01 2.666363e+01 1.174075e+01 4.407155e+01 1.443078e+01 1.525903e+01 5.000000e-02 2.433037e-01 4.900925e-01 8.552684e-01 1.116324e+00 7.355518e-01 1.158604e+00 9.266434e-01 1.117830e+00 8.824073e-01 2.230046e+00 1.266625e+00 4.432282e-01 5.000000e-02
<GCONST> 7.124417e+01
<MIXTURE> 3 2.782418e-01
<MEAN> 26
 7.530723e-01 -1.676776e+01 -3.273702e+00 -9.127750e+00 -1.593549e+01 -1.218038e+00 -6.400474e+00 8.651855e+00 2.035417e+00 -3.402877e+00 -8.683471e+00 -5.191145e+00 8.118352e-01 -8.553237e-01 1.264416e+00 1.966083e+00 -5.437152e-02 -7.687532e-01 -1.592094e+00 7.875609e-01 -2.240790e-02 -8.425145e-01 6.903743e-02 9.063820e-01 1.325429e+00 -3.135307e-02
<VARIANCE> 26
 4.486690e+00 2.383767e+01 1.961782e+01 1.087400e+01 2.584607e+01 2.886882e+01 1.926714e+01 1.418743e+01 2.555350e+01 1.415787e+01 1.871523e+01 7.958904e+00 5.000000e-02 4.051455e-01 1.261654e+00 1.636464e+00 1.528044e+00 2.829193e+00 1.592717e+00 2.514612e+00 3.927736e+00 2.384415e+00 1.643423e+00 1.634215e+00 1.098949e+00 5.000000e-02
<GCONST> 8.094119e+01
<MIXTURE> 4 2.452711e-01
<MEAN> 26
 -1.291235e+00 -8.077755e+00 1.349524e+00 -9.319885e+00 -1.636325e+01 -4.229424e+00 -7.661232e+00 4.839639e-01 -3.274716e+00 3.489961e+00 -2.735105e+00 -2.882694e+00 6.950797e-01 -1.036814e+00 2.232265e+00 -3.185858e-02 1.155558e+00 1.769878e+00 -1.882170e-02 5.825171e-01 -1.520847e+00 -3.280722e-01 4.056609e-01 -2.002164e-01 5.919349e-01 -7.209812e-02
<VARIANCE> 26
 1.317527e+01 2.646701e+01 6.265535e+01 3.169154e+01 4.987387e+01 6.056064e+01 4.982725e+01 2.654194e+01 3.618844e+01 4.264796e+01 1.676418e+01 1.944982e+01 5.000000e-02 2.165447e+00 2.544945e+00 3.428731e+00 4.501219e+00 5.154371e+00 4.042408e+00 3.867719e+00 4.540953e+00 4.178409e+00 4.234501e+00 1.593851e+00 3.173907e+00 5.000000e-02
<GCONST> 9.841060e+01
<TRANSP> 5
 0.000000e+00 1.000000e+00 0.000000e+00 0.000000e+00 0.000000e+00
 0.000000e+00 5.167642e-01 4.832359e-01 0.000000e+00 0.000000e+00
 0.000000e+00 0.000000e+00 7.153416e-01 2.846584e-01 0.000000e+00
 0.000000e+00 0.000000e+00 0.000000e+00 7.181588e-01 2.818412e-01
 0.000000e+00 0.000000e+00 0.000000e+00 0.000000e+00 0.000000e+00
<ENDHMM>
