~o
<STREAMINFO> 1 26
<VECSIZE> 26<NULLD><MFCC_E_D><DIAGC>
~h "C"
<BEGINHMM>
<NUMSTATES> 5
<STATE> 2
<NUMMIXES> 4
<MIXTURE> 1 2.332016e-01
<MEAN> 26
 -9.468260e+00 1.908122e+00 -1.384384e-02 -3.718041e-03 -4.984610e+00 -2.420773e+00 -4.495467e+00 -6.102617e+00 -3.785794e+00 -4.237572e-01 -3.947275e+00 -1.567894e+00 2.185731e-01 -2.448799e+00 4.375927e-01 -1.410166e+00 8.638594e-01 2.950592e+00 6.176804e-01 1.229487e+00 1.395014e-01 4.632222e-01 -1.718328e-01 7.726607e-02 1.927064e-01 -9.442096e-02
<VARIANCE> 26
 2.986534e+01 1.759283e+01 2.440822e+01 2.269860e+01 2.680578e+01 1.818399e+01 1.970589e+01 2.603180e+01 1.850645e+01 1.437010e+01 2.259942e+01 1.475761e+01 4.089420e-02 3.110592e+00 7.891388e+00 3.599918e+00 4.507191e+00 6.306244e+00 3.784481e+00 4.841920e+00 6.671422e+00 4.240750e+00 2.556014e+00 2.362572e+00 2.065180e+00 1.000000e-02
<GCONST> 9.298954e+01
<MIXTURE> 2 2.450593e-01
<MEAN> 26
 -2.204230e+01 -3.146466e+00 -1.968899e+00 -1.139481e+01 -3.719907e+00 -4.044086e+00 -2.902045e+00 -1.422496e+00 -4.564018e-01 -1.525114e+00 -4.661008e-01 7.431038e-01 5.507696e-01 -2.898122e+00 4.160053e-01 -6.565776e-01 -7.593869e-01 5.744877e-01 6.387063e-01 1.278793e+00 2.308815e-01 3.509350e-01 -1.436148e-01 2.481375e-01 -1.182758e-01 3.466153e-02
<VARIANCE> 26
 1.835883e+01 3.711227e+01 2.880299e+01 2.141729e+01 2.976944e+01 4.501120e+01 1.847811e+01 9.561823e+00 1.188381e+01 1.201560e+01 1.605103e+01 1.665172e+01 1.000000e-02 5.180463e+00 2.886438e+00 3.198290e+00 3.726313e+00 3.118745e+00 2.455037e+00 4.636623e+00 1.445396e+00 1.787938e+00 2.178541e+00 1.221180e+00 1.675751e+00 1.000000e-02
<GCONST> 8.564432e+01
<MIXTURE> 3 2.173913e-01
<MEAN> 26
 -1.212479e+01 -9.779149e+00 -1.298884e+00 -4.823425e+00 -7.457122e+00 -6.400175e+00 -1.276612e+00 3.344781e+00 -2.037898e-01 -2.641895e+00 -4.756165e+00 6.398755e-01 4.295204e-01 -2.270666e+00 1.398547e-01 -1.189813e+00 1.107978e-01 1.798533e+00 7.467918e-01 2.258832e-01 -1.091932e+00 7.829909e-01 -1.851467e-01 3.707830e-02 2.450387e-01 -5.752351e-02
<VARIANCE> 26
 3.823334e+01 3.908879e+01 3.720160e+01 4.102621e+01 6.311063e+01 5.212458e+01 6.376773e+01 2.745082e+01 3.857672e+01 3.065675e+01 2.835091e+01 1.613128e+01 3.587623e-02 6.060246e+00 4.098354e+00 5.277087e+00 5.205343e+00 5.405506e+00 4.955462e+00 4.029266e+00 3.071128e+00 3.221177e+00 2.537850e+00 3.479800e+00 1.806218e+00 1.000000e-02
<GCONST> 9.952735e+01
<MIXTURE> 4 3.043478e-01
<MEAN> 26
 -1.583868e+01 -6.696639e+00 -1.049605e+01 -8.547762e+00 -3.325801e+00 -2.775055e+00 -2.208651e+00 -1.471098e+00 -4.445807e-01 -1.493838e+00 -2.406001e+00 -6.635951e-01 3.088709e-01 -2.525817e-01 -3.218108e-01 -4.659710e-01 -5.879042e-01 -1.629286e-03 -1.314866e-01 -2.206087e-01 -7.740180e-02 -1.229952e-01 3.540217e-01 2.186767e-01 -2.033388e-01 -1.238173e-03
<VARIANCE> 26
 1.151368e+01 1.380512e+01 1.538820e+01 1.398752e+01 1.445132e+01 1.872144e+01 1.524254e+01 1.558588e+01 2.169235e+01 1.580606e+01 8.541773e+00 8.829274e+00 1.716925e-02 2.245777e+00 1.116341e+00 1.920094e+00 3.015406e+00 1.615462e+00 1.294663e+00 1.348286e+00 2.350652e+00 1.635020e+00 2.171410e+00 1.757386e+00 9.672114e-01 1.000000e-02
<GCONST> 7.715076e+01
<STATE> 3
<NUMMIXES> 4
<MIXTURE> 1 1.794020e-01
<MEAN> 26
 -1.832323e+01 -1.829138e+00 -3.508934e+00 1.061093e-02 -5.296821e-01 -7.089154e-02 -1.616451e+00 -7.919039e-01 8.631106e-03 3.731980e-01 -8.253982e-01 3.346047e-01 -1.000286e-01 -2.597765e-01 -1.523764e+00 -8.694104e-01 -1.134633e+00 -2.338051e-01 -2.579021e-01 9.294473e-02 3.269805e-01 7.477900e-02 -2.664733e-01 1.618266e-01 -6.298028e-02 4.708625e-02
<VARIANCE> 26
 7.317116e+00 1.099066e+01 8.902683e+00 7.126134e+00 6.877127e+00 1.485546e+01 9.380564e+00 7.326179e+00 8.214535e+00 1.006497e+01 8.380749e+00 1.067047e+01 1.000000e-02 3.439241e+00 5.058573e+00 2.617484e+00 4.835463e+00 2.780202e+00 5.929135e+00 2.750005e+00 1.854898e+00 2.082773e+00 1.766608e+00 1.977268e+00 1.512674e+00 1.000000e-02
<GCONST> 7.710160e+01
<MIXTURE> 2 4.252492e-01
<MEAN> 26
 -2.650189e+01 -1.312015e+00 -7.990147e+00 -1.056591e+01 2.900400e-02 -9.128840e+00 1.426684e+00 -1.652935e+00 -2.876569e-01 -1.736997e+00 -2.249914e+00 2.332460e-01 6.323087e-01 6.955588e-02 -3.525628e-01 -7.107399e-02 -2.409545e-01 -4.060883e-02 -4.720932e-02 -3.292526e-03 -8.152951e-04 -5.412456e-02 -1.044917e-01 -1.662259e-01 -6.900972e-02 -2.873925e-03
<VARIANCE> 26
 3.329464e+00 5.890606e+00 1.288384e+01 1.994066e+01 1.791067e+01 1.421347e+01 1.071800e+01 1.501250e+01 1.110363e+01 1.383861e+01 9.867897e+00 8.692335e+00 1.000000e-02 1.711189e+00 5.874499e-01 1.018297e+00 8.401119e-01 9.024987e-01 1.126046e+00 9.923164e-01 1.392756e+00 1.201564e+00 1.760362e+00 1.206915e+00 9.206189e-01 1.000000e-02
<GCONST> 6.824956e+01
<MIXTURE> 3 2.358804e-01
<MEAN> 26
 -1.231482e+01 -1.012245e+01 -8.667757e+00 -6.018971e+00 -3.327129e+00 -4.031958e+00 -1.784521e+00 1.186803e+00 2.235910e-01 -2.486920e+00 -4.510915e+00 -3.677244e-01 4.518723e-01 1.958354e+00 1.078597e-01 7.414906e-02 3.119489e-01 -3.783789e-01 2.646988e-01 -9.277443e-01 5.563295e-01 -6.253481e-01 -7.091427e-02 -1.230494e-01 -1.155134e-01 2.146159e-02
<VARIANCE> 26
 2.889162e+01 3.822565e+01 3.697286e+01 5.123273e+01 4.001283e+01 4.214361e+01 4.642116e+01 4.700636e+01 3.880255e+01 3.135004e+01 2.655618e+01 1.525053e+01 2.552653e-02 2.472162e+00 3.258239e+00 6.145090e+00 4.065975e+00 4.451451e+00 3.015813e+00 2.487025e+00 3.602973e+00 4.051979e+00 2.101388e+00 2.039798e+00 1.656719e+00 1.000000e-02
<GCONST> 9.574514e+01
<MIXTURE> 4 1.594684e-01
<MEAN> 26
 -2.339448e+01 -8.871127e+00 3.199943e+00 -8.337276e+00 -1.180278e+01 -7.193549e-01 1.106776e+00 -1.738308e+00 1.418601e+00 -2.121959e+00 -2.422772e+00 9.588099e-01 6.037521e-01 1.578182e+00 -4.520985e-01 9.764554e-02 8.949813e-01 -5.760764e-01 -1.078505e+00 2.365513e-01 5.083218e-01 -1.745359e-01 2.604258e-01 -1.236054e-01 -2.798530e-01 -6.036200e-04
<VARIANCE> 26
 2.880726e+01 1.604659e+01 6.915482e+00 1.383750e+01 2.457319e+01 1.829110e+01 3.728084e+01 1.385860e+01 1.926940e+01 1.757490e+01 1.373358e+01 1.684970e+01 3.065831e-02 5.974754e+00 8.857882e-01 1.671651e+00 2.430650e+00 2.579580e+00 3.023972e+00 3.110622e+00 1.598417e+00 2.089627e+00 1.950046e+00 2.883251e+00 2.753549e+00 1.000000e-02
<GCONST> 8.421959e+01
<STATE> 4
<NUMMIXES> 4
<MIXTURE> 1 2.025317e-01
<MEAN> 26
 -8.360105e+00 -2.725104e+00 -5.454675e+00 -8.438538e+00 -4.304248e+00 -2.149232e-01 -5.415474e+00 -4.661312e+00 -1.513191e+00 2.241584e+00 -3.085118e+00 -1.556271e+00 4.482737e-01 3.701941e+00 2.593449e-01 9.329107e-01 -1.403788e+00 -2.030516e+00 9.146734e-01 -2.272871e+00 -3.416060e-01 -1.020690e+00 3.779091e-02 1.804115e-01 -5.809346e-01 8.001698e-02
<VARIANCE> 26
 3.540963e+01 3.652467e+01 7.798475e+01 2.520506e+01 3.346507e+01 3.333591e+01 3.351967e+01 2.075260e+01 3.453053e+01 1.256222e+01 1.600017e+01 1.589388e+01 2.258963e-02 3.184720e+00 6.074617e+00 3.432097e+00 5.062258e+00 3.780529e+00 5.509207e+00 6.481547e+00 2.555800e+00 3.592845e+00 2.885584e+00 2.419964e+00 2.443397e+00 1.000000e-02
<GCONST> 9.508778e+01
<MIXTURE> 2 3.966245e-01
<MEAN> 26
 -1.815247e+01 -7.369655e+00 -4.355087e+00 -8.579897e+00 -3.865475e+00 -7.015870e+00 -1.404551e+00 4.736690e-01 -3.177435e-01 -2.026887e+00 -2.776103e+00 -6.947521e-02 4.378449e-01 1.934197e+00 -6.433012e-01 4.656500e-02 -5.769087e-01 -9.814795e-01 -2.715154e-02 -6.916788e-01 3.057089e-01 1.948259e-01 1.265808e-02 -4.683220e-01 5.268898e-02 2.159340e-02
<VARIANCE> 26
 2.493667e+01 3.273416e+01 2.466398e+01 4.908785e+01 2.646862e+01 5.020961e+01 2.446559e+01 2.071688e+01 2.331098e+01 1.711246e+01 1.795641e+01 1.090735e+01 2.203642e-02 9.155735e+00 3.432309e+00 3.137720e+00 7.730751e+00 3.126243e+00 5.074846e+00 3.887859e+00 2.283152e+00 1.880236e+00 1.720171e+00 1.673051e+00 1.267265e+00 1.201396e-02
<GCONST> 9.154746e+01
<MIXTURE> 3 2.278481e-01
<MEAN> 26
 -5.240481e+00 -8.748630e+00 5.104766e+00 -6.495470e+00 -1.537968e+01 -7.082784e+00 -6.275173e+00 3.395381e+00 -5.906527e+00 -3.396485e+00 -2.128241e+00 -1.968644e-01 6.218255e-01 2.672176e+00 -1.334712e+00 2.242366e+00 -5.561572e-01 -3.180519e+00 -5.359705e-01 -2.501645e+00 2.125870e-01 -9.275925e-01 -1.704094e-01 6.479324e-01 -1.075861e-01 8.930877e-02
<VARIANCE> 26
 2.446890e+01 2.189094e+01 3.709324e+01 2.090380e+01 3.905816e+01 2.941286e+01 6.075937e+01 1.982774e+01 2.152435e+01 2.072997e+01 1.308408e+01 1.049206e+01 3.560318e-02 3.598057e+00 1.990259e+00 6.063801e+00 1.867931e+00 3.140359e+00 3.410802e+00 4.084401e+00 3.508417e+00 3.904094e+00 2.154378e+00 1.606548e+00 2.257995e+00 1.000000e-02
<GCONST> 9.079196e+01
<MIXTURE> 4 1.729958e-01
<MEAN> 26
 2.760884e+00 -1.215494e+01 -9.742283e+00 -8.407424e+00 -1.214808e+01 -5.310638e-01 -1.055661e+01 2.363514e+00 5.736580e-01 9.451779e-01 -3.803316e+00 -4.842795e+00 8.044843e-01 2.642178e+00 -2.213450e+00 -6.545470e-01 -1.123335e+00 -2.361686e+00 1.512555e+00 -2.403144e+00 5.516032e-01 5.454240e-01 8.213651e-01 -1.066598e-02 -1.256807e+00 8.264220e-02
<VARIANCE> 26
 4.869173e+00 4.100390e+01 2.940556e+01 3.692185e+01 3.422633e+01 5.594821e+01 3.273952e+01 3.886512e+01 1.956287e+01 2.312397e+01 3.902444e+01 1.200913e+01 1.000000e-02 2.271351e+00 2.211737e+00 1.929480e+00 1.454998e+00 2.861913e+00 2.107281e+00 2.861323e+00 2.148948e+00 1.841848e+00 2.452586e+00 3.436265e+00 1.055984e+00 1.000000e-02
<GCONST> 8.688783e+01
<TRANSP> 5
 0.000000e+00 1.000000e+00 0.000000e+00 0.000000e+00 0.000000e+00
 0.000000e+00 6.442688e-01 3.557312e-01 0.000000e+00 0.000000e+00
 0.000000e+00 0.000000e+00 7.009967e-01 2.990033e-01 0.000000e+00
 0.000000e+00 0.000000e+00 0.000000e+00 6.202531e-01 3.797468e-01
 0.000000e+00 0.000000e+00 0.000000e+00 0.000000e+00 0.000000e+00
<ENDHMM>
