~o
<STREAMINFO> 1 26
<VECSIZE> 26<NULLD><MFCC_E_D><DIAGC>
~h "L"
<BEGINHMM>
<NUMSTATES> 5
<STATE> 2
<NUMMIXES> 4
<MIXTURE> 1 1.694915e-01
<MEAN> 26
 -5.451363e+00 2.219665e+00 2.841147e+00 -6.877581e+00 -1.107763e+01 -4.825882e+00 -5.663273e+00 -9.957294e+00 -8.809634e+00 -1.169355e+00 -3.832527e+00 8.422304e-01 5.642239e-01 5.883659e-02 9.611647e-01 6.233506e-01 -7.881207e-01 -1.525216e+00 1.995295e-01 6.422561e-01 -3.977666e-01 -1.068355e+00 -9.561046e-01 2.018746e-01 1.066228e-01 7.776371e-03
<VARIANCE> 26
 2.968635e+01 1.485581e+01 5.605523e+01 1.268481e+01 2.653311e+01 5.238788e+01 1.360799e+01 2.463749e+01 3.547757e+00 1.090837e+01 6.117431e+00 1.205956e+01 1.000000e-02 9.524919e-01 1.837163e+00 2.226646e+00 7.831101e-01 4.033543e+00 2.195294e+00 1.409246e+00 2.801604e+00 2.019561e+00 2.059679e+00 1.626215e+00 3.052595e-01 1.000000e-02
<GCONST> 7.763398e+01
<MIXTURE> 2 3.389831e-01
<MEAN> 26
 3.177263e+00 -1.463859e+01 -5.579005e+00 -3.539830e+00 -1.521743e+01 -9.999629e+00 -1.458332e+01 9.662395e+00 -1.471297e-02 -8.961734e-01 2.665680e-02 -2.074559e+00 8.156621e-01 8.105538e-01 -3.727959e-01 -6.303461e-01 -3.306391e-02 -1.092387e+00 8.235313e-02 -2.740944e-01 5.285550e-01 4.701375e-01 2.248666e-01 -3.759393e-01 -2.981362e-01 2.069298e-02
<VARIANCE> 26
 1.025589e+00 1.257052e+01 3.012019e+01 1.567952e+01 2.111526e+01 3.030905e+01 3.250690e+01 3.108006e+01 9.137053e+00 1.726168e+01 1.046583e+01 1.196658e+01 1.253811e-02 2.198728e+00 9.456463e-01 2.373456e+00 1.052619e+00 5.219794e+00 9.411811e-01 4.959115e+00 1.251571e+00 1.157053e+00 5.419954e-01 2.249731e+00 1.312018e+00 1.000000e-02
<GCONST> 7.646619e+01
<MIXTURE> 3 3.220339e-01
<MEAN> 26
 3.634380e+00 -2.552379e+00 -1.297615e+01 -1.900206e+01 -1.360320e+01 8.012192e+00 -7.358818e+00 -3.714606e+00 -2.186734e+00 1.439487e+00 -2.756145e+00 -7.723143e-01 7.939739e-01 1.003717e-01 -2.673866e-01 2.475012e-01 4.912123e-01 8.235399e-01 -9.368892e-01 -1.080536e+00 2.745314e-01 -1.040407e-01 5.865991e-02 8.187407e-02 -1.468224e-02 2.601621e-03
<VARIANCE> 26
 3.991851e+00 9.821955e+00 2.240996e+01 2.713221e+01 1.685962e+01 3.048144e+01 3.600411e+01 1.568124e+01 2.098368e+01 5.706624e+01 5.070844e+01 1.397370e+01 1.000000e-02 1.388406e+00 3.832331e+00 5.936987e+00 2.626399e+00 2.556545e+00 6.864377e+00 7.589140e-01 5.424618e+00 1.029260e+00 3.447903e+00 3.488788e+00 7.737553e-01 1.000000e-02
<GCONST> 8.584113e+01
<MIXTURE> 4 1.694915e-01
<MEAN> 26
 -7.724708e-01 5.302732e-01 -4.229494e+00 -1.511264e+01 -5.266253e+00 2.288596e-01 -1.447133e+01 -6.289054e+00 -7.727372e+00 2.102265e+00 -1.420237e-01 -3.366217e+00 6.323048e-01 1.341214e+00 1.114800e+00 2.236664e-01 -2.693918e+00 -5.079306e-02 1.120175e+00 -8.888219e-01 5.074793e-01 -1.642301e+00 7.508014e-02 2.597586e-01 -2.293541e-01 2.358890e-02
<VARIANCE> 26
 1.126034e+01 2.025589e+01 1.734027e+01 1.911648e+01 1.552880e+01 2.527939e+01 3.001250e+01 3.360936e+01 7.986617e+01 5.359217e+01 3.668473e+01 4.215798e+00 1.000000e-02 1.888250e+00 2.816256e+00 1.326405e+00 1.466904e+00 1.472828e+00 4.660961e+00 5.632599e+00 4.440511e+00 1.837671e+00 4.511738e+00 2.476534e+00 4.317269e-01 1.000000e-02
<GCONST> 8.576434e+01
<STATE> 3
<NUMMIXES> 4
<MIXTURE> 1 4.067796e-01
<MEAN> 26
 4.097715e+00 -1.118625e+01 -1.222918e+01 -2.733459e+00 -1.350518e+01 -7.193379e+00 -1.008059e+01 6.966169e+00 3.313630e+00 -2.525561e+00 -3.086606e+00 -1.177630e+00 7.609829e-01 -2.129346e-01 3.402090e-01 7.899418e-02 -2.647822e-03 -4.725735e-02 1.721753e-01 9.757098e-01 -4.670384e-01 -3.752574e-01 -5.908229e-01 3.904540e-01 1.358735e-01 -7.490000e-03
<VARIANCE> 26
 5.318642e+00 1.874025e+01 5.377315e+01 1.254730e+01 3.227653e+01 9.152242e+00 1.760237e+01 3.632707e+01 1.280316e+01 1.466409e+01 1.897921e+01 2.176174e+01 1.000000e-02 3.063564e-01 5.097636e-01 3.617794e+00 9.916737e-01 1.580341e+00 2.399554e+00 2.386157e+00 1.263885e+00 1.427916e+00 1.457786e+00 1.920117e+00 2.057229e+00 1.000000e-02
<GCONST> 7.706254e+01
<MIXTURE> 2 3.050847e-01
<MEAN> 26
 3.214382e+00 5.377580e-01 -1.029586e+01 -1.487647e+01 -1.296295e+01 4.356654e+00 -5.608421e+00 -5.188428e+00 -6.863842e+00 -2.256847e+00 -8.630729e-01 -2.409153e+00 7.178648e-01 -1.331930e-01 -1.327387e+00 1.010405e-01 1.011135e+00 2.740793e-01 -4.058477e-01 -1.100078e+00 4.272617e-02 1.098908e+00 3.460613e-01 -3.152528e-01 -4.926924e-01 1.413030e-02
<VARIANCE> 26
 3.452611e+00 3.299294e+01 4.572943e+01 2.284553e+01 3.449242e+01 3.083164e+01 1.210091e+01 2.219457e+01 3.298933e+01 3.437101e+01 2.388085e+01 1.440316e+01 1.918783e-02 5.301946e-01 4.348336e+00 1.637336e+00 3.370557e+00 4.497211e+00 5.216558e+00 2.371213e+00 4.549906e+00 2.898338e+00 2.075568e+00 4.178508e+00 2.284620e+00 1.000000e-02
<GCONST> 8.847719e+01
<MIXTURE> 3 1.355932e-01
<MEAN> 26
 -2.697173e+00 -8.221845e+00 1.260397e+01 -9.014364e+00 -1.765833e+01 -9.560943e+00 -1.205122e+01 2.077755e+00 -1.353727e+01 -2.358708e+00 8.512953e-01 -2.533429e+00 7.262483e-01 -9.310594e-01 -7.272044e-02 1.928949e+00 -1.021063e+00 -1.669362e+00 6.777382e-01 1.048487e-01 -4.307911e-01 -2.929260e+00 1.004169e+00 7.740614e-01 8.979525e-02 2.154301e-02
<VARIANCE> 26
 5.083527e+00 3.865875e+01 6.546584e+00 1.258608e+01 8.685257e+00 2.093627e+01 1.169155e+01 1.611037e+01 2.323970e+01 1.610469e+01 1.852477e+01 5.908124e+00 1.000000e-02 1.565257e+00 7.133607e-01 1.074720e+00 2.630909e+00 2.846691e+00 3.442132e+00 1.634404e+00 4.959408e+00 5.812201e-01 2.289683e+00 1.787653e+00 6.638888e-01 1.000000e-02
<GCONST> 7.531018e+01
<MIXTURE> 4 1.525424e-01
<MEAN> 26
 5.004140e-01 -1.106902e+00 -3.767193e+00 -2.191353e+01 -3.906509e+00 2.346838e+00 -1.744284e+01 -6.040665e+00 -5.409224e+00 9.098948e+00 -3.178412e+00 -2.414823e+00 7.418671e-01 -1.083734e+00 1.481171e+00 3.835680e-01 2.288534e-01 1.062361e+00 -1.977826e+00 1.841383e+00 -1.275549e+00 -3.055958e-02 -2.967784e-01 1.966340e-01 5.624586e-01 -1.797289e-02
<VARIANCE> 26
 2.433910e+00 2.167796e+01 1.036554e+01 4.151144e+00 6.299204e+00 1.442326e+01 1.958464e+01 1.518541e+01 5.241261e+01 2.731926e+01 1.115206e+01 7.207882e-01 1.000000e-02 3.612683e+00 3.470240e+00 3.359140e-01 3.178161e+00 3.078355e+00 6.656332e+00 2.715436e+00 8.901467e-01 8.443739e-01 2.584048e+00 3.099314e+00 1.601976e+00 1.000000e-02
<GCONST> 7.473668e+01
<STATE> 4
<NUMMIXES> 4
<MIXTURE> 1 2.222222e-01
<MEAN> 26
 -5.246779e+00 3.215555e+00 -5.333360e+00 -1.540184e+01 -1.378053e+00 -2.723483e+00 -8.623322e+00 -4.064024e+00 -2.683377e+00 1.346203e+00 -3.791819e+00 1.041670e+00 6.033908e-01 -3.126425e+00 -1.904609e-01 5.572616e-01 2.144832e+00 1.053854e+00 -1.827382e+00 1.834591e+00 8.312431e-01 1.173074e+00 -5.713258e-02 1.426144e-01 4.983089e-01 -3.817148e-02
<VARIANCE> 26
 2.857406e+01 1.175117e+01 1.303355e+01 5.111957e+01 7.805038e+00 4.755444e+01 4.000475e+01 8.750000e+01 2.051041e+01 3.538050e+01 1.745314e+01 1.542065e+01 1.841291e-02 7.787832e+00 6.214052e+00 1.947446e+00 4.376570e+00 3.393723e+00 4.029966e+00 9.122169e+00 2.484221e+00 3.825984e+00 5.371014e+00 2.149760e+00 8.257709e-01 1.000000e-02
<GCONST> 9.311794e+01
<MIXTURE> 2 1.481481e-01
<MEAN> 26
 -4.650847e+00 -4.646785e+00 1.037080e+01 -5.865928e+00 -1.524503e+01 -1.204041e+01 -1.025235e+01 -1.738452e+00 -1.407921e+01 6.894430e-01 -3.490326e+00 1.449324e-01 7.146209e-01 -5.911745e-01 8.326593e-02 1.411316e+00 -1.648967e-01 -1.572149e+00 -2.578451e-01 4.210225e-01 4.575130e-01 -1.320201e+00 2.151851e-01 -2.918807e-01 5.148946e-01 1.806159e-02
<VARIANCE> 26
 1.578027e+01 2.210645e+01 1.877262e+01 3.084389e+01 5.282623e+01 4.567651e+01 1.140557e+01 2.040754e+01 2.524405e+01 3.895737e+00 1.760271e+01 1.631301e+01 1.000000e-02 1.255548e+00 1.562665e+00 5.179635e+00 1.315008e+00 3.641564e+00 3.976524e+00 1.658808e+00 8.011832e+00 1.176313e+00 8.244885e-01 1.601423e+00 4.577151e-01 1.000000e-02
<GCONST> 8.178868e+01
<MIXTURE> 3 4.444444e-01
<MEAN> 26
 1.048783e+00 -1.173217e+01 -8.807400e+00 -2.774379e+00 -1.219621e+01 -5.088495e+00 -7.420788e+00 3.513051e+00 2.037143e+00 -1.093902e+00 -2.820903e+00 -1.370919e+00 6.963691e-01 -2.071913e+00 8.705043e-02 9.895384e-01 5.124009e-01 5.047994e-01 -1.478657e-01 1.277004e+00 -2.657287e-01 4.420367e-01 1.871240e-01 -6.518145e-01 5.840286e-01 -4.868233e-02
<VARIANCE> 26
 2.073877e+01 1.645239e+01 5.282831e+01 2.912295e+01 6.244836e+01 6.061934e+01 7.163625e+01 3.691565e+01 2.853091e+01 1.367764e+01 4.108324e+01 3.639103e+01 2.533518e-02 3.002193e+00 4.079657e+00 1.986168e+00 5.467927e+00 1.151115e+01 5.846637e+00 3.399609e+00 2.848347e+00 3.773185e+00 6.754038e-01 2.808786e+00 2.271941e+00 1.000000e-02
<GCONST> 9.622990e+01
<MIXTURE> 4 1.851852e-01
<MEAN> 26
 4.527029e+00 -3.479314e+00 -1.238148e+01 -2.144790e+01 -1.974275e+01 1.200750e+01 -5.492685e+00 -2.716377e+00 -5.983861e+00 1.619413e-01 1.437093e+00 -1.772105e+00 8.312238e-01 3.467119e-02 -2.108684e+00 -5.443383e-01 1.266343e-03 5.720115e-01 2.136542e+00 -5.686625e-01 1.204179e-01 4.903281e-01 6.623089e-01 6.656190e-01 -1.118645e+00 2.728624e-02
<VARIANCE> 26
 2.498874e+00 3.103436e+01 4.864044e+00 1.024485e+01 1.527299e+01 2.125486e+01 1.715772e+00 8.727507e+00 2.358939e+00 1.571823e+01 2.811865e+01 6.734079e+00 1.000000e-02 7.010143e-02 1.007732e+00 3.610737e-01 1.853712e+00 7.863904e-01 1.866811e+00 2.181677e-01 2.027534e+00 5.325352e-01 1.141593e+00 1.953499e+00 1.417787e+00 1.000000e-02
<GCONST> 6.121741e+01
<TRANSP> 5
 0.000000e+00 1.000000e+00 0.000000e+00 0.000000e+00 0.000000e+00
 0.000000e+00 5.762712e-01 4.237288e-01 0.000000e+00 0.000000e+00
 0.000000e+00 0.000000e+00 5.762712e-01 4.237288e-01 0.000000e+00
 0.000000e+00 0.000000e+00 0.000000e+00 5.370370e-01 4.629630e-01
 0.000000e+00 0.000000e+00 0.000000e+00 0.000000e+00 0.000000e+00
<ENDHMM>
