~o
<STREAMINFO> 1 26
<VECSIZE> 26<NULLD><MFCC_E_D><DIAGC>
~h "N"
<BEGINHMM>
<NUMSTATES> 5
<STATE> 2
<NUMMIXES> 4
<MIXTURE> 1 2.127660e-01
<MEAN> 26
 -3.044444e+00 -8.575813e+00 4.534008e+00 -4.068540e+00 -1.283373e+01 -1.580829e+00 -1.437061e+01 5.290546e+00 4.456208e-01 -5.669275e+00 -8.235120e+00 1.986542e+00 5.635058e-01 -7.555493e-01 5.208497e-01 8.350468e-01 1.686504e+00 3.397891e-01 1.668982e-01 6.568795e-01 -8.910649e-01 -1.327335e+00 4.426427e-01 -9.887296e-01 8.391339e-01 -4.652955e-02
<VARIANCE> 26
 3.668759e+00 3.266885e+01 5.573069e+00 1.369279e+01 2.186382e+01 1.527442e+01 1.202811e+01 1.516919e+01 1.958587e+01 6.862434e+00 1.829098e+01 9.659826e+00 1.101372e-02 3.149114e-01 5.459138e-01 2.602221e+00 2.592358e+00 1.426470e+00 1.399456e+00 5.272193e+00 2.973751e+00 2.151187e+00 1.111213e+00 1.818942e+00 1.251544e+00 1.000000e-02
<GCONST> 7.417074e+01
<MIXTURE> 2 1.702128e-01
<MEAN> 26
 -3.513823e+00 -5.887882e+00 4.213474e-01 -9.982285e-01 -8.374326e+00 2.265990e+00 -7.040558e+00 -5.901714e+00 -6.993490e+00 5.747609e+00 -4.841259e+00 -2.688443e+00 4.367997e-01 2.271073e-01 9.168023e-01 -6.981864e-01 1.983305e+00 1.105247e+00 -1.829793e-01 -2.139766e+00 -2.763741e+00 1.223648e-01 -1.300977e+00 -7.855937e-02 2.710577e+00 -1.785153e-02
<VARIANCE> 26
 6.205860e+00 6.819329e+00 2.574280e+01 1.106987e+01 4.470840e+01 4.789173e+00 3.361130e+01 1.718426e+01 1.864349e+01 1.329926e+01 1.337119e+01 6.373363e+00 1.000000e-02 1.756984e+00 3.675555e+00 3.351088e+00 3.534722e+00 3.819402e+00 2.976584e+00 1.719276e+00 1.123747e+00 1.515917e+01 2.884522e+00 4.803629e+00 1.345236e+00 1.000000e-02
<GCONST> 8.272648e+01
<MIXTURE> 3 4.893617e-01
<MEAN> 26
 -3.862240e+00 -4.852851e+00 5.313865e+00 -2.289515e+00 -1.374168e+01 4.462531e+00 -9.072418e+00 -1.027869e+01 -4.827377e+00 -1.689048e+00 -5.280468e+00 3.346318e+00 4.467868e-01 1.967719e-01 4.196682e-01 4.534327e-01 8.613837e-01 -8.697426e-01 9.113505e-01 -2.297406e-01 -2.470966e+00 -1.009710e+00 -6.307298e-02 4.549771e-01 8.416927e-01 -1.114870e-02
<VARIANCE> 26
 3.188826e-01 1.068625e+01 5.088433e+00 2.891686e+00 2.386568e+01 6.560034e+00 2.059929e+01 1.365374e+01 1.532300e+01 8.353713e+00 7.350328e+00 1.782992e+00 1.000000e-02 2.366199e+00 1.954095e+00 9.163955e-01 1.321069e+00 3.433050e+00 3.087047e+00 2.490194e+00 4.538872e+00 1.468728e+00 1.903565e+00 1.566697e+00 8.929853e-01 1.000000e-02
<GCONST> 6.847906e+01
<MIXTURE> 4 1.276596e-01
<MEAN> 26
 -1.104314e+00 -6.401232e+00 -5.525637e-01 8.546463e+00 -1.249788e+01 -4.857941e+00 -6.306743e+00 -1.189785e+01 -8.078612e+00 2.724284e+00 -5.046374e+00 -5.577831e+00 4.520042e-01 -7.533370e-01 1.120921e+00 1.985333e-01 1.779181e+00 1.062572e+00 8.227254e-01 1.071559e+00 -3.630414e+00 -2.843972e+00 2.198799e+00 -8.539733e-01 2.352739e-01 -3.791252e-02
<VARIANCE> 26
 1.697627e-01 1.798329e-01 6.973376e-01 2.682917e+00 3.103188e+00 2.949743e+00 3.063569e+00 1.271255e+01 2.273561e+00 5.966382e+00 2.862400e+00 2.379687e+00 1.000000e-02 1.229049e-01 6.494017e-01 2.696029e-01 2.748138e+00 4.964001e-01 9.684684e-01 3.265023e+00 3.148563e+00 4.408196e-01 2.616389e-01 2.820173e-01 7.643998e-01 1.000000e-02
<GCONST> 4.118975e+01
<STATE> 3
<NUMMIXES> 4
<MIXTURE> 1 2.222222e-01
<MEAN> 26
 -3.678798e+00 -2.888009e-03 3.676331e-01 -6.549616e+00 -1.007382e+01 -1.030809e+00 -8.744024e+00 -4.347421e+00 1.451805e-02 1.505393e+00 -9.425125e+00 -6.472062e-01 4.384133e-01 2.113946e-01 9.561788e-01 -1.271829e+00 3.587807e-01 6.424354e-02 9.015632e-01 -1.853478e-01 1.033109e-01 -2.350884e-01 3.545543e-01 1.515486e+00 -1.801440e-01 -1.225339e-02
<VARIANCE> 26
 5.026390e+00 1.567448e+01 1.160269e+01 5.123937e+00 1.903818e+01 8.976979e+00 3.964709e+01 1.567903e+01 5.656650e+00 2.146614e+01 1.563955e+01 1.461744e+01 1.000000e-02 1.317273e+00 1.738951e+00 3.999476e-01 3.323819e+00 7.368432e-01 3.138597e-01 7.653151e-01 3.092707e+00 2.717088e+00 5.438018e+00 2.170922e+00 2.573335e+00 1.000000e-02
<GCONST> 7.375539e+01
<MIXTURE> 2 3.611111e-01
<MEAN> 26
 -5.220889e+00 -3.859377e-01 4.112890e+00 1.718474e-01 -1.102734e+01 2.343265e+00 -6.642755e+00 -1.096903e+01 -6.411898e+00 -4.214253e+00 -6.748988e+00 4.545052e+00 3.724182e-01 -1.057969e+00 1.314136e-01 -1.407768e+00 -1.466041e+00 7.486449e-01 -2.001905e+00 1.081858e+00 1.818643e+00 1.596325e+00 -8.810527e-01 5.042834e-01 -3.847240e-01 1.568830e-02
<VARIANCE> 26
 5.035856e+00 1.360729e+01 1.553682e+01 1.138201e+01 3.628552e+01 9.513247e+00 1.439215e+01 3.509365e+00 9.843349e+00 2.128608e+00 1.308390e+01 1.135578e+01 1.000000e-02 3.200206e+00 2.516407e+00 4.206635e+00 2.446973e+00 4.607894e+00 2.316534e+00 2.738867e+00 6.157801e+00 9.136559e-01 1.488891e+00 1.945143e+00 1.060736e+00 1.000000e-02
<GCONST> 7.642918e+01
<MIXTURE> 3 1.666667e-01
<MEAN> 26
 -3.457219e+00 -1.199959e+01 2.333107e+00 -2.173022e-01 -1.353444e+01 -1.692575e+00 -8.901436e+00 1.239906e+00 -8.302605e-01 -6.240287e+00 -1.008908e+01 4.263941e+00 5.220801e-01 -5.610061e-01 7.603406e-02 -9.600820e-01 -1.330371e+00 1.073398e+00 -3.553895e-01 1.594649e+00 8.314974e-01 1.584382e+00 -1.259590e+00 -1.929905e-02 -1.037155e+00 -7.738318e-03
<VARIANCE> 26
 5.679721e+00 4.031139e+00 1.047011e+01 3.089134e+01 8.945656e+00 1.254635e+01 4.008932e+01 2.363785e+01 1.230305e+01 8.420212e+00 7.092338e+00 1.736668e+01 1.000000e-02 2.298406e+00 2.184810e+00 1.174770e+00 2.789867e+00 1.915727e+00 2.188696e+00 1.658590e+00 4.267321e+00 2.161376e+00 1.733326e+00 3.438827e+00 2.055961e+00 1.000000e-02
<GCONST> 7.798086e+01
<MIXTURE> 4 2.500000e-01
<MEAN> 26
 -2.769342e+00 -5.375887e+00 6.175328e-01 3.229923e+00 -8.670384e+00 1.728875e+00 -1.034766e+01 -1.378043e+01 -1.172081e+01 3.533723e+00 -4.885980e+00 2.205574e+00 4.619358e-01 8.018669e-01 6.686231e-01 -1.962940e+00 -2.533097e+00 1.966142e-02 6.695945e-01 7.614020e-01 1.004795e+00 1.213823e+00 -8.292452e-01 6.647562e-01 4.001905e-01 2.946252e-02
<VARIANCE> 26
 1.147142e+00 6.265284e+00 2.436493e+00 2.129076e+01 2.652094e+00 2.023175e+01 2.683363e+01 5.280691e+00 5.651644e+00 2.192949e+01 7.906702e+00 2.430329e+01 1.000000e-02 1.248971e+00 9.375103e-01 2.770307e+00 1.444671e+00 3.648503e+00 4.892541e-01 1.987702e+00 2.410041e+00 3.326152e+00 7.609354e-01 7.785577e-01 1.450618e+00 1.000000e-02
<GCONST> 6.825099e+01
<STATE> 4
<NUMMIXES> 4
<MIXTURE> 1 2.068966e-01
<MEAN> 26
 -1.467926e+01 -3.100673e-01 -5.508748e+00 -4.133906e+00 -6.462063e+00 -5.551616e+00 -3.824379e-01 -1.868315e+00 2.823198e-01 -3.271567e+00 -2.190219e+00 1.549065e+00 3.241393e-01 -3.890611e+00 -1.024211e+00 -3.842316e+00 -8.769432e-01 2.471138e+00 -1.420377e+00 6.724253e-01 -1.405496e-01 1.248411e+00 2.167950e-01 1.487549e+00 -1.536549e+00 4.275841e-02
<VARIANCE> 26
 2.808563e+01 2.169187e+01 1.400856e+01 4.542907e+01 2.367076e+01 1.016330e+01 1.039972e+01 1.444410e+01 7.729264e+00 6.778709e+00 1.064741e+01 6.912543e+00 1.011195e-02 3.477756e+00 4.724698e+00 1.183453e+00 3.285815e+00 4.120475e+00 1.252996e+00 2.732195e-01 3.045314e+00 3.497673e-01 4.094264e-01 6.623344e-01 5.178075e-01 1.000000e-02
<GCONST> 7.280741e+01
<MIXTURE> 2 2.758621e-01
<MEAN> 26
 1.895035e+00 -5.218287e+00 -1.126474e+01 -1.206450e+01 -9.768030e+00 3.502671e+00 -7.647230e+00 -3.130249e+00 -1.440724e+00 -1.100083e+00 -2.840570e+00 -9.120735e-01 6.707953e-01 2.002780e+00 -1.016801e+00 -3.934405e+00 -3.638038e+00 -3.420267e-01 2.082011e+00 -5.394300e-01 3.252350e+00 4.104671e+00 -1.068735e+00 -3.018615e-01 -2.121095e+00 8.648095e-02
<VARIANCE> 26
 1.053000e+01 6.183906e+00 1.472595e+01 1.609585e+01 5.754023e+00 1.348059e+01 9.211372e+00 7.943007e+00 1.273577e+01 1.053436e+01 4.570100e+00 8.769782e+00 1.000000e-02 3.974731e-01 9.833970e-01 3.280417e-01 7.345535e-01 2.168121e+00 2.427140e+00 2.741161e+00 1.022472e+00 2.123517e+00 5.607606e-01 8.669764e-01 5.645533e-01 1.000000e-02
<GCONST> 6.524143e+01
<MIXTURE> 3 3.103448e-01
<MEAN> 26
 -4.375304e+00 -9.092524e+00 3.701040e+00 -7.437249e+00 -1.417262e+01 -2.688200e+00 -6.737759e+00 3.780785e+00 3.090450e+00 -8.884744e+00 -7.760136e+00 1.195486e+00 5.572397e-01 -2.677896e-01 -1.593501e+00 -9.953886e-01 -2.974735e+00 3.003903e-01 -1.072837e+00 1.144744e+00 2.069918e+00 1.547875e+00 -4.393488e-01 9.295738e-01 -7.373256e-01 4.356575e-02
<VARIANCE> 26
 5.895495e+00 2.974480e+01 1.469506e+01 1.441928e+01 2.020473e+01 1.494677e+01 3.894734e+01 2.120069e+01 3.232494e+00 7.692432e+00 1.474852e+01 1.100817e+01 1.146028e-02 3.175030e+00 1.617221e+00 2.883086e+00 1.084126e+00 8.692124e+00 1.237155e+00 1.028475e+00 6.182225e+00 2.187760e+00 1.938664e+00 5.023876e+00 1.904540e+00 1.000000e-02
<GCONST> 8.066759e+01
<MIXTURE> 4 2.068966e-01
<MEAN> 26
 -2.326838e+00 1.660154e+00 -1.028551e+00 1.540932e-01 -6.447322e+00 1.405236e+00 -6.743914e+00 -1.123660e+01 -9.981256e+00 3.966132e+00 -5.405564e-01 -1.960639e+00 3.928511e-01 -8.264281e-01 1.745370e+00 -2.322015e-01 -7.082755e-01 1.924055e-01 5.378541e-01 1.115120e+00 -5.178283e-01 5.686337e-03 -8.094133e-01 6.393343e-01 1.471818e+00 -2.451623e-02
<VARIANCE> 26
 5.176031e+00 2.945809e+00 4.901694e+00 2.432700e+01 2.047938e+01 1.023695e+01 2.192993e+00 1.348053e+01 9.578731e+00 8.528819e+00 9.029424e+00 8.240872e+00 1.000000e-02 1.887764e+00 6.306627e-01 4.491352e-01 8.568889e-01 3.643141e+00 7.098050e-01 2.375921e+00 3.832911e+00 5.646986e+00 8.235318e-01 2.349074e+00 1.584470e-01 1.000000e-02
<GCONST> 6.645185e+01
<TRANSP> 5
 0.000000e+00 1.000000e+00 0.000000e+00 0.000000e+00 0.000000e+00
 0.000000e+00 6.595744e-01 3.404255e-01 0.000000e+00 0.000000e+00
 0.000000e+00 0.000000e+00 5.555556e-01 4.444444e-01 0.000000e+00
 0.000000e+00 0.000000e+00 0.000000e+00 4.482759e-01 5.517241e-01
 0.000000e+00 0.000000e+00 0.000000e+00 0.000000e+00 0.000000e+00
<ENDHMM>
