~o
<STREAMINFO> 1 26
<VECSIZE> 26<NULLD><MFCC_E_D><DIAGC>
~h "S"
<BEGINHMM>
<NUMSTATES> 5
<STATE> 2
<NUMMIXES> 4
<MIXTURE> 1 1.443299e-01
<MEAN> 26
 -8.062850e+00 -3.976381e+00 -5.089239e+00 -6.696826e+00 -8.984278e+00 2.270581e-01 1.487508e-01 4.425206e+00 7.436993e-01 -1.853317e+00 -7.959511e+00 3.353025e-01 2.543529e-01 -1.147703e+00 -1.309397e-01 -4.951355e-01 -2.372719e-01 4.862190e-01 -7.400391e-01 2.621665e-01 -5.201256e-01 -6.968473e-01 -7.643843e-01 1.674275e-01 -1.070961e-01 -6.872977e-02
<VARIANCE> 26
 1.230210e+01 5.286601e+01 4.437079e+01 2.215790e+01 7.057222e+01 9.626618e+00 1.520979e+01 1.989204e+01 2.033173e+01 1.986339e+01 1.100144e+01 1.691458e+01 3.555541e-02 3.452724e+00 1.375072e+00 1.074618e+00 3.327689e+00 3.588931e+00 1.679603e+00 2.593307e+00 4.864939e+00 8.405933e-01 2.819173e+00 2.148836e+00 1.286606e+00 1.000000e-02
<GCONST> 8.571501e+01
<MIXTURE> 2 3.505155e-01
<MEAN> 26
 -1.692632e+01 -4.289989e+00 -8.177466e+00 -1.176016e+01 4.503481e-01 -3.357430e+00 -2.501260e+00 1.660619e+00 -1.464461e+00 -1.047358e+00 -3.188346e+00 -4.213364e-01 1.361179e-01 6.066183e-01 1.247143e-01 -5.573956e-01 7.308214e-01 -1.652002e-01 1.216137e+00 -1.841888e-01 -2.642435e-02 -5.222632e-01 1.859842e-01 3.502612e-01 2.248879e-01 -4.107715e-02
<VARIANCE> 26
 3.357636e+00 3.349592e+00 6.943720e+00 7.571126e+00 1.447971e+01 2.073587e+01 1.095919e+01 1.877550e+01 1.188491e+01 6.203608e+00 9.545937e+00 1.114346e+01 1.000000e-02 1.261849e+00 5.358899e-01 8.214465e-01 1.334262e+00 1.432990e+00 1.955829e+00 1.606978e+00 3.504199e+00 1.004058e+00 6.713493e-01 1.363378e+00 1.000103e+00 1.000000e-02
<GCONST> 6.733043e+01
<MIXTURE> 3 5.154639e-02
<MEAN> 26
 -6.988512e+00 -5.186976e+00 -1.017322e+01 -1.474137e+01 -4.972579e+00 -5.787532e-01 -1.260838e+01 -1.397635e+00 6.196221e+00 -1.845767e+00 -1.376028e+01 -1.928948e+01 3.411597e-01 -4.058278e-01 -1.514468e+00 -1.143623e-01 -5.105207e-01 1.309201e+00 3.499418e+00 -4.528485e-01 5.423697e-01 -4.158468e-01 -7.666439e-01 -9.919010e-01 -1.459443e+00 -4.260408e-02
<VARIANCE> 26
 1.883915e+01 6.611133e+00 4.357510e+00 4.623002e+00 9.826462e+00 4.489312e+01 2.410514e+01 7.109488e+00 1.202663e+01 2.207303e+01 2.413729e+01 2.614430e+01 1.548469e-02 7.931870e+00 1.557126e+00 4.399598e-01 1.126139e+00 9.449288e-01 1.140823e+00 6.090887e+00 3.548941e-01 1.220760e+00 2.123402e+00 8.490832e+00 1.448180e+01 1.000000e-02
<GCONST> 7.852325e+01
<MIXTURE> 4 4.536082e-01
<MEAN> 26
 -1.894644e+01 -2.475313e+00 -5.623327e+00 -3.503224e+00 -3.458050e+00 4.901046e-01 -7.173436e-01 1.487986e+00 4.208257e-02 1.059632e+00 6.171389e-01 -4.620000e-01 -1.478638e-01 1.321396e-01 2.459189e-02 4.713721e-02 -1.314188e-01 -1.546561e-01 3.337644e-01 3.499875e-02 6.212635e-02 -2.070901e-01 -3.354778e-01 -9.518839e-02 1.691409e-02 5.271768e-04
<VARIANCE> 26
 1.853859e+00 3.044347e+00 3.667581e+00 5.814463e+00 6.921483e+00 9.860606e+00 1.216365e+01 8.064452e+00 6.976895e+00 9.865029e+00 7.142579e+00 6.462532e+00 1.000000e-02 2.178113e-01 2.825168e-01 5.334125e-01 8.189276e-01 8.452705e-01 7.828585e-01 9.815405e-01 1.147627e+00 8.684746e-01 1.273438e+00 1.259190e+00 1.117206e+00 1.000000e-02
<GCONST> 5.676949e+01
<STATE> 3
<NUMMIXES> 4
<MIXTURE> 1 3.417721e-01
<MEAN> 26
 -1.746633e+01 -7.358705e-01 -5.183016e+00 -2.080289e+00 -3.353957e+00 -1.393903e+00 -2.163046e+00 -9.852598e-01 -9.319519e-01 8.239599e-01 -6.510901e-01 1.044207e+00 -9.715641e-02 4.309373e-01 6.497220e-01 4.508910e-01 -2.699375e-01 -1.366871e+00 -6.571495e-01 -4.230544e-02 -7.187957e-01 -2.030778e-01 4.333127e-01 4.451830e-02 -4.356374e-01 1.984927e-02
<VARIANCE> 26
 4.543248e+00 6.023770e+00 9.288969e+00 1.308685e+01 1.534209e+01 5.136706e+00 1.075250e+01 1.054811e+01 9.698997e+00 6.581707e+00 1.643857e+01 1.229767e+01 1.000000e-02 7.904679e-01 9.608586e-01 1.438202e+00 3.279847e+00 1.361753e+00 4.719114e-01 1.430118e+00 1.359546e+00 1.222661e+00 1.286068e+00 9.229019e-01 1.721685e+00 1.000000e-02
<GCONST> 6.766225e+01
<MIXTURE> 2 4.050633e-01
<MEAN> 26
 -1.329526e+01 -2.597063e+00 -1.147821e+01 -7.058107e+00 -4.103635e+00 -3.418511e-01 7.501720e-01 2.989043e+00 1.480516e-01 -4.191540e-01 -3.600543e+00 7.112728e-01 -3.264191e-02 -2.386818e-01 4.710038e-01 3.573722e-01 1.987442e-01 -1.155768e-01 2.105354e-01 -6.099169e-02 -2.660858e-01 -2.415216e-01 -1.715318e-01 4.993474e-02 1.992590e-02 -1.793831e-02
<VARIANCE> 26
 4.504742e+00 8.191236e+00 7.872918e+00 3.440845e+00 1.428950e+01 1.551995e+01 1.167922e+01 2.672454e+01 9.273723e+00 1.107044e+01 1.536185e+01 1.430922e+01 1.000000e-02 2.509111e-01 6.362228e-01 1.158358e+00 6.012828e-01 1.166250e+00 1.531903e+00 9.887969e-01 2.178320e+00 1.315815e+00 1.334712e+00 2.705293e+00 1.409874e+00 1.000000e-02
<GCONST> 6.770403e+01
<MIXTURE> 3 5.063291e-02
<MEAN> 26
 -1.344182e+01 -1.722809e+01 -1.491329e+01 -1.733252e+01 1.022357e+00 9.386928e+00 -9.842867e+00 5.075061e+00 7.866664e+00 3.293498e+00 -9.261316e+00 -1.179736e+01 2.108530e-01 4.787554e-01 -1.782138e+00 -7.333429e-01 -5.538211e-01 2.222214e-01 4.667783e-01 1.447824e+00 1.860322e+00 7.628462e-01 9.066198e-01 1.419743e-01 2.016385e+00 4.520959e-02
<VARIANCE> 26
 8.988632e-01 5.387872e+00 3.265838e+00 4.667085e+00 1.328944e+00 1.183903e+00 2.539816e+01 2.827066e+01 7.072833e+00 4.539842e+00 1.290702e+00 2.721850e+00 1.000000e-02 1.183796e+00 1.433069e+00 7.829745e-01 9.253463e-01 3.921077e-01 1.490452e-01 1.788813e+00 6.166107e-01 5.203885e-01 2.296191e+00 1.569975e+00 4.049784e-01 1.000000e-02
<GCONST> 5.182122e+01
<MIXTURE> 4 2.025317e-01
<MEAN> 26
 -1.671413e+01 -4.284693e+00 -5.737580e+00 -1.303308e+01 -5.409770e+00 2.916597e+00 2.437896e-01 6.004294e+00 -6.172451e+00 -3.473858e+00 -1.196185e+00 -4.278088e+00 -6.094627e-02 -8.383751e-03 -4.104452e-01 -2.938600e-01 -5.630298e-02 3.627946e-01 5.602776e-01 2.086906e-01 5.660514e-01 1.538750e-01 -2.171331e-01 -3.863857e-01 -6.140794e-01 5.570093e-04
<VARIANCE> 26
 1.689024e+00 7.202971e+00 3.430090e+01 7.607521e+00 3.440490e+01 1.735303e+01 1.384151e+01 3.543758e+01 1.790935e+01 2.395514e+01 2.008542e+01 1.182082e+01 1.000000e-02 1.978318e+00 1.372173e+00 1.771217e+00 2.214104e+00 1.440705e+00 1.244966e+00 3.055583e+00 2.584726e+00 1.664728e+00 1.355648e+00 3.134796e+00 1.069414e+00 1.000000e-02
<GCONST> 7.779581e+01
<STATE> 4
<NUMMIXES> 4
<MIXTURE> 1 1.587302e-01
<MEAN> 26
 -1.252827e+01 -2.390431e+00 -1.206950e+01 -9.232062e+00 -1.785180e-01 6.666354e+00 -8.705836e-03 -1.208905e+00 -5.514478e+00 -3.649156e+00 -3.605753e+00 -3.062111e+00 2.846001e-02 8.791931e-01 4.385323e-01 6.766602e-01 6.594478e-02 3.279235e-01 2.563168e-01 -4.814912e-01 1.616280e-02 -5.887690e-01 -1.043451e+00 -9.148107e-01 -4.761264e-01 2.739777e-02
<VARIANCE> 26
 1.118170e+01 3.798408e+00 1.417017e+01 8.802629e+00 1.165201e+01 2.612853e+01 8.879928e+00 7.741246e+00 1.503504e+01 1.099356e+01 7.988973e+00 1.278216e+01 2.074169e-02 4.197351e+00 2.154463e-01 3.399533e-01 1.408794e+00 1.613757e+00 4.684090e-01 2.684214e+00 8.398018e-01 9.769934e-01 1.548966e+00 6.880807e-01 2.074372e-01 1.000000e-02
<GCONST> 6.572541e+01
<MIXTURE> 2 5.714286e-01
<MEAN> 26
 -1.632770e+01 -1.704861e+00 -4.123576e+00 -4.440394e+00 -5.805514e+00 -8.219556e-01 -4.973682e-01 7.600006e-02 -2.935738e-01 -1.657256e+00 -2.396880e+00 -6.926606e-01 -1.130498e-02 -5.964919e-01 -6.542295e-01 8.117908e-01 -6.583603e-02 -1.626258e-01 3.178428e-01 -3.395303e-01 4.637097e-02 3.638885e-01 2.838961e-01 5.344222e-01 1.855345e-02 4.547874e-02
<VARIANCE> 26
 8.205762e+00 2.108295e+01 1.454578e+01 1.494694e+01 3.439626e+01 1.271429e+01 5.123561e+00 2.578288e+01 1.182808e+01 2.192539e+01 1.776866e+01 1.230042e+01 3.686786e-02 2.191858e+00 1.834651e+00 1.924136e+00 1.795041e+00 1.827232e+00 8.912150e-01 8.161380e-01 3.503894e+00 1.814094e+00 1.033626e+00 1.260097e+00 2.235757e+00 1.000000e-02
<GCONST> 7.815764e+01
<MIXTURE> 3 1.428571e-01
<MEAN> 26
 -1.534532e+00 -7.357434e+00 -1.036904e+01 -1.498884e+01 -4.851924e+00 9.075777e+00 -6.704532e+00 3.154131e+00 -4.754450e-01 -3.502524e+00 -7.502137e+00 -5.021096e+00 6.108481e-01 2.675351e+00 -6.580442e-02 -6.232412e-01 -1.135705e+00 -7.518455e-01 1.254232e+00 -1.352831e+00 -3.871135e-01 -1.084733e-01 -1.093575e+00 1.227721e-01 -3.973847e-01 1.231436e-01
<VARIANCE> 26
 1.620825e+01 4.130455e+01 2.005368e+01 2.212631e+01 6.747116e+01 2.443799e+01 1.052637e+01 8.851891e+00 2.928541e+01 2.666788e+01 1.355130e+01 6.560450e+00 1.908239e-02 5.042002e-01 3.833309e+00 1.144302e+01 5.455940e+00 1.775987e+00 4.410398e+00 5.630916e-01 1.185176e+00 2.534548e+00 2.515895e+00 1.042372e+00 2.093830e+00 1.000000e-02
<GCONST> 8.399283e+01
<MIXTURE> 4 1.269841e-01
<MEAN> 26
 -1.046307e+01 2.177611e+00 7.067486e+00 -9.816104e+00 -1.082910e+01 -7.199654e-01 -7.693337e+00 -2.427530e-02 -1.253963e+01 -1.386995e+00 -2.588584e+00 -1.878366e+00 3.401642e-01 2.465806e+00 1.272726e+00 1.373517e+00 -1.044924e+00 -1.344001e-02 -2.400763e-01 -1.211810e+00 -4.513887e-01 -2.173776e+00 -1.329884e+00 -1.478595e+00 1.913469e-01 1.331829e-01
<VARIANCE> 26
 1.973383e+01 1.592114e+01 2.436365e+01 1.414239e+01 1.099217e+01 4.809590e+00 6.354434e+01 5.239621e+01 2.688548e+01 7.127027e+00 9.199945e+00 3.503916e+01 2.811680e-02 1.191847e+00 1.914738e+00 1.065365e+00 1.951068e+00 8.640765e-01 1.240403e+00 4.564793e+00 2.105533e+00 1.873923e+00 5.168589e-01 9.696820e-01 2.742153e+00 1.000000e-02
<GCONST> 7.914509e+01
<TRANSP> 5
 0.000000e+00 1.000000e+00 0.000000e+00 0.000000e+00 0.000000e+00
 0.000000e+00 8.350515e-01 1.649485e-01 0.000000e+00 0.000000e+00
 0.000000e+00 0.000000e+00 7.974684e-01 2.025317e-01 0.000000e+00
 0.000000e+00 0.000000e+00 0.000000e+00 7.460318e-01 2.539683e-01
 0.000000e+00 0.000000e+00 0.000000e+00 0.000000e+00 0.000000e+00
<ENDHMM>
