~o
<STREAMINFO> 1 26
<VECSIZE> 26<NULLD><MFCC_E_D><DIAGC>
~h "V"
<BEGINHMM>
<NUMSTATES> 5
<STATE> 2
<NUMMIXES> 4
<MIXTURE> 1 1.358696e-01
<MEAN> 26
 -7.842897e+00 -4.432759e+00 5.924608e+00 -8.409021e+00 -1.144460e+01 -6.880468e+00 -2.455133e+00 5.582345e+00 -6.557200e+00 -3.217731e+00 -2.709813e+00 -9.804757e-02 4.928671e-01 7.882261e-01 2.122019e-01 1.848153e+00 3.824237e-01 -1.061624e+00 -4.493190e-01 3.064495e-01 -5.674926e-01 -1.190105e+00 4.618280e-01 4.537980e-01 1.999271e-01 4.220934e-03
<VARIANCE> 26
 1.921936e+01 1.021036e+01 2.448833e+01 2.450114e+01 1.633787e+01 4.002238e+01 2.749297e+01 3.593639e+01 7.223042e+01 2.228176e+01 1.786270e+01 1.829876e+01 2.606587e-02 3.431182e+00 1.520261e+00 4.403877e+00 2.176535e+00 3.172800e+00 2.182781e+00 5.129967e+00 3.634676e+00 6.916581e+00 4.150466e+00 1.605894e+00 2.352550e+00 1.000000e-02
<GCONST> 9.121967e+01
<MIXTURE> 2 5.271739e-01
<MEAN> 26
 3.329954e+00 -1.165311e+01 -1.282769e+01 -1.310365e+01 -1.116361e+01 8.122421e+00 -1.034194e+01 -8.639618e-01 1.390879e+00 1.403779e-01 -1.893580e+00 -7.195924e+00 8.584853e-01 5.507369e-01 -1.051484e+00 -3.792443e-01 -3.094419e-01 -3.502402e-01 7.952012e-01 -6.146247e-01 3.950310e-01 6.725872e-01 2.078667e-01 -3.670995e-01 -1.079888e+00 2.747307e-02
<VARIANCE> 26
 4.644675e+00 2.505678e+01 2.211021e+01 4.578333e+01 4.669083e+01 7.355109e+01 3.973846e+01 2.220644e+01 3.587694e+01 3.176429e+01 2.954323e+01 2.679255e+01 1.000000e-02 1.561077e+00 1.996658e+00 1.849237e+00 2.591788e+00 3.510591e+00 4.221633e+00 2.427307e+00 2.260342e+00 2.866167e+00 1.934464e+00 2.047364e+00 2.054625e+00 1.000000e-02
<GCONST> 8.913966e+01
<MIXTURE> 3 2.826087e-01
<MEAN> 26
 -3.862292e+00 -7.750606e+00 1.243704e+01 -1.051117e+01 -2.404327e+01 -6.116641e+00 -9.581222e+00 -1.667071e-01 -1.162503e+01 4.013505e-01 6.400811e-01 -3.879739e-01 7.909017e-01 6.047431e-01 -6.979951e-01 3.163766e-03 -1.177042e-02 -8.088265e-01 -5.064791e-01 -4.537996e-01 5.467507e-01 2.920585e-02 3.948007e-01 3.317138e-01 3.342288e-01 2.086151e-02
<VARIANCE> 26
 6.474462e+00 3.510508e+01 2.669547e+01 8.705331e+00 1.367592e+01 2.398172e+01 3.033625e+01 1.528106e+01 3.710714e+01 1.614696e+01 1.560250e+01 1.178770e+01 1.000000e-02 1.195817e+00 2.302553e+00 2.240427e+00 1.649213e+00 3.505565e+00 1.839406e+00 3.001884e+00 1.945287e+00 1.875431e+00 1.580475e+00 1.252471e+00 7.217095e-01 1.000000e-02
<GCONST> 7.992483e+01
<MIXTURE> 4 5.434782e-02
<MEAN> 26
 -6.251241e+00 1.041811e+00 4.873303e+00 -1.590573e+01 -8.307244e+00 -3.702667e+00 -1.601626e+01 -9.159124e+00 -7.476865e+00 3.363253e+00 -6.408674e+00 -7.010455e-01 6.957438e-01 1.273611e+00 -1.497264e+00 5.201432e-01 3.684569e-01 -1.731183e+00 1.391639e-01 -9.831968e-01 7.575903e-01 7.188097e-01 2.720289e-01 -3.428290e-01 -4.077012e-01 4.250209e-02
<VARIANCE> 26
 7.289059e+00 1.976009e+01 3.949409e+01 2.131427e+01 1.972697e+01 4.143063e+01 3.009076e+01 1.568076e+01 4.665754e+01 2.664241e+01 5.849639e+00 6.309345e+00 1.000000e-02 3.420308e+00 1.897123e+00 1.618625e+00 1.045817e+00 2.906893e+00 2.227982e+00 8.025808e+00 1.183375e+00 4.368947e+00 8.691651e-01 9.909418e-01 9.991101e-01 1.000000e-02
<GCONST> 8.171641e+01
<STATE> 3
<NUMMIXES> 4
<MIXTURE> 1 1.680672e-01
<MEAN> 26
 1.683734e-01 -4.311255e+00 3.741319e-01 -8.068924e+00 -8.423759e+00 -4.746147e+00 -2.201738e+01 -5.938846e+00 -3.555231e+00 6.070815e+00 -3.598666e+00 -4.726320e+00 7.414125e-01 4.827712e-02 6.705586e-02 -1.265560e-01 3.946274e-01 3.561209e-01 1.047861e-01 1.025214e-01 -1.456681e-01 8.777138e-05 -8.748951e-02 -1.025016e-01 -2.208612e-01 -1.087476e-02
<VARIANCE> 26
 4.221114e+00 1.394865e+01 1.103020e+01 3.281936e+01 1.594586e+01 2.017826e+01 6.993701e+00 1.654518e+01 5.806896e+00 1.126759e+01 2.029854e+01 1.637527e+01 1.000000e-02 2.765065e-01 4.352797e-01 1.033658e+00 9.971863e-01 1.239830e+00 1.141002e+00 9.560621e-01 1.287544e+00 9.477453e-01 5.675658e-01 1.356419e+00 8.623301e-01 1.000000e-02
<GCONST> 6.705815e+01
<MIXTURE> 2 5.336134e-01
<MEAN> 26
 3.194425e+00 -1.675783e+01 -1.212406e+01 -8.975521e+00 -1.308888e+01 6.095894e+00 -8.686952e+00 3.928434e+00 1.519533e+00 -1.663735e-01 -7.775713e+00 -9.499063e+00 9.016638e-01 -1.908033e-01 -2.106190e-01 6.602241e-01 1.110300e-01 -3.034413e-01 -6.096309e-01 2.796773e-01 8.238809e-01 -9.724749e-02 -3.025804e-01 -5.315362e-01 2.589114e-01 -3.919627e-03
<VARIANCE> 26
 2.313938e+00 2.275311e+01 1.735874e+01 1.879876e+01 3.070049e+01 3.171219e+01 1.910387e+01 3.116802e+01 2.248302e+01 1.645624e+01 2.759154e+01 1.075835e+01 1.000000e-02 2.602993e-01 1.438992e+00 2.396251e+00 1.445444e+00 1.794197e+00 2.669530e+00 1.098596e+00 1.697396e+00 1.303060e+00 9.931268e-01 1.327015e+00 1.465682e+00 1.000000e-02
<GCONST> 7.657594e+01
<MIXTURE> 3 1.344538e-01
<MEAN> 26
 -7.266103e+00 -2.971168e+00 8.388911e+00 -6.114263e+00 -1.547937e+01 -8.006860e+00 -4.584388e+00 -4.383241e-01 -7.576111e+00 -2.280291e+00 -2.472219e+00 1.279119e+00 5.939287e-01 -2.123958e+00 2.223259e+00 -2.156827e+00 1.745481e+00 3.262140e+00 9.981644e-01 1.805111e+00 -1.064214e+00 2.023134e+00 -6.937481e-02 -4.297111e-01 2.121201e-01 -8.322528e-02
<VARIANCE> 26
 1.476686e+01 1.514221e+01 2.407079e+01 2.008679e+01 4.526630e+01 3.466183e+01 4.281212e+01 3.306466e+01 6.415008e+01 1.894088e+01 1.197209e+01 1.818523e+01 3.292300e-02 5.586810e+00 3.885637e+00 4.211727e+00 2.365666e+00 4.490114e+00 2.934071e+00 5.759335e+00 2.027936e+00 3.965555e+00 1.442438e+00 9.272510e-01 1.184264e+00 1.000000e-02
<GCONST> 9.070651e+01
<MIXTURE> 4 1.638656e-01
<MEAN> 26
 -9.822844e-01 -1.257143e+01 6.612730e+00 -8.058026e+00 -2.014394e+01 -9.141973e+00 -1.169302e+01 5.851406e+00 -4.008788e+00 -1.190833e+00 -4.033375e-01 -5.855010e-01 7.942556e-01 -1.679409e-01 6.310461e-01 -1.234213e+00 3.606606e-01 1.659267e+00 4.815096e-03 -9.453081e-02 -3.599417e-01 1.479444e+00 1.344555e-01 -8.868102e-01 -9.397324e-02 -1.915694e-02
<VARIANCE> 26
 4.364914e+00 1.746035e+01 2.947123e+01 1.046389e+01 1.126430e+01 1.734022e+01 2.941168e+01 1.923405e+01 5.184618e+01 1.527148e+01 1.144521e+01 1.177521e+01 1.000000e-02 1.304333e+00 2.298794e+00 3.505448e+00 1.836507e+00 2.169615e+00 2.246542e+00 5.098341e+00 3.705346e+00 2.401174e+00 2.446071e+00 1.090639e+00 2.153011e+00 1.000000e-02
<GCONST> 8.193688e+01
<STATE> 4
<NUMMIXES> 4
<MIXTURE> 1 2.261905e-01
<MEAN> 26
 -1.038231e+01 -1.440797e+00 -1.430650e+00 -6.109421e+00 -4.019009e+00 -5.053815e+00 -2.760107e+00 -1.487560e-01 -2.130652e-01 -2.054548e+00 -4.804429e+00 -1.862980e-01 5.113592e-01 -4.242772e+00 1.336649e+00 -1.387328e+00 4.772977e-01 3.122743e+00 -8.408448e-02 1.979903e+00 -7.709932e-01 6.209779e-01 -3.645464e-01 1.037184e+00 -9.286596e-02 -8.180880e-02
<VARIANCE> 26
 4.084089e+01 2.891712e+01 4.273637e+01 2.601238e+01 2.106488e+01 3.782649e+01 3.899743e+01 3.674146e+01 1.998847e+01 2.083335e+01 3.186656e+01 9.087116e+00 3.375667e-02 3.440869e+00 3.581383e+00 5.684124e+00 3.084218e+00 4.251952e+00 5.835545e+00 4.606129e+00 3.142281e+00 4.539475e+00 3.094453e+00 3.025556e+00 1.245673e+00 1.000000e-02
<GCONST> 9.475526e+01
<MIXTURE> 2 2.261905e-01
<MEAN> 26
 3.358296e+00 -5.814579e+00 -1.401819e+01 -2.033590e+01 -1.079251e+01 1.169847e+01 -9.652760e+00 -8.866645e-01 -2.560026e+00 2.075466e-01 -8.275962e-01 -1.367818e+00 8.420151e-01 -2.759866e-03 3.892559e-01 3.577197e-01 1.626172e-01 -2.652200e-01 -2.273841e-01 -1.791250e-01 -3.708593e-01 2.545893e-01 2.954322e-01 -4.598688e-01 3.682558e-01 -1.050146e-02
<VARIANCE> 26
 1.772864e+00 1.050808e+01 6.486064e+00 1.487075e+01 2.439016e+01 1.346392e+01 4.573937e+01 3.063563e+01 1.066685e+01 5.098952e+01 1.661081e+01 1.143424e+01 1.000000e-02 3.092625e-01 5.412786e-01 9.796255e-01 1.236749e+00 6.917101e-01 1.769143e+00 1.202250e+00 1.496580e+00 9.009613e-01 2.549109e+00 1.410118e+00 4.806477e-01 1.000000e-02
<GCONST> 7.028931e+01
<MIXTURE> 3 3.055556e-01
<MEAN> 26
 2.911350e-01 -1.541772e+01 -2.456082e+00 -9.062688e+00 -1.604263e+01 -9.439864e-01 -6.978797e+00 8.285182e+00 2.084531e+00 -3.708884e+00 -8.542474e+00 -4.312188e+00 7.985771e-01 -9.724570e-01 1.372519e+00 1.799992e+00 4.653475e-01 -3.570006e-01 -1.364145e+00 8.952748e-01 -3.541115e-01 -9.722967e-01 2.452269e-01 7.273021e-01 1.305354e+00 -4.030880e-02
<VARIANCE> 26
 3.778431e+00 3.041162e+01 2.462667e+01 1.275152e+01 3.654999e+01 2.299598e+01 2.624270e+01 1.626657e+01 2.555087e+01 1.525380e+01 2.249763e+01 1.035997e+01 1.225595e-02 8.082881e-01 1.362877e+00 2.213418e+00 1.986076e+00 3.767994e+00 1.763891e+00 3.777139e+00 4.178165e+00 2.983948e+00 1.617619e+00 2.247965e+00 7.883794e-01 1.000000e-02
<GCONST> 8.185569e+01
<MIXTURE> 4 2.420635e-01
<MEAN> 26
 -1.578888e+00 -7.607182e+00 2.608366e+00 -8.070180e+00 -1.613079e+01 -4.873630e+00 -7.884596e+00 -5.115075e-01 -3.940553e+00 4.619907e+00 -2.768226e+00 -2.613186e+00 6.592623e-01 -1.059962e+00 2.378459e+00 -2.705859e-01 1.076021e+00 1.906504e+00 1.519084e-01 5.954882e-01 -1.641529e+00 -6.069474e-01 3.674648e-01 -9.447666e-02 5.068269e-01 -7.123654e-02
<VARIANCE> 26
 1.138550e+01 2.259567e+01 3.965706e+01 4.341575e+01 4.069844e+01 5.617148e+01 5.499939e+01 3.359352e+01 2.499632e+01 3.360001e+01 1.412702e+01 1.744513e+01 1.699236e-02 1.998689e+00 2.337453e+00 3.880403e+00 5.898236e+00 5.240791e+00 4.243178e+00 3.376965e+00 4.624748e+00 4.884292e+00 4.202377e+00 1.911963e+00 3.025708e+00 1.000000e-02
<GCONST> 9.490178e+01
<TRANSP> 5
 0.000000e+00 1.000000e+00 0.000000e+00 0.000000e+00 0.000000e+00
 0.000000e+00 6.304348e-01 3.695652e-01 0.000000e+00 0.000000e+00
 0.000000e+00 0.000000e+00 7.142857e-01 2.857143e-01 0.000000e+00
 0.000000e+00 0.000000e+00 0.000000e+00 7.301587e-01 2.698413e-01
 0.000000e+00 0.000000e+00 0.000000e+00 0.000000e+00 0.000000e+00
<ENDHMM>
